0.000000
0.000000
0.000000
0.000000
0.000000
0.000000
0.000000
0.000000
0.000000
0.000000
0.000000
0.000000
0.000000
0.000000
0.000000
0.000000
0.000000
0.000000
0.000000
0.000000
0.000000
0.000000
0.000000
0.000000
0.000000
0.000000
0.000000
0.000000
0.000000
0.000000
0.000000
0.000000
0.000000
0.000000
0.000000
0.000000
0.000000
0.000000
0.000000
0.000000
0.000000
0.000000
0.000000
0.000000
0.000000
0.000000
0.000000
0.000000
0.000000
0.000000
0.000000
0.000000
0.000000
0.000000
0.000000
0.000000
0.000000
0.000000
0.000000
0.000000
0.000000
0.000000
0.000000
0.000000
0.000000
0.000000
0.000000
0.000000
0.000000
0.000000
0.000000
0.000000
0.000000
0.000000
0.000000
0.000000
0.000000
0.000000
0.000000
0.000000
0.000000
0.000000
0.000000
0.000000
0.000000
0.000000
0.000000
0.000000
0.000000
0.000000
0.000000
0.000000
0.000000
0.000000
0.000000
0.000000
0.000000
0.000000
0.000000
0.000000
0.000000
0.000000
0.000000
0.000000
0.000000
0.000000
0.000000
0.000000
0.000000
0.000000
0.000000
0.000000
0.000000
0.000000
0.000000
0.000000
0.000000
0.000000
0.000000
0.000000
0.000000
0.000000
0.000000
0.000000
0.000000
0.000000
0.000000
0.000000
0.000000
0.000000
0.000000
0.000000
0.000000
0.000000
0.000000
0.000000
0.000000
0.000000
0.000000
0.000000
0.000000
0.000000
0.000000
0.000000
0.000000
0.000000
0.000000
0.000000
0.000000
0.000000
0.000000
0.000000
0.000000
0.000000
0.000000
0.000000
0.000000
0.000000
0.000000
0.000000
0.000000
0.000000
0.000000
0.000000
0.000000
0.000000
0.000000
0.000000
0.000000
0.000000
0.000000
0.000000
0.000000
0.000000
0.000000
0.000000
0.000000
0.000000
0.000000
0.000000
0.000000
0.000000
0.000000
0.000000
0.000000
0.000000
0.000000
0.000000
0.000000
0.000000
0.000000
0.000000
0.000000
0.000000
0.000000
0.000000
0.000000
0.000000
0.000000
0.000000
0.000000
0.000000
0.000000
0.000000
0.000000
0.000000
0.000000
0.000000
0.000000
0.000000
0.000000
0.000000
0.000000
0.000000
0.000000
0.000000
0.000000
0.000000
0.000000
0.000000
0.000000
0.000000
0.000000
0.000000
0.000000
0.000000
0.000000
0.000000
0.000000
0.000000
0.000000
0.000000
0.000000
0.000000
0.000000
0.000000
0.000000
0.000000
0.000000
0.000000
0.000000
0.000000
0.000000
0.000000
0.000000
0.000000
0.000000
0.000000
0.000000
0.000000
0.000000
0.000000
0.000000
0.000000
0.000000
0.000000
0.000000
0.000000
0.000000
0.000000
0.000000
0.000000
0.000000
0.000000
0.000000
0.000000
0.000000
0.000000
0.000000
0.000000
0.000000
0.000000
0.000000
0.000000
0.000000
0.000000
0.000000
0.000000
0.000000
0.000000
0.000000
0.000000
0.000000
0.000000
0.000000
0.000000
0.000000
0.000000
0.000000
0.000000
0.000000
0.000000
0.000000
0.000000
0.000000
0.000000
0.000000
0.000000
0.000000
0.000000
0.000000
0.000000
0.000000
0.000000
0.000000
0.000000
0.000000
0.000000
0.000000
0.000000
0.000000
0.000000
0.000000
0.000000
0.000000
0.000000
0.000000
0.000000
0.000000
0.000000
0.000000
0.000000
0.000000
0.000000
0.000000
0.000000
0.000000
0.000000
0.000000
0.000000
0.000000
0.000000
0.000000
0.000000
0.000000
0.000000
0.000000
0.000000
0.000000
0.000000
0.000000
0.000000
0.000000
0.000000
0.000000
0.000000
0.000000
0.000000
0.000000
0.000000
0.000000
0.000000
0.000000
0.000000
0.000000
0.000000
0.000000
0.000000
0.000000
0.000000
0.000000
0.000000
0.000000
0.000000
0.000000
0.000000
0.000000
0.000000
0.000000
0.000000
0.000000
0.000000
0.000000
0.000000
0.000000
0.000000
0.000000
0.000000
0.000000
0.000000
0.000000
0.000000
0.000000
0.000000
0.000000
0.000000
0.000000
0.000000
0.000000
0.000000
0.000000
0.000000
0.000000
0.000000
0.000000
0.000000
0.000000
0.000000
0.000000
0.000000
0.000000
0.000000
0.000000
0.000000
0.000000
0.000000
0.000000
0.000000
0.000000
0.000000
0.000000
0.000000
0.000000
0.000000
0.000000
0.000000
0.000000
0.000000
0.000000
0.000000
0.000000
0.000000
0.000000
0.000000
0.000000
0.000000
0.000000
0.000000
0.000000
0.000000
0.000000
0.000000
0.000000
0.000000
0.000000
0.000000
0.000000
0.000000
0.000000
0.000000
0.000000
0.000000
0.000000
0.000000
0.000000
0.000000
0.000000
0.000000
0.000000
0.000000
0.000000
0.000000
0.000000
0.000000
0.000000
0.000000
0.000000
0.000000
0.000000
0.000000
0.000000
0.000000
0.000000
0.000000
0.000000
0.000000
0.000000
0.000000
0.000000
0.000000
0.000000
0.000000
0.000000
0.000000
0.000000
0.000000
0.000000
0.000000
0.000000
0.000000
0.000000
0.000000
0.000000
0.000000
0.000000
0.000000
0.000000
0.000000
0.000000
0.000000
0.000000
0.000000
0.000000
0.000000
0.000000
0.000000
0.000000
0.000000
0.000000
0.000000
0.000000
0.000000
0.000000
0.000000
0.000000
0.000000
0.000000
0.000000
0.000000
0.000000
0.000000
0.000000
0.000000
0.000000
0.000000
0.000000
0.000000
0.000000
0.000000
0.000000
0.000000
0.000000
0.000000
0.000000
0.000000
0.000000
0.000000
0.000000
0.000000
0.000000
0.000000
0.000000
0.000000
0.000000
0.000000
0.000000
0.000000
0.000000
0.000000
0.000000
0.000000
0.000000
0.000000
0.000000
0.000000
0.000000
0.000000
0.000000
0.000000
0.000000
0.000000
0.000000
0.000000
0.000000
0.000000
0.000000
0.000000
0.000000
0.000000
0.000000
0.000000
0.000000
0.000000
0.000000
0.000000
0.000000
0.000000
0.000000
0.000000
0.000000
0.000000
0.000000
0.000000
0.000000
0.000000
0.000000
0.000000
0.000000
0.000000
0.000000
0.000000
0.000000
0.000000
0.000000
0.000000
0.000000
0.000000
0.000000
0.000000
0.000000
0.000000
0.000000
0.000000
0.000000
0.000000
0.000000
0.000000
0.000000
0.000000
0.000000
0.000000
0.000000
0.000000
0.000000
0.000000
0.000000
0.000000
0.000000
0.000000
0.000000
0.000000
0.000000
0.000000
0.000000
0.000000
0.000000
0.000000
0.000000
0.000000
0.000000
0.000000
0.000000
0.000000
0.000000
0.000000
0.000000
0.000000
0.000000
0.000000
0.000000
0.000000
0.000000
0.000000
0.000000
0.000000
0.000000
0.000000
0.000000
0.000000
0.000000
0.000000
0.000000
0.000000
0.000000
0.000000
0.000000
0.000000
0.000000
0.000000
0.000000
0.000000
0.000000
0.000000
0.000000
0.000000
0.000000
0.000000
0.000000
0.000000
0.000000
0.000000
0.000000
0.000000
0.000000
0.000000
0.000000
0.000000
0.000000
0.000000
0.000000
0.000000
0.000000
0.000000
0.000000
0.000000
0.000000
0.000000
0.000000
0.000000
0.000000
0.000000
0.000000
0.000000
0.000000
0.000000
0.000000
0.000000
0.000000
0.000000
0.000000
0.000000
0.000000
0.000000
0.000000
0.000000
0.000000
0.000000
0.000000
0.000000
0.000000
0.000000
0.000000
0.000000
0.000000
0.000000
0.000000
0.000000
0.000000
0.000000
0.000000
0.000000
0.000000
0.000000
0.000000
0.000000
0.000000
0.000000
0.000000
0.000000
0.000000
0.000000
0.000000
0.000000
0.000000
0.000000
0.000000
0.000000
0.000000
0.000000
0.000000
0.000000
0.000000
0.000000
0.000000
0.000000
0.000000
0.000000
0.000000
0.000000
0.000000
0.000000
0.000000
0.000000
0.000000
0.000000
0.000000
0.000000
0.000000
0.000000
0.000000
0.000000
0.000000
0.000000
0.000000
0.000000
0.000000
0.000000
0.000000
0.000000
0.000000
0.000000
0.000000
0.000000
0.000000
0.000000
0.000000
0.000000
0.000000
0.000000
0.000000
0.000000
0.000000
0.000000
0.000000
0.000000
0.000000
0.000000
0.000000
0.000000
0.000000
0.000000
0.000000
0.000000
0.000000
*
0.152326
0.000005
-0.092076
0.528924
-0.321055
0.372937
-0.153271
0.032931
-0.475205
0.475507
-0.654285
0.268451
-0.363591
0.581395
-0.024481
0.037429
-0.370784
0.469805
-0.005389
0.268391
-0.046790
0.292240
-0.480741
0.412284
-0.651306
0.592317
-0.368850
0.064375
-0.457743
0.291200
-0.490833
0.637225
-0.533539
0.183717
-0.033627
0.512674
-0.236084
0.439709
-0.530639
0.692396
-0.262020
0.165304
-0.691701
0.516319
-0.519251
0.468149
-0.041170
0.450908
-0.604613
0.198750
-0.298663
0.535652
-0.333602
0.166442
-0.192435
0.251485
-0.116555
0.340562
-0.628359
0.636460
-0.042348
0.633305
-0.353539
0.358248
-0.230967
0.683201
-0.344569
0.175664
-0.111367
0.616284
-0.089623
0.352601
-0.263736
0.214594
-0.637060
0.386422
-0.273220
0.698118
0.006933
0.557277
-0.522663
0.583409
-0.087588
0.011107
-0.481919
0.607773
-0.440680
0.515155
-0.506553
0.699880
-0.622287
0.161091
-0.233586
0.216911
-0.384454
0.343798
-0.723409
0.151691
-0.709035
0.090610
-0.365670
0.333263
-0.353141
0.197589
-0.110104
0.139189
-0.362796
0.603999
0.019005
0.398392
-0.332480
0.668909
-0.523805
0.388209
-0.623518
0.437255
-0.589943
0.105384
-0.156171
0.474156
-0.147849
-0.011732
-0.316229
-0.171363
-0.472559
-0.117943
-0.570368
0.636631
-0.184811
0.244716
-0.164500
0.664963
-0.420954
0.176760
-0.383452
0.340858
-0.242230
0.368392
-0.081963
0.406392
-0.592348
0.413076
-0.668786
0.387449
-0.109141
0.682574
-0.305353
0.059494
-0.468902
0.056410
-0.537445
0.065695
-0.871399
-0.096359
-0.282161
0.143828
-0.406222
0.174700
-0.442282
0.447191
-0.508662
0.265333
-0.264382
0.288899
-0.137004
0.013490
-0.629563
0.291709
-0.100290
0.663241
-0.288119
0.087866
-0.629939
0.058513
-0.152379
-0.036014
-0.392804
-0.103035
-0.401500
0.202574
-0.604141
0.131923
-0.399911
0.488871
-0.615369
0.536053
-0.094454
0.524372
-0.543113
0.313593
-0.514658
0.419020
-0.344077
0.391184
-0.616261
0.519240
-0.322816
0.665722
-0.444998
0.303992
-0.585065
0.468160
-0.550784
0.556416
-0.875288
0.268322
-0.552981
0.052034
-0.547327
0.063505
-0.212043
0.417819
-0.469993
0.428872
-0.457545
0.637833
-0.435024
0.537880
-0.426901
0.491511
-0.087425
0.555270
-0.445973
0.285548
-0.051846
0.499030
-0.348847
0.461084
-0.489429
0.107018
-0.702941
0.453514
-0.863337
0.031061
-0.399144
0.101075
-0.741848
0.216033
-0.254741
0.284494
-0.257981
0.720830
-0.242349
0.359891
-0.507826
0.176356
-0.183192
0.589359
-0.215647
0.334701
-0.524629
-0.035138
-0.006481
0.540799
-0.515877
0.218464
-0.299052
0.448710
-0.532669
-0.005063
-0.777590
0.262794
-0.841561
-0.038905
-0.074208
0.739046
-0.281105
0.180802
-0.166710
0.008084
-0.367862
0.428780
-0.783962
0.082172
-0.334704
0.295790
-0.344248
0.400718
-0.642731
0.247057
-0.203006
0.135458
-0.012838
0.128710
-0.692832
0.127815
-0.638550
-0.047202
-0.424607
0.210583
-0.376997
0.538948
0.033827
0.953018
0.006255
0.085470
-0.200890
-0.044061
-0.645991
0.255630
-0.695463
0.259058
-0.723572
0.244568
-0.583128
-0.042461
-0.500790
0.127248
-0.226086
0.489564
-0.088710
0.528423
-0.386694
0.349936
-0.475697
0.144054
-0.600758
-0.096059
-0.251015
0.362373
-0.441773
0.822066
-0.219048
0.580141
-0.302604
-0.036836
-0.513968
0.037289
-0.561776
0.164949
-0.438349
0.036159
-0.357275
0.192535
-0.399831
0.320297
-0.269683
0.195467
-0.058467
0.253194
-0.187363
0.445276
-0.513583
0.322517
-0.725674
0.249418
-0.717565
0.370557
-0.560002
0.520141
-0.099288
0.491821
-0.355353
0.225396
-0.462946
0.598498
-0.097441
0.476267
-0.238172
0.306764
-0.421301
0.524904
-0.059391
0.174859
-0.450574
0.382351
-0.643082
0.181925
-0.687695
0.158280
-0.625788
0.391111
-0.587493
0.346257
-0.082850
0.049850
-0.352218
0.679215
-0.123488
0.528231
-0.452274
0.634968
-0.511913
0.293891
-0.459196
0.250896
0.042824
0.274189
-0.121955
0.046651
-0.685103
0.513301
-0.522855
0.305523
-0.004515
0.407831
-0.367460
0.008129
-0.493348
0.116740
-0.448931
-0.032835
-0.573265
0.457143
-0.469014
0.522215
-0.128577
0.620498
-0.318120
0.474761
-0.200287
0.088089
-0.023613
0.361856
-0.532975
0.053798
-0.140894
-0.047244
-0.170744
0.469611
-0.211421
0.035434
-0.334352
0.320642
-0.386646
0.246284
-0.231714
0.040631
-0.844023
0.233256
-0.543577
0.475875
-0.150914
0.152087
-0.567045
0.337643
-0.164018
0.448800
-0.118159
0.268335
-0.353268
0.406870
-0.590970
0.298211
-0.523253
-0.071193
-0.160954
0.630604
-0.140794
0.245910
-0.429796
0.420877
-0.126047
0.320012
-0.792414
0.133318
-0.723677
0.542398
-0.227461
0.209501
-0.167956
0.653559
-0.613389
0.117734
-0.547384
0.367665
-0.433670
0.174048
-0.461973
0.061146
-0.247165
-0.114103
-0.507454
-0.093942
-0.205937
0.368867
-0.313573
0.057755
-0.480933
0.258985
-0.627685
-0.001187
-0.805296
-0.103860
-0.177864
0.291178
-0.522782
0.661467
-0.078627
0.321113
-0.514912
0.290499
-0.589357
0.396143
-0.539955
0.438606
-0.116346
0.076044
-0.276482
0.216491
-0.592380
0.314830
-0.336991
0.129730
-0.172841
0.454751
-0.116060
0.513539
-0.163287
-0.051949
-0.574189
-0.043377
-0.757137
0.238159
-0.414565
0.727928
0.014194
0.516531
-0.539116
0.315412
-0.100263
0.291300
-0.375041
0.500405
-0.233087
0.175335
-0.812459
0.179673
-0.373672
0.188742
-0.578930
0.126210
-0.126293
0.260771
-0.660517
0.679005
-0.235486
-0.051774
-0.196209
0.255048
-0.287474
0.236425
-0.096861
0.524501
-0.311078
0.210410
-0.312964
0.443591
-0.365499
0.706144
-0.433044
0.446877
-0.753748
0.084451
-0.790403
0.275353
-0.379927
0.275646
-0.359332
0.264056
-0.172436
0.058160
-0.293381
0.331537
-0.240643
0.017143
-0.191328
0.505440
-0.514334
0.283663
-0.684019
0.091925
-0.495010
0.249958
-0.251281
0.072486
-0.148307
0.281735
-0.568553
0.085883
-0.304699
-0.000049
-0.569917
0.150208
-0.251525
0.585607
-0.137768
0.547492
-0.662059
0.119896
-0.423846
0.045292
-0.266977
0.134120
-0.425372
0.499172
-0.678581
0.409678
-0.345740
0.576990
-0.328464
0.113696
-0.012536
0.186297
-0.338358
0.135916
-0.461172
0.403909
-0.453488
-0.056428
-0.194366
0.365377
-0.567989
0.291600
-0.217819
0.496379
-0.264846
0.140538
-0.162743
0.303759
-0.338634
0.529360
-0.709777
0.245421
-0.039173
0.312440
-0.096598
0.559860
-0.265010
0.682918
-0.088628
0.330991
-0.216192
0.331475
-0.378892
0.455683
-0.838975
0.436353
-0.740151
0.124593
-0.170892
0.656454
-0.467348
0.328264
-0.652330
0.483541
-0.570785
0.374639
-0.415728
0.009335
-0.703622
0.539973
-0.109529
0.024848
-0.286099
0.172453
0.074809
0.500512
0.135054
0.511257
-0.540066
0.335650
-0.628829
0.374037
-0.669778
-0.115232
-0.220834
0.410663
-0.279280
0.043534
-0.100494
0.646268
-0.155160
0.266080
-0.410211
0.115954
-0.020950
0.424667
-0.603045
0.447512
-0.154091
0.349154
-0.657549
0.628654
-0.347455
0.352624
-0.599844
0.611693
-0.460630
0.429190
-0.505578
0.242043
-0.174828
0.632528
-0.414651
0.195302
-0.376523
0.485143
-0.468320
0.066806
-0.384115
0.427516
-0.467576
0.345570
-0.402444
0.402589
-0.327237
0.077870
-0.401331
0.452909
-0.078721
-0.043069
-0.388260
0.163400
-0.059403
0.113477
-0.096719
0.222019
-0.460775
0.350529
-0.455267
0.634409
-0.537923
0.367629
-0.336876
0.455583
-0.489294
0.283880
-0.340795
0.335848
-0.497315
0.373939
-0.193689
0.426948
-0.194192
0.482087
-0.393241
0.624891
-0.202946
0.243830
-0.451075
0.480944
-0.703360
0.443621
-0.576038
0.351281
-0.184249
0.074782
-0.637357
0.171186
-0.456873
0.000239
-0.656324
0.192746
-0.601137
0.195250
-0.666702
0.354774
-0.086065
0.291533
-0.491730
0.305622
-0.075426
0.534330
-0.072865
0.305541
-0.244910
0.202456
-0.535438
0.226565
-0.235333
0.038109
-0.403544
0.336330
-0.144673
0.079774
-0.681127
0.605179
-0.343927
0.257540
-0.563439
0.113543
-0.111706
0.040406
-0.104476
1.005011
0.266426
-0.618593
0.296893
-0.288574
0.455906
-0.215829
0.042100
-0.570092
0.628360
-0.643644
0.630853
-0.539033
0.122616
-0.397650
0.021982
-0.562288
0.365550
-0.603135
0.194039
-0.608646
0.410803
-0.272420
0.568327
-0.367969
0.657910
-0.294027
0.405904
-0.524402
0.616549
-0.236659
0.132684
-0.520188
0.503244
-0.615413
0.051019
-0.468522
0.649414
-0.202153
0.150858
-0.049614
0.346676
-0.021874
0.489550
-0.372584
0.579119
-0.589714
0.562612
-0.403258
0.663106
-0.582109
0.347934
-0.079117
0.264239
-0.267834
0.481305
-0.085218
0.053775
-0.100311
0.334349
-0.495895
0.166736
-0.273587
0.684180
-0.441508
0.523722
-0.521155
0.432323
-0.499822
0.553547
-0.209902
0.274352
-0.055327
0.478251
-0.205356
0.407440
-0.363899
0.821276
-0.094095
0.134800
-0.089768
0.033160
-0.705962
0.285724
-0.166887
0.674212
-0.583432
0.138521
-0.090802
0.137790
-0.248624
0.432848
-0.281821
0.475083
-0.206292
0.283083
-0.278770
0.356281
-0.140490
0.111132
-0.483097
0.711168
-0.362610
0.321593
-0.453139
0.754915
-0.357969
0.417377
0.111267
0.349119
-0.450618
0.453120
-0.451429
0.559324
-0.264155
0.249831
-0.273130
0.186018
-0.563547
0.044210
-0.403258
0.208115
-0.858962
-0.141921
-0.588101
-0.232162
-0.577149
0.070628
-0.693583
-0.016976
-0.214912
0.280124
-0.066399
0.681612
0.188728
0.677025
0.266912
0.438221
-0.230883
0.114877
-0.526136
0.466181
-0.008071
0.556233
-0.413056
0.063815
-0.445490
-0.029039
-0.644000
0.102392
-0.694537
-0.096724
-0.681739
-0.410118
-0.769227
-0.811408
-1.071389
-0.213648
-0.893982
0.067790
-0.375599
0.386271
0.206022
0.672520
-0.117135
0.701779
-0.147903
0.346376
-0.437534
0.661116
-0.284479
0.040425
-0.342999
0.190283
-0.792877
0.266134
-0.346811
-0.298081
-0.560259
0.310881
-0.526657
-0.103164
-0.912812
-0.225673
-0.720472
0.062517
-0.644633
0.374244
0.001651
0.594416
-0.372362
0.810574
-0.032093
0.935977
-0.337955
0.446951
-0.241422
0.374418
-0.465819
0.233042
-0.654446
0.027014
-1.036041
-0.071131
-0.744253
-0.132466
-0.539783
0.208975
-0.779200
0.016746
-0.354958
0.579931
-0.284193
0.923434
-0.147312
0.421721
-0.365445
0.166799
-0.159015
0.320213
-0.154332
0.708109
0.120104
0.600763
-0.418335
0.435273
-0.595848
0.473823
-0.297628
0.325697
-0.755856
-0.057010
-0.085451
0.158619
-0.282968
0.339930
-0.254053
0.112339
-0.360765
0.252766
-0.216688
0.409092
-0.340414
0.199721
-0.646593
-0.106263
-0.493941
0.029212
0.356010
1.295122
-0.305087
0.427024
-0.033065
0.483791
-0.341150
0.424561
-0.635371
0.036028
-0.578409
0.099091
-0.064062
0.330409
-0.204396
0.643067
-0.167128
0.457070
-0.248929
0.157073
-0.945962
-0.358787
-0.335400
0.126951
-0.433895
0.233188
-0.764916
0.191185
0.202342
0.578414
-0.264191
0.357781
-0.455663
0.353381
-0.368464
0.091184
-0.590483
0.498143
0.005250
0.648450
0.457881
0.947849
0.772323
0.761986
0.466839
1.032608
0.191412
0.203767
-0.414987
-0.381614
-0.624912
-0.147356
-0.958352
0.024663
-0.523721
0.187439
-0.158826
0.361147
-0.126150
0.086534
-0.152886
0.469786
-0.282646
0.620946
-0.305331
0.446353
0.243455
1.361082
0.556711
1.181846
0.300396
0.848182
0.966138
0.911492
-0.126797
-0.150735
-0.856047
0.289665
-0.093779
0.011391
-0.604360
0.248343
-0.152601
0.218454
0.196430
0.768674
-0.116200
0.163785
-0.344689
0.554946
-0.180086
0.152042
-0.075309
0.578407
0.710522
1.726510
0.574825
1.051213
0.406958
1.021974
0.436201
0.475080
-0.192929
0.514148
-0.759752
-0.361891
-0.310578
0.166591
-0.362766
0.518225
-0.035238
0.389922
0.334313
0.386778
-0.073661
0.623776
-0.557064
0.275415
-0.510802
0.588485
-0.469171
0.389357
0.539403
1.786627
0.647484
0.574140
0.335045
0.987452
0.061424
0.481567
-0.588881
-0.051251
-0.832345
-0.057108
-0.148758
0.309455
-0.262018
0.621027
-0.106981
1.026359
0.421667
0.835648
-0.200664
0.353601
-0.604577
0.220274
-0.425866
0.091534
-0.222832
0.308808
0.383658
0.776809
0.376211
0.471680
0.264466
0.827478
-0.204379
-0.109064
-0.767537
-0.157002
-0.535922
0.381719
-0.017649
0.090703
-0.531535
0.495413
0.148151
0.553930
-0.022452
0.345675
-0.650998
0.073768
-0.283866
0.419477
-0.458600
0.031219
-0.730013
0.607607
-0.064991
0.341684
0.115150
0.358746
-0.294788
1.124137
0.005606
0.009748
-1.057227
-0.164609
-0.566448
-0.029189
0.005650
0.121680
-0.241210
0.604432
0.277766
0.569994
0.079038
0.675586
-0.606340
0.312489
-0.249320
0.436796
-0.457731
0.429671
-0.269445
-0.110633
-0.795666
0.232295
-0.474356
0.213736
0.054006
0.419498
0.034664
-0.340734
-0.930054
-0.161965
-0.611968
0.230450
-0.065903
0.111337
-0.091754
0.082150
-0.580515
0.539017
-0.437293
0.525369
-0.745740
0.425654
-0.605408
0.314104
-0.453200
0.465870
-0.720742
-0.078257
-0.427256
0.333734
-0.504168
0.307355
-0.069799
0.594012
-0.100889
0.338782
-1.074435
-0.123300
-0.473837
0.325205
-0.203931
-0.047551
-0.626225
0.034728
-0.126185
0.065587
-0.599129
0.068785
-0.737128
0.174689
-0.562719
0.506107
-0.407654
0.417152
-0.792823
-0.450245
-0.758805
0.168151
-0.342036
0.105461
-0.290336
0.551850
-0.168706
-0.137636
-0.550026
0.108615
-0.711256
0.064847
-0.209418
0.373999
-0.327726
0.514154
-0.729789
0.491412
-0.695454
-0.070229
-0.738056
0.036251
-0.453538
0.379977
-0.174379
0.100192
-0.628222
-0.148872
-0.889648
0.055226
-0.934017
0.187157
-0.338183
0.094706
0.072318
0.285043
-0.187514
0.300156
0.141218
0.670438
-0.029916
0.369790
-0.748847
0.078143
-0.107916
0.261922
-0.716427
0.086371
-0.554336
0.281390
-0.373366
0.430151
-0.645684
0.400408
-0.394193
-0.379876
-0.816948
-0.051547
-0.348030
-0.368077
-0.454758
0.424840
0.045425
0.779121
0.185465
0.708273
0.417279
0.228643
-0.317102
0.106629
-0.166243
0.154453
-0.509721
0.069446
-0.975189
0.190440
-0.820806
0.008286
-0.332735
0.077092
-0.694644
0.345622
-0.651109
-0.315941
-0.746647
-0.186423
-0.445522
0.143648
-0.232334
0.674787
-0.053263
0.755335
0.325304
0.929104
0.192793
0.590375
-0.374660
0.584403
-0.447482
-0.108971
-0.240833
-0.003745
-0.919887
0.210690
-0.659339
0.022723
-0.646921
0.664576
-0.326668
0.173391
-0.438730
-0.005003
-0.979987
-0.350879
-0.521454
0.259453
-0.514752
0.455339
-0.382059
0.564216
0.086982
0.419669
-0.131981
0.613760
-0.191058
-0.062214
-0.084290
-0.001741
-0.246614
0.422799
-0.586769
0.285368
-0.269759
0.326421
-0.223562
0.065551
-0.609306
0.287319
-0.159996
0.363659
-0.695310
0.332494
-0.594014
0.137899
-0.072292
0.047900
-0.068308
0.007485
-0.506477
-0.050340
-0.919956
-0.101192
-0.276098
-0.112600
-0.710734
0.602004
-0.522311
0.559334
-0.088388
0.341979
-0.606209
0.655306
-0.408144
0.384235
-0.330227
0.507356
-0.256694
0.119943
-0.327410
0.237520
-0.507677
0.697653
-0.029568
0.280848
-0.180674
0.533196
-0.663827
0.211991
-0.387318
0.668142
-0.070585
0.581717
-0.131166
0.629538
-0.131505
0.316565
-0.198047
0.587081
-0.191226
0.211950
-0.129478
0.529639
-0.434471
0.446615
-0.234789
0.124572
-0.101436
0.382181
-0.250565
0.194609
-0.545773
0.336878
0.005031
0.129930
-0.295287
0.840668
0.115316
0.471746
0.120385
0.474524
0.095673
0.405811
-0.078863
0.653243
-0.354723
0.045115
-0.238033
0.051206
-0.380820
0.343785
-0.201510
0.176903
-0.306566
0.472638
-0.199704
0.063360
-0.582572
0.180942
-0.123474
0.739298
-0.114494
0.280997
-0.489445
0.255600
0.110359
0.783729
-0.444460
0.210483
-0.022410
0.216110
-0.275935
0.209241
-0.191863
0.384460
-0.617612
0.596155
-0.469328
0.390327
-0.530483
0.631397
-0.597366
0.531454
-0.164143
0.698495
-0.183216
0.262785
-0.209742
0.522182
-0.694307
0.537593
-0.298891
0.452359
-0.323255
0.074528
-0.113769
0.615382
-0.339821
0.660715
-0.614919
0.208622
-0.440400
0.682780
-0.380834
0.581468
-0.038367
0.690370
0.682706
-0.535646
0.608914
-0.022637
0.362906
-0.262806
0.678767
-0.135203
0.160000
-0.417863
0.627553
-0.384635
0.059527
-0.543703
0.539763
-0.495879
0.036355
-0.618495
0.050146
-0.696263
0.188942
-0.349841
0.481122
-0.523904
0.661253
-0.482795
0.638241
-0.119859
0.570732
-0.197979
0.337314
-0.637597
0.492228
-0.279516
0.117910
-0.631520
0.147324
-0.383588
0.263875
-0.185854
0.567467
-0.160560
0.484397
-0.212969
0.387786
-0.310319
0.427865
-0.462500
0.035767
-0.553504
0.280755
-0.379128
0.678790
-0.522399
0.555300
-0.531089
0.317260
-0.284725
0.170958
-0.491585
0.149827
-0.462654
0.286825
-0.191795
0.248101
-0.201903
0.492170
-0.665279
0.538044
-0.611004
0.073926
-0.577857
0.156484
-0.188883
0.237932
-0.442746
0.089505
-0.361856
0.678069
-0.073603
0.382700
-0.051107
0.389562
-0.268367
0.337001
-0.273653
0.286090
-0.388296
0.662784
-0.473180
0.433524
-0.021292
0.162975
-0.297277
0.387414
-0.550385
0.227702
-0.233317
0.133080
-0.055772
0.422174
-0.357704
0.385139
0.064884
0.491296
-0.311902
0.441289
-0.021895
0.340891
-0.264400
0.069198
-0.345278
0.092970
-0.151372
0.306831
-0.236912
0.762885
-0.518679
0.337029
-0.345018
0.498781
-0.715695
0.051875
-0.557576
0.043957
-0.515461
0.052290
-0.507322
0.423967
-0.233733
0.045656
-0.093656
0.299616
-0.136479
0.274311
-0.077739
0.625763
-0.164629
0.625514
-0.553738
0.674938
-0.175522
0.200499
-0.337676
0.631880
-0.208053
0.410704
-0.276593
0.455527
-0.393050
-0.384002
-1.063245
-0.034695
-1.066328
-0.048400
-0.873209
-0.073579
-0.642885
0.029346
-0.267821
0.248212
-0.109017
0.303544
-0.739804
0.503676
-0.139281
0.402565
-0.580658
0.205011
-0.214242
0.677513
-0.618091
0.587479
-0.156204
0.445709
-0.024842
0.507969
-0.406994
0.306895
-0.275690
-0.084302
-0.536003
-0.066772
-0.199911
0.527162
-0.434579
0.528238
-0.149165
0.013926
-0.142169
0.346712
-0.434288
0.270495
-0.587000
0.255658
-0.411993
0.546156
-0.690063
0.664687
-0.472198
0.778967
-0.260311
0.644669
-0.509751
0.483820
-0.221638
0.399366
-0.191527
0.300404
-0.565441
0.390007
-0.301075
0.670728
0.213288
0.552997
-0.253213
0.590543
-0.192536
0.112457
-0.309910
0.032354
-0.382688
0.111029
-0.387267
0.475374
-0.482332
0.518520
-0.350796
0.891995
-0.019524
0.582818
-0.008659
-0.138065
-0.217574
0.400413
-0.319155
0.346807
0.013572
0.565545
-0.041360
0.440500
-0.048938
0.681546
-0.379096
0.635385
0.028180
0.476983
-0.330988
0.424015
-0.232202
0.176073
-0.357990
0.628084
-0.581400
0.680215
-0.494640
0.777600
0.054069
0.237308
-0.136868
0.338672
-0.736080
0.260110
-0.598947
0.522150
0.120212
1.155801
-0.191174
0.640053
-0.180767
0.652797
-0.044106
0.318419
-0.276178
0.621694
0.065127
0.405166
-0.522794
0.490622
-0.656571
0.301394
-0.655136
0.571385
-0.124294
0.346264
-0.468865
0.043235
-0.131599
-0.023968
-0.887430
-0.417598
-0.690809
0.900528
0.006935
0.980169
0.026107
0.691013
-0.167562
0.331598
0.014137
0.311121
-0.167937
-0.055605
-0.197560
0.282668
-0.529512
0.660466
-0.671633
0.572844
-0.285872
0.595428
-0.419226
0.409017
-0.303112
0.394909
-0.504012
0.256800
-0.963521
0.251347
0.044438
0.818411
0.696928
1.439048
0.353555
0.513261
-0.008156
0.359878
-0.331573
0.321398
-0.144622
0.273941
-0.540360
0.383346
-0.027675
0.626330
-0.138322
0.152490
-0.507589
0.571434
-0.629732
0.558575
-0.577591
-0.018518
-0.187072
-0.136682
-0.938278
0.240137
0.043170
0.811407
0.670618
1.269791
0.287131
0.238847
-0.219844
0.350751
-0.171419
-0.059210
-0.645559
-0.183320
-0.447048
0.207154
-0.082609
0.437196
-0.298377
0.019460
-0.164828
0.246146
-0.441201
0.193763
-0.541034
0.233245
-0.386944
0.207760
-0.609633
-0.100191
-0.210606
0.917099
0.315520
0.880221
-0.175004
0.586539
-0.253899
0.655867
-0.450116
0.534445
-0.515104
0.227154
-0.197883
0.236880
-0.433753
0.186463
-0.538136
0.680372
-0.162736
0.102728
-0.163935
0.448634
-0.821407
-0.170942
-1.009803
-0.113871
-0.704724
-0.025173
-0.656143
0.571028
-0.252879
0.562949
-0.005155
0.583126
-0.275659
0.673170
0.276720
0.577972
-0.365126
0.169548
-0.561349
0.495388
-0.723311
0.333830
-0.178909
0.021246
-0.406119
0.451821
-0.113580
-0.006214
-0.445227
-0.032291
-0.641875
-0.372244
-0.697168
-0.262957
-0.603230
-0.148334
-0.549041
0.152983
-0.181059
0.057945
-0.550510
0.575895
-0.090058
0.755621
0.370336
0.595649
-0.489089
0.229845
-0.680816
0.487121
-0.340724
0.515293
-0.110061
0.256602
0.049112
0.251497
-0.802747
0.375937
-0.663035
0.009598
-0.873184
0.193276
-0.787523
-0.186608
-0.477875
0.269695
-0.397185
0.201453
-0.326767
0.230933
-0.184663
0.778969
0.200240
0.455207
-0.378698
0.192265
-0.850120
0.233277
-0.341983
0.324247
-0.107018
0.531559
0.069326
0.454374
-0.287569
-0.074159
-0.695230
0.200103
-0.822645
-0.091946
-0.657279
-0.221933
-0.911459
-0.033737
-0.434375
0.088830
-0.205554
0.534435
-0.030295
0.586786
-0.136345
0.368008
-1.031732
-0.219120
-0.640414
0.238982
-0.137657
0.290909
-0.565585
0.075492
-0.258570
0.015101
-0.632027
0.219555
-0.413134
0.220159
-0.578281
0.111109
-1.111709
-0.103531
-0.993084
0.141755
-0.539942
0.204914
-0.144635
0.654614
0.181325
0.382225
-0.690730
0.154670
-0.900203
-0.045441
-0.388489
0.273196
-0.171245
0.016434
-0.359717
0.700224
-0.134618
0.297415
-0.587811
-0.091025
-0.378298
0.257842
-0.500070
-0.182463
-0.519451
0.016305
-0.626207
-0.010316
-0.870238
0.225458
-0.009009
0.618575
-0.310651
-0.038543
-0.525017
0.268624
-1.033443
-0.398924
-0.655220
0.408527
-0.011955
0.383033
-0.429122
0.073026
-0.127451
0.389181
-0.199947
0.424294
-0.591469
0.338972
-0.723971
0.202515
-0.440819
0.179143
-0.505692
-0.258506
-0.149415
0.279175
-0.492991
0.120024
-0.625682
-0.284935
-0.938830
-0.277117
-0.711435
0.138381
-0.649027
0.260880
-0.453248
0.558479
-0.044144
0.716591
-0.393828
0.651190
-0.199472
0.652840
-0.241257
0.126448
-0.166300
0.589684
-0.515405
-0.116607
-0.002448
0.568807
-0.070347
0.018729
-0.077692
0.317158
-0.552759
-0.061340
-0.504529
-0.239396
-0.574765
-0.181248
-0.697845
0.152016
-0.463501
0.154850
-0.650231
0.053999
-0.526595
0.337634
-0.367828
0.415130
-0.244016
0.418582
-0.144785
0.218359
-0.133833
0.164863
-0.151744
0.803274
-0.332466
0.673954
-0.515747
0.120476
-0.923857
-0.407465
-0.618447
-0.300975
-0.467453
0.257163
-0.627817
0.149342
-0.380576
0.134327
-0.128140
0.451059
-0.574798
0.471930
-0.026239
0.477357
-0.032744
0.422410
-0.331011
0.162996
-0.066484
0.377754
0.108058
0.572156
0.072122
0.532070
-0.274455
0.253943
-0.612133
0.144487
-0.792030
0.093609
-0.645043
0.511790
-0.689442
0.359507
-0.556510
0.566360
-0.215268
0.402364
-0.197826
0.184179
0.229061
0.906742
0.273388
0.837553
0.159509
0.644566
-0.073503
0.853709
-0.006304
0.301686
-0.308437
0.432567
-0.457952
0.385244
-0.383932
-0.068917
-0.334639
0.166225
-0.718543
0.054681
-0.321615
0.611013
-0.137141
0.529271
-0.560927
0.608156
-0.571072
0.267502
-0.283203
0.611811
0.213072
0.996128
0.448598
0.740741
-0.035953
0.554120
-0.001710
0.737476
-0.100403
0.811174
0.078768
0.432706
-0.190476
0.262730
-0.333643
0.641092
-0.670429
0.339727
-0.129319
0.479541
-0.361054
0.634594
-0.417634
0.280289
-0.520141
0.684563
-0.229246
0.315622
-0.601138
0.690862
0.003775
0.106461
-0.080415
0.569752
-0.444535
0.635779
-0.181804
0.252710
-0.065990
0.203664
-0.049995
0.021542
-0.086424
0.517897
-0.487911
0.062163
-0.405703
0.651753
-0.411353
0.412744
-0.696734
0.403501
-0.045243
0.190775
-0.262443
0.178580
-0.156877
0.578341
-0.674364
0.204440
-0.097138
0.036431
-0.424380
0.447287
-0.430389
0.400413
-0.214775
0.656422
-0.609424
0.043546
-0.117756
0.602382
-0.334835
0.669600
-0.067205
0.418372
-0.086149
-0.237997
0.084315
-0.277640
0.093863
-0.462825
0.295113
-0.471523
0.180486
-0.331386
0.398950
-0.546322
0.130955
-0.163063
0.108061
-0.443552
0.420425
-0.339907
0.068015
-0.021714
0.240308
-0.549476
0.641916
-0.289210
0.651906
-0.186141
0.171820
-0.284956
0.560023
-0.099358
0.410729
-0.414944
0.568292
-0.476323
0.361509
-0.576256
0.461262
-0.385758
0.268561
-0.527999
0.137159
-0.088543
0.391836
-0.400326
0.491471
-0.424805
0.185062
-0.538791
0.082224
-0.268308
0.035822
-0.086258
0.033077
-0.115360
0.555783
-0.241953
0.196078
-0.589305
0.156232
-0.091025
0.355696
-0.183769
0.209467
-0.199165
0.077230
-0.357176
0.103000
-0.684372
0.578576
-0.630777
0.483842
-0.213674
0.160505
-0.461072
0.116457
-0.137789
0.490457
-0.077756
0.057427
-0.026237
0.089013
-0.130038
0.163878
-0.593044
0.600387
-0.203556
0.258037
-0.335077
0.140761
-0.465633
0.482784
-0.030481
0.534756
-0.158607
0.011453
-0.614872
0.169361
-0.488156
0.140966
-0.029649
0.621746
-0.439674
0.059119
-0.379626
0.672888
-0.636128
0.622484
-0.249842
0.225581
-0.377897
0.122897
-0.675762
0.113899
-0.503956
0.690053
-0.112688
0.450798
-0.462383
0.656823
-0.051314
0.546604
-0.126831
0.313840
-0.333612
0.108469
-0.315485
0.280333
-0.158028
0.355014
-0.367868
0.530481
-0.630849
0.564994
0.020220
0.609854
-0.352554
0.296486
-0.273867
0.458894
-0.376672
0.436758
-0.266284
0.331234
-0.657383
0.538850
-0.536058
0.185254
-0.543373
0.064690
-0.452946
0.416509
-0.619881
0.223693
0.008243
0.160964
-0.199494
0.645985
0.102500
0.557030
-0.387713
0.097687
-0.379757
0.507874
-0.324733
0.714832
-0.522867
0.407311
-0.540774
0.017647
-0.214704
0.326446
-0.673278
0.289954
-0.107606
0.149618
-0.249006
0.590975
-0.391541
0.153428
-0.387570
0.579421
-0.005798
0.370200
-0.397122
0.419147
-0.179857
0.262455
-0.163397
0.686966
-0.163637
0.394177
-0.384777
0.131902
-0.152617
0.665591
-0.686604
0.352568
-0.630696
0.343190
-0.001630
0.193121
-0.699554
0.633503
-0.007908
0.060413
-0.003606
0.667191
-0.086457
0.383600
-0.625286
0.297445
-0.040164
0.416453
0.072185
0.703269
-0.262315
0.521072
-0.262941
0.468444
-0.609350
0.401841
-0.319612
0.285782
-0.461231
0.377609
-0.293686
0.031064
-0.562199
0.070765
-0.664854
0.415137
-0.461553
0.477259
-0.033316
0.609513
-0.004733
0.461381
-0.319012
0.220350
-0.082238
0.708377
-0.316860
0.519212
-0.020852
0.614482
-0.338819
0.706837
-0.099057
0.079317
-0.374208
0.277837
-0.656769
0.124793
-0.569748
0.186610
-0.627968
0.399825
-0.023227
0.352411
-0.652288
0.527115
-0.036520
0.616301
-0.292275
0.045491
-0.055998
0.164739
-0.094853
0.186554
0.095778
0.753606
-0.220606
0.513984
-0.551376
0.268463
0.020371
0.595237
-0.395068
0.183726
-0.275698
0.189783
-0.328682
0.145296
-0.261115
0.456460
-0.680029
0.437820
-0.123585
0.337903
-0.426839
0.182251
-0.144298
0.703220
0.047855
0.339391
-0.142733
0.279140
-0.305090
0.220774
-0.123968
0.188117
-0.317804
0.535479
-0.457330
0.529184
-0.529219
0.187018
-0.277758
0.698560
-0.108663
0.141328
-0.078672
0.116219
-0.571058
0.078304
-0.150955
0.476440
-0.343912
0.280377
-0.628658
0.282231
-0.291147
0.186091
-0.020470
0.554088
-0.243268
0.656785
-0.152418
0.740806
0.052068
0.634412
-0.125317
0.655912
-0.162237
0.669312
-0.167750
0.631432
-0.081221
0.257287
-0.360062
0.014714
-0.276777
0.261074
-0.158510
0.457009
-0.527492
0.671741
-0.629475
0.639490
-0.015677
0.718878
-0.171200
0.775041
0.073364
0.155481
-0.385005
0.149384
-0.437230
0.472515
-0.568694
0.625193
-0.161167
0.430354
-0.016194
0.370215
-0.671375
0.257015
-0.653166
0.385042
-0.664453
0.233571
-0.477476
0.459732
-0.272302
0.159174
-0.093936
0.567844
-0.329825
0.466371
-0.042382
0.210336
-0.170021
0.595681
-0.610664
0.397872
-0.527938
0.580181
-0.053913
0.056183
-0.229132
0.604021
-0.251477
0.513297
-0.453139
0.232710
-0.242390
0.167564
-0.094029
0.591272
-0.202679
0.125785
-0.574328
0.174936
-0.327623
0.199094
-0.308632
0.210348
0.047611
0.208888
-0.179055
0.750970
-0.288888
0.424609
-0.188389
0.301147
-0.176660
0.233308
-0.397615
0.327813
-0.691078
0.349505
-0.609351
0.653003
-0.576528
0.312002
-0.026397
0.208978
-0.456411
0.163580
-0.598886
0.645317
-0.370199
0.707510
-0.492023
0.729560
-0.473697
0.220290
-0.106278
0.176105
-0.138464
0.263114
-0.130828
0.428812
-0.113119
0.044550
-0.067789
0.035824
-0.069273
0.431478
-0.137823
0.105745
-0.110860
0.427461
-0.383744
0.288222
-0.378394
0.376986
-0.418753
0.586828
-0.129835
0.160764
-0.539249
0.172486
-0.242610
0.892687
-0.220047
0.164985
-0.370943
0.176810
-0.554186
0.671319
0.029668
0.466292
-0.441465
0.041553
-0.411939
0.164692
-0.564847
0.117089
-0.209380
0.047818
-0.110940
0.344225
-0.531102
0.546363
-0.268277
0.161867
-0.296910
0.704127
-0.231225
0.241338
-0.131279
0.387548
-0.380045
0.217031
-0.142197
0.536739
-0.054981
0.209837
-0.171741
0.106177
-0.230740
0.020715
-0.607508
0.604401
-0.138749
0.483861
-0.346741
0.180359
-0.362612
0.667572
-0.057946
0.258308
-0.328839
0.198344
-0.027179
0.688861
-0.543676
0.519779
0.178353
0.777542
-0.000074
0.085224
-0.537096
0.702436
-0.366962
0.493105
0.039330
0.641793
-0.146750
0.076945
-0.171592
0.603020
-0.314429
0.363040
-0.416430
0.340020
-0.527112
0.005704
-0.170492
0.154388
-0.564609
0.424411
-0.521102
0.744777
-0.286718
0.584858
-0.254411
0.649622
0.111355
0.250441
-0.076387
0.351701
-0.619970
0.201103
-0.054633
0.317594
-0.114882
0.081533
-0.235896
0.301564
-0.476196
0.323003
-0.217519
0.442793
-0.272044
0.532219
-0.322310
0.320342
-0.406944
0.434360
0.011057
0.370620
-0.256640
0.532488
-0.260807
0.493319
-0.556503
0.237180
-0.058310
0.428445
-0.237372
0.724073
-0.652334
0.323241
-0.558325
0.471669
-0.373305
0.139222
-0.212402
0.547603
-0.656859
0.136321
-0.020562
0.102534
-0.200781
0.528075
-0.213424
0.378809
-0.648484
0.592289
-0.238548
0.107956
-0.302459
0.620661
0.008958
0.164742
-0.123116
0.601071
-0.325455
0.346405
-0.336277
0.130293
-0.442511
0.417187
-0.099037
0.585780
-0.638801
0.421562
-0.495177
0.139695
-0.043901
0.342114
-0.263243
0.500454
-0.575117
0.318871
-0.140061
0.682001
-0.101816
0.181638
-0.392717
0.799046
-0.447204
0.471185
-0.346783
0.382187
0.017039
0.397903
-0.523379
0.435003
-0.632025
0.112745
-0.026196
0.502987
-0.357493
0.284884
-0.040983
0.007708
-0.047945
0.045317
-0.072373
0.688886
-0.259423
0.190651
0.012527
0.294097
-0.248021
0.619108
-0.540292
0.344152
-0.271977
0.283055
-0.602933
0.481806
-0.338021
0.277850
-0.136905
0.118158
-0.629960
0.039442
-0.155177
0.425509
-0.158416
0.397425
-0.128256
0.291722
-0.128512
0.447579
-0.541731
0.492121
-0.022085
0.190752
-0.356818
0.604805
-0.298997
0.462215
-0.644462
0.545134
-0.614693
0.242490
-0.382061
0.704258
-0.656739
0.413936
-0.447040
0.024325
-0.339354
0.393388
-0.524192
0.203194
-0.271074
0.348248
-0.309550
0.211535
-0.649518
0.005181
-0.222738
0.527218
-0.688106
0.300984
-0.063274
0.005976
-0.604105
0.323107
-0.323198
0.317658
-0.241946
0.474348
0.000444
0.402908
-0.210847
0.286695
-0.545625
0.347930
-0.377418
0.206691
-0.388701
0.604520
-0.261821
0.233784
-0.106533
0.606413
-0.691592
0.077103
-0.191859
0.010214
-0.405802
0.609600
-0.433869
0.064588
-0.560559
0.642865
-0.681667
0.530782
-0.132629
0.608224
-0.097101
0.712916
-0.452979
0.244798
-0.538369
0.162912
-0.388982
0.384561
-0.219829
0.062539
-0.389013
0.139125
-0.279256
0.650818
-0.093190
0.346318
-0.069664
0.253986
-0.402587
0.528915
-0.261069
0.476583
-0.074750
0.312880
-0.643425
0.388994
-0.644014
0.506247
-0.459673
0.495479
-0.011183
0.548955
-0.181514
0.601025
-0.092589
0.553066
-0.084151
0.323022
-0.525261
1.594403
0.005186
-0.358209
0.425823
-0.011882
0.196353
-0.303756
0.130735
-0.655807
0.649429
-0.545249
0.302603
-0.346026
0.049642
-0.057468
0.438172
-0.661535
0.026893
-0.495478
0.301396
-0.356368
0.281386
-0.055321
0.187812
-0.257028
0.173068
-0.260511
0.609170
-0.121803
0.337613
-0.067183
0.051935
-0.668524
0.182315
-0.272412
0.136020
-0.430378
0.679537
-0.152735
0.382489
-0.334501
0.106961
-0.270355
-0.017689
-0.555140
0.220872
-0.069512
0.325757
-0.483094
0.673765
-0.155457
0.450851
-0.124518
0.632978
-0.567840
0.593846
-0.172304
0.007187
-0.397478
0.320668
-0.192475
0.351682
-0.314307
0.626201
-0.056951
0.241281
-0.669836
0.310340
-0.513016
-0.013817
-0.741605
-0.004305
-0.281683
0.343876
-0.621459
0.303231
-0.681565
0.323614
-0.601229
0.014112
-0.607415
0.593087
-0.004496
0.073276
-0.247397
0.005690
-0.438803
0.460206
-0.527731
0.440994
-0.202611
0.392564
-0.371068
0.007640
-0.132842
0.452350
-0.415689
0.596101
-0.186336
0.566921
-0.723353
0.069723
-0.375450
0.154926
-0.428326
0.356917
-0.481007
0.654121
-0.494091
0.499584
-0.287255
0.575652
-0.569298
0.589984
-0.367073
0.280894
-0.409206
0.310262
-0.538672
0.461126
-0.272895
0.581759
-0.578902
0.452065
-0.295968
0.457280
-0.460192
0.215096
0.132770
0.780767
-0.411191
0.152416
-0.280872
0.441308
-0.244654
0.549923
-0.357875
0.345173
-0.002684
0.406131
-0.337828
0.227452
-0.087527
0.362357
-0.269141
0.314439
-0.338285
0.607398
-0.061736
0.727078
0.216114
0.139410
-0.345786
0.171660
-0.129209
0.802248
0.145735
0.829944
-0.161138
0.772386
-0.123843
0.138950
-0.068505
0.751237
0.102611
0.525230
0.102055
0.278878
-0.264898
0.168956
-0.445230
0.659652
-0.104006
0.323972
0.045014
0.724517
0.030991
0.913248
-0.255013
0.798702
-0.359860
0.011564
-0.580961
-0.797363
-1.118661
-0.449686
-0.749379
0.121728
-0.582352
0.870045
0.290568
1.058047
0.503880
1.481925
-0.118183
0.576064
-0.519674
0.443129
-0.161158
0.158584
-0.256106
0.376491
-0.053731
0.709104
-0.026431
0.596352
-0.289350
-0.252304
-0.406371
-0.206500
-1.379024
-0.865492
-1.734571
-1.278638
-1.283827
-0.463223
-0.035974
0.644471
0.434738
0.907445
0.595576
1.934410
0.309152
0.261444
-0.624709
0.108825
-0.534012
0.652920
-0.400981
0.232091
-0.709965
0.014706
-0.485122
0.509609
-0.477049
-0.214660
-0.547545
-0.618133
-1.653432
-0.847590
-1.481856
-1.063750
-0.655849
0.088686
0.010706
0.328282
-0.146017
1.067707
0.491112
1.269200
0.394128
0.855079
-0.471161
0.164433
-0.515992
0.048500
-0.504136
0.114319
-0.746242
-0.105010
-0.291174
0.200286
-0.723207
-0.092963
-0.306186
-0.079964
-1.059514
-0.755706
-1.139755
-0.592597
-0.138931
0.128778
-0.456820
0.242967
-0.231905
0.400185
-0.452253
1.033531
-0.073802
0.582601
-0.162556
0.545129
-0.395549
0.556088
-0.737957
0.459459
-0.978752
0.113810
-0.820033
-0.076664
-0.772380
-0.032129
-0.792913
-0.071406
-1.266874
-0.551922
-1.004914
0.112496
-0.651838
0.061186
-0.812129
-0.716255
-0.885754
-0.666117
-0.909832
0.557771
0.123842
0.584806
-0.289719
0.379994
-0.480229
0.340387
-0.394105
0.458211
-0.802324
-0.364441
-0.949841
0.240208
-1.049173
0.178767
0.071594
0.578156
-0.416840
-0.937851
-0.386012
0.349297
-0.322038
-0.548393
-1.559286
-0.734311
-1.329618
-0.734362
-1.032237
-0.159202
-0.396124
0.418237
-0.563340
0.643364
-0.135610
0.377817
-0.764777
-0.124417
-0.531707
-0.087328
-0.232805
-0.240854
-0.084427
0.832375
0.660239
1.590799
-0.001360
-0.571815
-0.173835
0.169929
-0.519836
-0.843046
-0.880744
-0.808562
-0.927720
-0.598133
-1.115786
0.212813
-0.477320
0.296538
-0.269887
0.689883
-0.086014
0.118980
-0.174253
-0.065624
-0.148494
0.435143
0.048774
0.577063
-0.046908
1.421846
0.713982
1.479316
0.333137
0.162292
-0.451246
0.832611
-0.434147
-0.026863
-0.025324
0.056675
-0.654008
0.382371
-0.256418
0.147295
-0.472383
0.376516
-0.607886
0.136347
-0.481549
0.406678
-0.353661
0.556284
0.045577
0.655036
0.388568
1.010630
0.623762
1.264403
1.104612
1.470320
0.138442
-0.064847
-0.164294
0.562693
-0.242604
0.500786
0.442164
0.482935
-0.114636
0.208501
-0.549732
0.493043
-0.336811
0.083891
-0.645869
0.265670
-0.510735
0.132609
-0.416056
0.636690
-0.375379
0.949481
0.813923
0.759025
0.101415
1.000529
0.061357
0.931594
-0.020979
0.565200
0.231342
0.642964
0.113768
0.420290
0.525866
0.631527
-0.000017
0.045858
-0.044724
0.387152
-0.720763
0.496000
-0.023409
0.159789
-0.373116
0.249809
-0.464549
0.453348
-0.077174
0.656003
-0.179619
0.354533
-0.163360
0.397173
-0.486847
0.364041
0.311324
1.094371
0.433844
0.794539
-0.099114
0.493329
0.292037
0.387544
-0.009347
0.719528
-0.326407
0.554042
-0.247783
0.555606
-0.615382
0.210738
-0.578936
0.324166
-0.378214
0.572753
-0.232416
0.827973
-0.267267
0.676270
-0.413971
0.122284
-0.681210
0.674285
0.729608
1.409552
0.524985
0.360709
-0.148998
0.433712
0.254419
0.743230
0.078183
0.494660
0.043996
0.381430
-0.294725
0.226997
-0.152909
0.236737
-0.691883
0.697581
0.015046
0.338690
-0.209955
0.713394
-0.453884
0.419153
-0.700501
-0.344135
-0.456516
0.715527
0.479009
0.774162
0.426776
0.440828
-0.042886
0.202060
-0.128426
0.453535
-0.178403
0.080695
-0.575923
0.360839
-0.253571
0.060643
-0.602211
0.063602
-0.059406
0.626851
-0.228691
0.156164
-0.621854
0.273608
-0.125489
0.236027
-0.412693
0.349303
-0.040175
0.560616
0.155154
0.756417
0.413943
0.455125
0.128496
0.112076
-0.285801
-0.079876
-0.263832
0.663250
-0.076426
0.588427
-0.005176
0.069393
-0.346342
0.400127
-0.030941
0.354142
-0.271442
0.243141
-0.151941
0.155003
-0.353573
0.318934
-0.418379
0.103263
-0.408107
0.368128
0.137471
0.142363
-0.085277
0.350877
-0.371576
0.248949
-0.247559
0.323261
-0.096706
0.033649
-0.672293
0.039784
-0.367357
0.206543
-0.696037
0.145098
-0.531803
0.685146
-0.189184
0.359167
-0.741166
0.042671
-0.157593
0.566832
-0.296499
0.331032
-0.477245
0.743857
0.265589
-0.165384
-0.238733
0.327959
0.120581
0.447208
-0.020535
0.367764
-0.021596
0.246884
-0.319904
0.438791
-0.580815
0.706552
-0.664616
0.293737
-0.410466
0.331822
-0.382710
0.447387
-0.290481
0.129569
-0.735438
0.068144
-0.136032
0.557874
-0.533075
0.112106
-0.499777
-0.529428
-0.175001
0.574969
0.322099
0.220242
0.339506
0.190081
-0.144642
0.508198
-0.228320
0.139948
-0.251117
0.110038
-0.402032
0.548889
-0.569997
0.443634
-0.274675
0.522519
-0.332680
-0.021517
-0.832402
-0.015208
-0.346056
0.350875
-0.412789
0.136742
-0.454738
-0.200237
-0.141077
0.170598
0.159418
0.329219
-0.244688
0.433427
-0.438998
0.022257
-0.144182
0.404979
-0.091712
0.283906
-0.559050
0.560940
-0.124670
0.230493
-0.422144
0.553976
-0.184814
0.152121
-0.105806
0.216733
-0.742136
0.341602
-0.478397
0.345628
0.009305
-0.017115
-0.396435
0.279866
-0.541822
0.027540
-0.307803
-0.037277
-0.509989
0.431152
-0.341697
0.584796
-0.027720
0.189638
-0.315707
0.089551
-0.077697
0.347637
-0.538879
0.064963
-0.640180
0.400483
-0.573311
0.002724
-0.748058
-0.313322
-1.070383
-0.490467
-0.624310
-0.174698
-0.841726
-0.249682
-1.295632
-0.288444
-1.141069
0.017795
-0.707202
-0.074836
-0.508759
0.015970
-0.008104
0.128648
-0.070618
0.368481
-0.160947
0.237113
-0.060178
0.655552
-0.055012
0.219562
-0.403990
-0.107724
-0.642548
-0.012110
-0.661307
-0.292890
-0.839723
-0.477376
-1.235433
-0.475632
-0.835930
0.090243
-0.512949
0.070482
-0.402917
0.545909
-0.520066
0.244725
-0.535639
0.481655
-0.378741
0.393686
-0.274066
0.223656
-0.693146
0.300427
-0.173909
0.331775
-0.430247
0.466868
-0.211015
0.166410
-0.530667
0.071776
-0.451467
0.470755
-0.222683
0.615860
-0.594570
0.587931
-0.536520
0.416246
-0.414392
0.208068
-0.099857
0.394019
-0.279477
0.162972
-0.668174
0.226549
0.210731
-0.453492
0.244513
-0.534777
0.696868
-0.568038
0.422782
-0.699491
0.548696
-0.134847
0.472505
-0.590577
0.509303
-0.353159
0.170161
-0.547779
0.670121
-0.418248
0.098878
-0.043753
0.360580
-0.371676
0.663394
-0.060917
0.427694
-0.652355
0.031080
-0.153178
0.568689
-0.154257
0.499850
-0.277988
0.339685
-0.701049
0.214066
-0.424588
0.113351
-0.362156
0.520813
-0.238608
-0.031084
-0.667835
0.480507
-0.390545
0.647759
-0.680265
0.457740
-0.286281
0.650507
-0.159148
0.177334
-0.628684
0.183919
-0.627234
0.626538
-0.127285
0.072602
-0.127795
0.257035
-0.283258
0.580123
-0.024756
0.454539
-0.508721
0.526519
-0.800346
0.187861
-0.670772
0.020395
-0.536624
0.333261
-0.792529
-0.078704
-0.768845
-0.078070
-0.424739
0.259925
-0.363011
0.131894
-0.074201
0.070507
-0.007890
0.288520
-0.258732
0.107793
-0.077111
0.303949
-0.566847
0.198860
-0.496776
0.039854
-0.763426
0.172134
-0.546639
-0.317086
-0.694113
-0.508565
-0.791135
-0.552664
-0.782367
0.056606
-0.464149
-0.096653
-0.703995
0.349611
-0.432593
0.491518
-0.140185
0.238149
-0.455585
0.250715
-0.000171
0.071857
-0.204669
0.077240
-0.369071
0.249919
-0.278158
0.074607
-0.805268
-0.016331
-0.674718
-0.175703
-0.978871
-0.186352
-0.431274
-0.308628
-0.591905
0.021860
-0.571598
0.452096
-0.322990
0.493134
-0.418699
0.635021
-0.110279
0.179854
-0.615098
0.539146
-0.143749
0.424799
-0.294226
0.260588
-0.061701
0.153119
-0.286041
0.474826
-0.356275
0.340991
-0.435676
0.132559
-0.827023
-0.399095
-0.872908
-0.091866
-1.022666
0.085161
-0.786010
-0.048572
-0.576386
-0.105337
-0.451111
0.501804
0.014611
0.524373
-0.417598
0.646647
-0.400420
0.553582
-0.354019
0.034564
-0.238881
0.186336
-0.341175
0.481959
-0.655026
0.336352
-0.110973
0.154465
-0.077628
0.175693
-0.524028
0.205609
-0.524069
0.417094
-0.198449
0.207185
-0.405371
0.141632
-0.295818
0.361256
-0.022734
0.193401
-0.462059
0.643665
-0.328044
0.672488
-0.228799
0.365816
-0.319247
0.519045
-0.409929
0.662878
-0.421227
0.269763
-0.244044
0.012526
0.021595
0.319328
-0.057636
0.629423
-0.289015
0.250709
-0.105628
0.379627
-0.466793
0.477819
-0.237061
0.304148
-0.137824
-0.026049
-0.851000
0.370452
-0.527278
0.591090
-0.433202
0.440297
-0.502623
0.340796
-0.187916
0.179896
-0.005110
0.555624
-0.275014
0.184908
-0.092766
0.619756
-0.284473
0.110476
-0.232366
0.163540
0.087892
0.347881
0.065756
0.555572
-0.391792
0.415317
-0.448203
0.065018
-0.544816
0.181347
-0.288830
0.171090
-0.629020
0.593655
-0.252161
0.251386
-0.022796
0.206379
-0.490301
0.694825
-0.435235
0.602137
-0.219918
0.633161
-0.181013
0.297934
-0.430620
0.286906
0.007867
0.262221
0.195789
0.528598
-0.345548
0.522067
-0.817823
-0.255563
-0.852081
0.355389
-0.518193
0.071570
-0.542766
0.188383
-0.561026
0.205871
-0.478000
0.193679
0.174449
0.452548
-0.269499
0.506951
0.251694
0.547167
-0.382526
-0.177740
0.117319
0.864762
0.414607
0.773505
0.259796
0.052425
-0.414884
0.435185
-0.617438
-0.076275
-0.556089
0.490494
-0.694152
0.269182
-0.213591
0.672563
-0.530292
0.740306
0.162642
0.411147
-0.306994
0.221616
-0.020733
0.303148
0.157747
0.411627
-0.529160
-0.140167
0.090464
0.915935
0.466842
0.882836
0.257865
0.612645
-0.062324
0.019587
-0.467733
-0.148119
-0.443857
0.522610
-0.158008
0.280907
-0.286051
0.298531
-0.150438
0.459724
-0.199545
0.558080
-0.021395
0.208575
-0.370420
0.312752
-0.196249
0.150474
-0.738446
0.333482
0.218998
0.824471
0.543459
0.609198
0.148484
0.220124
-0.096665
0.540411
-0.727342
0.074923
-0.418116
0.586213
-0.557277
0.060924
-0.387047
0.567235
-0.351157
0.669352
0.037533
0.464711
-0.151623
0.182710
-0.165189
0.031714
-0.814126
-0.352095
-0.651624
0.046365
0.113722
0.956193
-0.002796
0.886667
-0.022086
0.334338
-0.496651
0.115762
-0.496721
-0.171646
-0.193733
0.131834
-0.461383
0.346484
-0.042757
0.550330
-0.001664
0.525919
-0.070163
0.788481
-0.012915
0.405087
-0.364276
0.009696
-0.727472
-0.314262
-0.840554
0.182845
-0.000532
0.635868
0.508799
0.817833
0.213839
0.757696
-0.074787
0.478664
-0.449778
0.382239
-0.447450
0.327194
-0.166223
0.358737
-0.344271
0.304666
-0.407471
0.362346
0.259535
0.463548
0.139862
0.272592
0.097857
0.343439
-0.483069
-0.114572
-0.339123
0.424807
-0.216845
1.074048
0.904194
1.069994
0.435041
0.482805
0.158189
0.668195
-0.625184
0.184391
-0.202639
0.033265
-0.427204
0.650981
-0.195211
0.062326
-0.309112
0.306232
-0.109049
0.515831
0.359709
0.790133
-0.522072
0.167438
-0.489946
0.330986
-0.353579
0.257611
0.355955
1.047107
0.226336
0.783630
0.044079
0.475701
-0.103688
0.046660
-0.463280
0.096391
-0.329476
0.095507
-0.222442
0.504916
-0.024985
0.075849
-0.197576
0.416507
-0.301350
0.424843
0.188518
0.671159
-0.417165
-0.007270
-0.349176
0.590080
-0.022400
0.788795
0.571768
0.661649
0.163628
0.263877
-0.291084
0.085060
-0.780901
0.293750
-0.316807
0.193689
-0.593553
0.233738
-0.658064
0.187724
-0.259484
0.504364
-0.127943
-0.052083
-0.499315
0.435338
-0.698351
0.381390
-0.417858
0.040943
-0.673797
0.073161
-0.095045
1.078620
0.087368
0.169165
-0.498804
-0.242948
-0.566049
0.190148
-0.663652
-0.249497
-0.700323
0.115553
-0.119203
0.285282
-0.471688
0.234791
-0.226059
0.277446
-0.544767
0.363485
-0.760133
-0.139787
-0.927691
-0.300795
-0.814703
-0.535981
-1.215926
-0.298760
-0.605853
0.034041
-0.448779
-0.163368
-0.837077
-0.345980
-0.964255
-0.429871
-1.045073
-0.472034
-0.909603
0.073816
-0.208510
0.537465
-0.606586
0.313125
-0.086906
0.284412
-0.178517
-0.035842
-0.574707
-0.409415
-1.289885
-0.522490
-1.475458
-1.201414
-1.628641
-0.914774
-1.158135
-0.369581
-0.861073
-0.139485
-0.604196
-0.529111
-1.214168
-0.219756
-0.780243
0.170624
-0.337977
0.491474
-0.222084
0.372422
-0.146324
0.469513
-0.603215
0.639815
-0.094304
0.368668
-0.963508
-0.585681
-1.386069
-0.582840
-1.278772
-0.605929
-1.066682
-0.129423
-0.755135
-0.511914
-0.619836
0.141849
-0.286106
-0.072150
-0.497115
0.175425
-0.364808
-0.214336
-0.427169
0.501334
-0.455577
0.555520
-0.130635
0.389749
-0.495602
0.095990
-0.369026
0.346227
-0.809593
-0.061107
-0.718419
0.193849
-0.650716
-0.177948
-0.784308
0.363299
-0.409748
-0.003355
-0.372308
0.166607
-0.164160
-0.098152
-0.337161
0.174578
-0.646158
0.013503
-0.195200
0.361909
-0.631000
0.524317
-0.413670
0.150209
-0.359713
0.486513
-0.070882
0.280799
-0.311633
0.115564
0.093467
0.595718
-0.465436
0.438320
-0.520509
-0.003894
-0.580900
-0.010714
-0.418176
0.068025
-0.244621
-0.044461
-0.516558
0.549523
-0.148025
0.180412
-0.314590
0.198826
-0.036560
0.458687
-0.043160
0.194974
-0.225982
0.564866
-0.157680
0.655799
-0.114873
0.579726
0.216968
0.640728
-0.081164
-0.061868
-0.434917
-0.084562
-0.482657
0.011421
-0.921282
0.144288
-0.955536
0.118628
-0.449810
0.017279
-0.587133
0.043383
-0.150368
0.391011
-0.388951
0.488755
-0.056065
0.079481
-0.233837
0.300250
-0.177252
0.336965
-0.081134
0.743322
-0.214139
0.354100
-0.017127
0.760921
-0.423491
-0.032014
-0.652310
-0.010225
-0.461355
-0.177062
-0.312977
0.328023
-0.183572
0.546741
-0.487167
0.273005
-0.246434
0.688338
-0.459510
0.045102
-0.675413
0.467722
-0.001732
0.401555
-0.234981
0.142814
-0.071861
0.693737
-0.319439
0.728443
-0.099839
0.463697
-0.472169
0.745532
0.073027
0.513830
-0.454992
0.131516
-0.470604
0.464078
-0.498324
0.563348
-0.544234
0.140067
-0.423065
0.111949
-0.608079
0.688717
-0.060026
0.156667
-0.396182
0.234916
-0.233883
0.364420
-0.490140
0.361752
-0.246817
0.535256
-0.156133
0.138634
-0.139486
0.434535
-0.623644
0.628204
-0.077675
0.639610
-0.613742
0.533626
-0.114626
0.510186
-0.423728
0.372736
-0.054016
0.672416
-0.491757
0.054865
-0.217680
0.850907
0.524360
-0.615306
0.350842
-0.495815
0.368368
-0.358771
0.072318
-0.253396
0.018448
-0.657379
0.468089
-0.576754
0.605783
-0.596746
0.606397
-0.409785
0.656505
-0.484319
0.357250
-0.396244
0.580162
-0.484255
0.679862
-0.333330
0.169222
-0.010850
0.349362
-0.127093
0.346196
-0.111401
0.523049
-0.287937
0.251656
-0.178381
0.653248
-0.348547
0.451186
-0.663505
0.254175
-0.404013
0.356486
-0.571908
0.698288
-0.378865
0.658300
-0.086743
0.460520
-0.178871
0.159986
-0.039788
0.448167
-0.570239
0.310869
-0.666968
0.627842
-0.343578
0.221730
-0.516694
0.580157
-0.392749
0.626889
-0.420342
0.286015
-0.145337
0.153855
-0.279735
0.285875
-0.635266
0.371034
-0.546778
0.409582
-0.420081
0.331698
-0.404367
0.017834
-0.578644
0.509287
-0.291026
0.027806
-0.385766
0.578040
-0.605744
0.609687
-0.406513
0.256442
-0.116319
0.578317
-0.429483
0.457590
-0.508705
0.311384
-0.160730
-0.003690
-0.570579
0.492025
-0.655463
0.244899
-0.293999
0.458541
-0.286306
0.518102
-0.730035
0.373314
-0.236719
0.110542
-0.519319
0.170671
-0.506842
0.104929
-0.619491
0.645067
-0.685019
0.207577
-0.653378
0.434146
-0.055440
0.344064
-0.044356
0.118227
-0.364077
0.442315
-0.766285
0.294117
-0.113053
0.612357
0.002626
0.327562
-0.047457
0.580695
-0.660440
0.307025
-0.492680
0.249750
-0.183930
0.744255
-0.093641
-0.015440
-0.556285
0.096860
-0.407052
0.660393
-0.029657
0.060352
-0.234787
0.030288
-0.396302
0.371827
-0.806193
-0.241154
-0.930672
0.352750
-0.657581
0.292991
-0.106374
0.455759
-0.008931
0.084800
-0.241428
-0.001291
-0.281125
0.719959
-0.325684
0.454032
-0.331221
0.543224
-0.486956
0.359692
-0.686255
0.460193
-0.158925
0.406841
-0.146113
0.561014
-0.270113
0.181888
-0.384632
-0.101191
-0.999179
-0.108639
-0.514882
0.196882
-0.230927
-0.348992
-0.940600
-0.349148
-0.522542
0.036984
-0.601152
0.473406
-0.236186
0.136808
-0.423276
0.251352
-0.661852
0.206343
-0.604075
0.171567
-0.413041
0.187336
-0.284712
0.030734
-0.348112
-0.049388
-0.683402
0.070606
-0.679376
-0.403545
-0.974568
0.276750
-0.689512
-0.062394
-0.470275
0.115624
-0.979233
0.047217
-0.524807
0.055498
-0.082857
0.456587
-0.467904
-0.016329
-0.778375
0.403326
-0.200045
0.152118
-0.443914
0.523825
-0.462299
0.390964
-0.365668
0.179362
-0.401753
-0.309004
-1.102150
0.271605
-0.638231
-0.024728
-0.532722
-0.195436
-0.338913
0.208604
-0.612877
-0.289151
-0.707257
0.357018
-0.607891
-0.056218
-0.674125
0.315822
-0.588796
0.648084
-0.237238
0.100757
-0.302141
0.455295
-0.269894
0.172165
-0.351400
0.109384
-0.765054
0.210629
-0.879101
0.157907
-0.553882
-0.214220
-0.009050
0.228498
-0.076679
0.305388
-0.204900
0.129375
-0.825474
-0.311452
-0.481086
-0.099029
-0.926735
0.397596
-0.374030
0.364796
-0.216868
0.189248
-0.573675
0.649113
-0.315627
0.269988
-0.300889
0.277193
-0.419087
0.171428
-0.545748
-0.055098
-0.421637
0.368542
-0.180703
0.938608
0.491202
0.571147
-0.280839
-0.063480
-0.180278
0.407786
-0.646269
0.353062
-0.792945
-0.077191
-0.420685
0.262022
-0.194131
0.639358
-0.689117
0.254076
-0.098309
0.343036
-0.533235
0.421102
-0.474573
-0.045893
-0.663362
0.101592
-0.456787
-0.190935
0.106784
0.686695
0.603717
0.762375
-0.433276
0.110060
-0.393682
0.263049
-0.910093
0.449018
-0.474074
0.136625
-0.096991
0.126727
-0.133873
0.272632
-0.618300
0.041839
-0.582723
0.570679
-0.534425
0.012951
-0.049621
0.298576
-0.107265
-0.150038
-0.669113
0.494989
0.365846
1.258952
0.665696
0.417596
-0.660284
0.123385
-0.160846
0.254985
-0.404818
0.650780
-0.618919
0.535164
-0.200965
0.396129
-0.531997
0.390040
-0.580816
0.085781
-0.410743
0.190883
-0.209925
0.282762
-0.057261
0.652308
-0.777199
-0.548508
-0.806156
0.271182
0.317151
0.788673
0.151500
0.618724
-0.438911
-0.047526
-0.932572
-0.030782
-0.150205
0.325648
-0.455069
0.295628
-0.562442
0.161063
-0.175264
0.327868
-0.078838
0.642502
-0.205209
0.525298
-0.056017
0.298568
-0.331789
0.130050
-0.890874
-0.377579
-0.877455
0.428906
0.182369
0.998999
0.381699
0.755466
-0.363225
-0.382025
-1.072439
-0.003521
-0.090614
0.243721
-0.578777
0.478206
-0.401450
0.511566
-0.596298
0.351207
-0.344343
0.491485
-0.645399
0.500923
-0.294284
-0.033107
-0.583792
-0.015128
-1.090083
-0.380182
-0.185591
-0.019106
0.300156
0.779108
0.177529
0.082868
-0.633118
-0.400714
-1.062512
0.236973
-0.152618
0.101342
-0.270531
0.489551
-0.498264
0.647963
-0.192935
0.376454
-0.454651
0.403984
-0.296848
0.273102
-0.168910
0.109376
-0.317941
0.342834
-0.299289
0.154437
-0.647467
0.120327
0.229656
1.149453
-0.157476
0.159181
-0.664286
-0.638816
-0.419313
-0.032322
-0.688811
0.182927
-0.556944
-0.006601
-0.106730
0.017602
-0.291995
0.367425
-0.619621
0.365975
-0.668957
0.177261
-0.482344
-0.100181
-0.344191
-0.003914
-0.115066
0.205382
-0.331811
0.698897
0.187658
0.934925
-0.189651
-0.027341
-0.810847
-0.350649
-0.344868
-0.026753
-0.607625
0.358859
-0.727873
0.024056
-0.168060
0.134456
-0.451792
0.062275
-0.040780
0.369637
-0.613337
0.301578
-0.848081
-0.001189
-0.741954
0.510917
-0.294645
0.180509
-0.712742
0.250471
0.303045
0.579855
-0.323207
-0.286547
-0.777444
0.146622
-0.824895
0.012184
-0.237410
-0.061530
-0.739048
0.236613
-0.297582
0.370872
-0.599622
0.657272
-0.059019
0.056803
-0.461068
0.367249
-0.435938
0.350603
-0.314314
0.124965
-0.631086
0.357043
-0.464947
0.421634
0.053284
0.058834
-0.629550
-0.263933
-0.578110
-0.040975
-0.727733
0.479001
-0.602632
0.372097
-0.440742
0.039793
-0.666055
0.504237
-0.315010
0.066062
-0.097071
0.654306
-0.651250
0.362452
-0.193780
-0.074424
-0.736337
-0.019242
-0.804966
-0.133549
-0.600298
0.408967
-0.288982
0.225841
-0.385200
0.457319
-0.308290
0.399014
-0.089311
-0.124629
-0.853735
0.472109
-0.738650
0.211847
-0.513349
0.597989
-0.377056
0.154116
-0.055553
0.212097
-0.305726
0.317744
-0.265584
0.405858
-0.220742
-0.177407
-0.150908
-0.140451
-0.449310
-0.133666
-0.355957
0.003544
-0.619796
0.563901
0.020729
0.471332
-0.587511
-0.116173
-0.343040
-0.111410
-0.278133
0.360382
-0.542973
0.496678
-0.240918
0.313488
-0.415695
0.069233
-0.111249
0.300536
-0.231738
0.461472
-0.248242
0.331550
-0.428996
-0.125289
-0.626864
-0.088784
-0.400360
-0.146226
-0.167689
0.620040
0.331136
0.660568
-0.346396
0.100505
-0.851894
-0.105837
-0.127714
0.111097
-0.614586
0.606085
-0.260204
0.348840
-0.457576
0.283883
-0.244836
0.099666
-0.062537
0.492204
-0.265679
0.727070
-0.224802
0.204759
-0.509929
0.106707
-0.826453
0.540937
-0.120403
0.753211
-0.178802
0.468933
-0.249477
0.242795
-0.234644
0.362976
-0.187068
0.561026
-0.433904
0.249807
-0.188386
0.110708
-0.061833
0.420058
-0.444052
0.548380
-0.580543
0.265569
-0.339713
-0.110965
-0.652025
0.096829
-0.458527
0.172560
-0.425561
0.200043
-0.649140
0.306970
-0.283191
0.131185
-0.649618
0.312424
-0.379949
0.157841
-0.355838
0.635732
-0.414251
0.018860
-0.498971
0.209707
-0.048843
0.498218
-0.144204
0.604821
-0.724718
0.096005
-0.298703
0.315256
-0.622105
-0.128914
-0.280559
-0.122693
-0.980698
-0.148566
-0.959549
0.423500
-0.830934
0.372398
-0.475938
0.656696
-0.044888
0.390817
-0.165273
0.066713
-0.138585
0.298585
-0.014366
0.652868
-0.246487
0.104893
-0.332730
0.029290
-0.613598
0.655515
-0.510964
0.404278
-0.612948
0.519283
-0.351158
-0.067969
-0.436998
-0.045487
-0.605162
0.498301
-0.175791
0.453818
-0.208008
0.558516
-0.631671
0.025394
-0.625198
0.580124
-0.549209
0.353810
-0.681837
0.626082
-0.164948
0.284961
-0.637548
0.373226
-0.110156
0.665688
-0.000447
0.120644
-0.170939
0.307260
-0.266887
0.273893
-0.224311
0.011737
-0.127651
0.251559
-0.065756
0.251763
-0.095769
0.381212
-0.685125
0.458299
-0.673049
0.632764
-0.461755
0.511044
-0.108444
-0.277565
0.132401
-0.667017
0.060908
-0.272977
0.121283
-0.696147
0.336315
-0.653003
0.415790
-0.088945
0.405059
-0.332833
0.232577
-0.610511
0.469693
-0.681954
0.038444
-0.032856
0.605841
-0.169572
0.298154
-0.482500
0.572419
-0.537974
0.524965
-0.293789
0.611220
-0.274727
0.134989
-0.063414
0.395628
-0.017433
0.400730
-0.367125
0.673929
-0.105911
0.530557
-0.459374
0.546623
-0.290961
0.218879
-0.553989
0.059154
-0.204092
0.512891
-0.037199
0.604655
-0.047881
0.358880
-0.658018
0.523895
-0.468366
0.051667
-0.366962
0.535176
-0.409859
0.503594
-0.207402
0.509512
-0.273806
0.207679
-0.317797
0.703964
-0.549484
0.675372
-0.509991
0.833542
-0.166134
0.416691
-0.481779
0.536164
-0.313609
0.496759
-0.293783
0.628577
-0.040306
0.077663
-0.292579
0.066677
-0.336223
0.499789
-0.174439
0.294102
-0.269636
0.675745
-0.439090
0.377976
-0.141639
0.503256
-0.440930
0.469927
-0.235352
0.177985
-0.190098
0.626415
-0.033369
0.315814
-0.045031
0.793602
-0.159894
0.555134
-0.022994
0.656035
-0.198221
0.442355
-0.553111
0.396446
-0.231290
0.243040
-0.138102
0.581992
-0.355055
0.601812
-0.359630
0.456199
-0.203764
0.328142
-0.339654
0.077218
-0.423472
0.134454
-0.139116
0.575662
-0.140263
0.665168
0.244056
0.486585
-0.304583
0.274516
-0.353779
0.435345
-0.173145
0.028988
-0.453893
0.058241
-0.271456
0.511969
-0.570905
0.501136
-0.582535
0.214899
-0.506513
0.273479
-0.166964
0.564204
-0.649965
0.291012
-0.331591
0.217683
-0.716909
0.064754
-0.446183
0.288440
-0.183574
0.528331
-0.517776
0.033245
-0.750980
0.189994
-0.392823
0.262939
-0.674472
-0.163767
-0.648496
0.240554
-0.460992
0.525346
-0.571111
0.219613
-0.641372
0.238999
-0.257172
-0.130804
-0.271568
0.343684
-0.972245
0.280177
-0.596027
0.657072
-0.120948
0.837646
-0.123265
0.800636
0.302935
0.533558
-0.294365
0.441032
-0.214348
0.031339
-0.375004
0.077148
-0.946877
0.502748
-0.160153
0.254560
-0.473762
0.589902
-0.374018
0.560453
-0.667913
0.252191
-0.608385
0.062855
-0.424627
0.240280
-0.434083
0.262909
-0.373823
0.725163
0.067152
1.688934
0.641340
1.508410
0.199858
0.197055
-0.434616
-0.084512
-0.323601
0.263379
-0.452602
0.517553
-0.348252
0.661147
-0.405276
0.446349
-0.609204
0.641499
-0.793408
0.461562
-0.646770
0.192460
-0.440625
0.034536
-0.224941
0.384532
-0.145724
0.527428
0.017082
1.063859
0.638126
0.789901
-0.258443
0.016199
-0.577284
0.066987
-0.738427
0.488795
-0.196650
0.612498
0.210566
0.194213
-0.169335
0.341740
-0.149354
0.531864
-0.325568
0.271804
-0.860979
0.351801
-0.748767
-0.109977
-0.387461
0.595077
-0.199743
0.228886
0.057168
0.998744
-0.223554
0.389972
-0.732293
-0.246122
-0.413449
-0.118775
-0.141296
0.214940
-0.633126
0.432079
-0.272870
0.570161
-0.413582
0.235559
-0.215741
0.110376
-0.788775
0.211655
-0.456949
0.136774
-0.146666
0.272785
-0.047073
0.634507
-0.673759
0.085749
-0.725573
0.593408
-0.457603
-0.252054
-0.744765
-0.078842
-0.567409
-0.027859
-0.310184
0.172227
-0.589916
0.643288
-0.407694
0.414302
-0.597479
0.012477
-0.192208
0.500366
-0.349883
0.375208
-0.119823
0.416428
-0.327128
-0.102170
-0.339473
-0.315427
-0.765770
-0.056755
-0.199628
0.753223
-0.052387
-0.142382
-0.661490
-0.085808
-0.482056
0.219141
-0.426162
-0.230505
-0.412796
0.374609
-0.131648
0.482157
-0.649611
0.137582
-0.142576
0.023306
-0.072548
0.169642
-0.092438
0.266947
-0.470304
0.492928
-0.816817
0.011068
-0.831248
0.259268
-0.086043
1.408078
0.257151
-0.014400
-0.706976
0.044031
0.147039
0.302217
-0.410205
0.235389
-0.734794
0.481785
-0.126397
0.079650
-0.157644
0.400177
-0.191647
0.215603
-0.392166
0.283453
-0.661535
0.003659
-0.471937
0.046374
-0.954501
-0.279878
-0.684689
0.087372
0.664794
1.627414
0.497284
0.191087
-0.645347
-0.041952
-0.101784
0.433620
-0.270721
-0.183625
-0.947756
0.036046
-0.307784
0.419733
-0.122764
0.008593
-0.189170
0.480056
-0.419256
0.350497
-0.456057
0.205755
-0.706133
0.266102
-0.252294
-0.028193
-0.787085
0.898398
0.713081
1.508877
0.275580
0.378408
-0.347576
0.470158
0.059329
0.445470
-0.551417
-0.122062
-1.121408
-0.174636
-0.478296
0.173204
-0.195386
0.696194
-0.624380
0.493933
-0.163186
0.294388
-0.484339
0.125359
-0.545995
0.089809
-0.566826
0.177484
-0.378235
1.008025
0.746481
0.659869
-0.221384
0.127433
-0.887667
-0.066472
-0.794558
-0.004042
-0.868215
-0.461351
-1.001649
0.384852
-0.368725
0.112150
-0.410232
0.379029
-0.570377
0.264531
-0.490180
0.423607
-0.603585
0.215709
-0.359363
0.312100
-0.201604
0.348096
-0.387819
0.996593
0.443225
0.493796
-0.318367
0.174273
-0.476739
0.569537
-0.320780
-0.257871
-0.778657
-0.067299
-0.580291
-0.019754
-0.055467
0.414313
-0.595400
0.179143
-0.156300
0.417632
-0.303568
0.226741
-0.312608
0.378418
-0.378816
0.249405
-0.189113
0.931797
0.342405
1.062981
0.026297
0.558436
-0.381659
0.554515
-0.079466
0.151641
-0.532713
-0.030684
-0.377292
0.000969
-0.128870
0.237694
-0.256308
0.566922
-0.182021
0.621969
-0.371490
0.639561
-0.464742
0.129139
-0.084570
0.596751
-0.712980
0.687622
-0.306955
0.507380
0.227596
0.842495
0.240627
0.727477
0.213613
0.197943
-0.113310
0.329162
-0.467141
0.510673
-0.692878
-0.046319
0.043586
0.802959
-0.478389
0.669729
-0.382682
0.011079
-0.006943
0.650057
-0.001527
0.360088
-0.219440
0.600777
0.087157
0.371261
-0.107682
0.281453
-0.329707
0.638743
0.193321
0.544661
-0.327177
0.257498
-0.452845
0.566726
-0.010857
0.048425
-0.523305
0.571958
-0.142223
0.394370
-0.140450
0.213668
-0.307110
0.523183
-0.434216
0.588654
-0.271483
0.356762
0.169234
0.733005
0.067572
0.760639
-0.021487
0.425342
-0.396340
0.689107
-0.195861
0.303610
-0.016521
0.486684
-0.345469
0.157639
-0.173474
0.790096
0.130278
0.358667
-0.069463
0.723283
-0.600817
0.084308
-0.240315
0.422336
-0.208241
0.003837
-0.098522
0.433638
-0.329643
0.685947
-0.521358
0.521158
-0.399435
0.599421
-0.201172
0.329393
-0.522347
0.173246
0.061052
0.590541
-0.182459
0.594364
-0.313206
0.574623
-0.344196
0.507012
-0.333701
0.701078
-0.034718
0.121131
-0.565408
0.540431
-0.522814
0.518392
0.001907
0.584992
-0.637081
0.400014
-0.088417
0.456597
-0.044899
0.284558
-0.524429
-0.079415
-0.660303
0.413124
-0.234712
0.127331
-0.433563
0.200214
-0.143804
0.007449
-0.265269
0.610881
-0.354714
0.600779
-0.020926
0.073140
-0.483672
0.201183
-0.286726
0.203260
-0.062753
0.154013
-0.147571
0.368201
-0.447454
0.489155
-0.435041
-0.142332
-0.734692
-0.099004
-0.698713
0.380222
-0.488872
0.254668
-0.301759
0.054362
-0.426295
0.193853
-0.058708
0.489341
0.065628
0.173832
0.007032
0.557638
-0.667766
0.044012
-0.505765
0.289184
-0.521505
0.592017
-0.366710
0.301233
0.011719
0.691872
-0.521613
0.310742
-0.451430
0.164112
-0.246863
0.441104
-0.495746
0.688921
-0.406842
0.159664
0.014554
0.416228
-0.473640
0.650283
-0.347029
0.680904
-0.543837
0.132141
-0.519767
0.431184
-0.505060
0.350477
-0.093893
0.461911
-0.119325
0.756972
-0.470499
0.736843
0.227406
0.757684
0.138535
0.701517
0.352907
1.007269
0.034904
0.491255
0.255937
1.090745
0.037390
1.012935
-0.226348
0.597152
-0.341408
0.652218
-0.466353
0.265744
-0.370259
0.635776
-0.679320
0.329430
-0.428615
0.048933
-0.434282
0.261522
-0.102895
0.207939
-0.219350
0.652038
0.013824
0.700020
0.265018
0.366097
-0.272332
0.527935
0.214641
0.422067
-0.550364
0.739987
0.120515
0.635392
-0.317486
0.361074
-0.501851
0.297688
-0.337451
0.143036
-0.212556
0.332772
-0.600811
0.334896
-0.277225
0.568386
-0.384774
0.062527
-0.250960
0.134642
-0.678208
0.202249
-0.111018
0.145553
-0.332808
0.082331
-0.375071
0.309470
-0.590484
0.417359
-0.664890
0.222026
-0.103991
0.604377
-0.066138
0.686079
-0.537615
1.045493
0.377008
-0.673920
0.576738
-0.337914
0.218640
-0.380837
0.621045
-0.198654
0.477729
-0.184693
0.333013
-0.441728
0.617602
-0.446257
0.428871
-0.133803
0.428509
-0.344710
0.343425
-0.451802
0.529431
-0.447279
0.112094
-0.267951
0.352142
-0.644182
0.561571
-0.222397
0.533350
-0.520209
0.146573
-0.154565
0.071964
-0.598662
0.608276
-0.219625
0.224393
-0.661953
0.157037
-0.260509
0.255455
-0.600864
0.392617
-0.364118
0.075113
-0.316012
0.089291
-0.240171
0.525622
-0.039792
0.561511
-0.521368
0.185366
-0.452499
0.356778
-0.170005
0.577766
-0.109225
0.351194
-0.213055
0.609881
-0.580297
0.234767
-0.344045
0.586203
-0.715316
0.354113
-0.752785
0.169021
-0.729305
-0.028000
-0.809212
0.405988
-0.763085
0.476362
-0.478848
-0.101713
-0.689766
0.315043
-0.336640
0.603289
-0.147915
0.034401
-0.679174
0.682548
-0.678457
0.529496
-0.396085
0.512103
-0.683287
0.183677
-0.328852
0.508000
-0.793043
0.030566
-0.718245
-0.342710
-1.084226
-0.274585
-0.952765
-0.600533
-1.195599
-0.529757
-1.143430
-0.352830
-0.537415
0.394819
-0.251088
0.659810
-0.420243
0.196968
-0.630061
0.539450
-0.136340
0.361468
-0.378859
0.395681
-0.191953
0.335030
-0.849850
-0.197727
-0.620813
-0.535712
-0.817775
-0.382839
-0.513154
-0.164747
-0.944858
-0.132009
-0.401615
-0.074486
-0.261603
0.553104
-0.360668
0.733632
-0.120869
0.139082
-0.146254
0.072151
-0.183480
0.208843
-0.219138
0.353015
-0.068039
-0.112074
-0.499443
-0.217012
-0.899370
-0.227810
-0.651193
-0.172219
-0.688727
-0.424211
-0.681030
0.398414
-0.325500
0.371535
-0.372845
0.566575
-0.027535
0.476088
-0.118334
1.121720
0.032730
0.343808
-0.640959
0.152259
-0.106411
0.314278
-0.582131
0.066364
-0.293345
0.441457
-0.816134
0.203986
-0.837655
-0.030005
-0.380995
-0.585380
-0.807294
-0.256530
-0.916027
0.168008
-0.271215
0.556503
-0.307695
0.674339
0.234922
0.601411
0.162677
1.045213
0.512952
0.874519
-0.436720
0.557752
-0.445183
0.340772
-0.146447
0.302826
-0.716311
0.132944
-0.777772
-0.028699
-0.506143
0.064164
-0.410798
-0.071647
-0.506698
0.380822
-0.426889
-0.002824
-0.479232
0.447807
0.150488
0.686092
-0.099971
0.631038
0.286663
0.761032
0.518754
0.978764
-0.022536
0.502810
-0.416346
0.438943
-0.598917
0.035791
-0.702450
-0.061114
-0.983945
-0.029557
-0.206228
0.423325
-0.467795
0.265515
-0.202441
0.327464
-0.518851
-0.234492
-0.596959
0.016118
-0.153594
0.405165
0.300402
0.212422
-0.168855
0.608275
0.238004
0.993077
-0.086584
0.284856
-0.645856
0.377138
-0.379398
0.591299
-0.389995
0.233342
-0.871948
-0.035742
-0.000100
0.367709
0.104473
0.567573
0.203927
0.618727
-0.401214
-0.420206
-0.883860
-0.222922
-0.382107
0.488479
-0.415174
0.040159
0.007481
0.457574
0.328325
0.750430
-0.370755
0.435376
-0.411806
0.286369
-0.699390
0.548615
-0.582747
0.357581
-0.476005
0.269002
0.471472
1.033547
0.683064
1.581063
0.377022
0.455243
0.141540
0.095779
-0.797541
-0.200535
-0.600480
0.001962
-0.844318
-0.055712
-0.287116
0.667059
-0.099762
0.804266
-0.173836
0.096759
-0.314987
0.014560
-0.030250
0.005252
-0.560902
-0.035972
0.062799
0.728779
0.587740
1.139068
0.476083
1.197196
0.529644
0.998467
-0.054833
0.857135
-0.444911
0.205745
-0.646625
-0.275906
-0.635291
0.012643
-0.398776
0.645541
0.134045
0.465734
-0.581443
0.656457
-0.618275
0.387358
-0.562948
0.145262
-0.722407
0.289085
0.104934
0.853440
0.484413
0.643586
0.358392
1.236005
0.256393
1.324027
0.404525
0.587881
-0.262895
0.291780
-0.653546
0.251307
-0.564550
0.060531
0.006213
0.209072
-0.328924
0.336354
-0.341850
0.311920
-0.254392
0.540498
-0.626128
0.058229
-0.096980
0.197132
0.142920
0.580494
0.365229
0.394159
-0.351847
0.702871
0.231031
0.864979
0.150345
0.114558
-0.383832
-0.019381
-0.594106
0.217187
-0.286436
0.578372
0.040666
0.246637
-0.458416
0.076611
-0.554472
0.604264
-0.381486
0.403041
-0.156713
0.666995
-0.673760
0.404519
0.015259
0.448033
0.040699
0.096650
0.008350
0.211555
0.399278
1.221543
-0.002865
0.261432
-0.908963
0.238467
-0.385114
0.122809
-0.307424
0.489575
-0.535703
0.476179
-0.148392
0.464832
-0.645339
0.507048
-0.445932
0.265514
-0.434856
0.116707
-0.667454
0.094376
-0.129331
0.412837
-0.114158
0.388334
-0.274407
0.165646
0.090500
0.961906
-0.051671
0.125364
-0.532910
-0.049185
-0.409071
-0.075685
-0.602047
0.139490
-0.385916
0.248794
-0.338665
0.500551
-0.568696
0.142295
-0.609045
0.135065
-0.236458
0.138270
-0.550488
0.045295
-0.313833
0.430804
-0.164034
0.494851
-0.181186
0.061764
0.116455
0.596866
-0.665697
-0.051403
-0.128171
0.281351
-0.498960
-0.032661
-0.294568
0.361456
-0.687365
-0.384029
-0.476604
0.655551
-0.263900
0.459235
-0.029548
0.643060
-0.617252
0.154471
-0.791036
0.414389
0.188013
0.590949
-0.207515
0.401090
-0.040057
0.453334
0.117869
0.181560
-0.181939
0.095848
-0.595231
0.208218
-0.361558
0.479312
-0.381568
-0.131106
-0.433587
0.048611
-0.547539
0.292803
-0.298511
0.460796
-0.505071
0.616430
-0.048404
0.384933
-0.477399
0.152283
-0.284809
0.488377
-0.053258
0.479187
-0.195667
0.746494
-0.088053
0.269800
-0.405370
0.264701
-0.307546
0.057848
-0.247746
0.074634
-0.560349
-0.312966
-0.841929
-0.378793
-0.406131
0.623246
-0.687908
0.607636
-0.444422
0.187436
-0.546084
0.041463
-0.557423
0.244358
-0.444162
0.264142
0.156676
0.594355
-0.286565
0.274231
-0.219230
0.493915
-0.671293
-0.039828
-0.345948
-0.273672
-0.790870
-0.588764
-0.763174
0.010364
-0.720381
0.150530
-0.361450
0.220455
-0.180969
0.391466
-0.107704
0.103891
-0.293643
0.307451
-0.601905
-0.042543
-0.620798
-0.042234
-0.038951
0.551128
-0.405709
0.333837
-0.316401
-0.107412
-0.640052
0.047288
-0.644199
0.081263
-0.443471
-0.417327
-0.753479
-0.143195
-0.281453
0.245770
-0.515189
0.319629
-0.697468
0.215151
-0.646650
0.137791
-0.604115
0.021519
-0.552910
-0.006979
-0.745845
0.012325
-0.214581
0.403269
0.015710
0.105320
-0.775705
-0.084231
-0.421478
0.050163
-0.444795
0.185470
-0.534870
-0.170161
-0.456480
-0.209249
-0.360223
0.103872
-0.178948
0.204801
-0.050126
0.000762
-0.395911
0.532471
-0.089216
0.375022
-0.351723
0.148517
-0.517884
-0.074863
-0.559171
0.054365
-0.411293
0.226395
-0.205310
0.686890
-0.247815
0.440616
-0.306000
0.074232
-0.085355
0.540761
-0.345589
0.408616
-0.107929
0.357075
-0.337754
0.239004
-0.394860
0.087118
-0.187878
0.633610
-0.685208
0.563661
-0.231746
0.083689
-0.768955
0.063874
-0.748236
0.295769
-0.424859
0.063748
0.190626
0.673227
0.757020
0.767938
0.507301
0.754271
0.275372
0.762478
-0.221618
0.353185
-0.121852
0.316661
-0.126450
0.601527
-0.038589
0.043343
-0.530134
0.369825
-0.347322
0.126956
-0.138744
0.406540
-0.354511
0.169566
-1.063941
-0.061638
-0.395734
-0.270821
-0.782870
-0.304743
-0.680279
0.355974
-0.309871
0.461012
-0.367672
0.550777
0.134792
0.291338
-0.012305
0.506095
-0.493791
0.442315
-0.423306
0.071034
-0.564230
0.110134
-0.221181
0.388947
-0.131647
0.520526
-0.292983
0.011906
-0.519233
0.212323
-1.013520
0.104699
-1.041318
-0.468973
-1.097754
0.122857
-0.402215
0.387631
-0.440864
0.109785
-0.532245
0.394647
-0.455970
0.162226
-0.646117
0.309804
-0.392683
0.303027
-0.419919
0.176893
-0.135484
0.684217
-0.036202
0.011595
-0.382835
-0.011486
-0.878490
0.105790
-0.538269
-0.247880
-0.828211
0.194709
-0.582168
-0.176171
-0.901341
-0.232213
-0.903807
0.191854
-0.105171
0.064304
-0.709917
0.561516
-0.183233
0.248083
-0.344124
0.289245
-0.549058
0.619376
-0.157904
0.190022
-0.300237
0.484948
-0.315331
0.587041
-0.092824
0.132739
-0.186821
0.114877
-0.674458
0.546919
-0.601794
-0.051703
-0.409673
0.087672
-0.671961
0.220564
-0.497829
0.563296
-0.523179
0.228891
-0.217422
0.434037
-0.156988
0.203081
-0.684004
-0.180761
0.535149
-0.652381
0.459495
-0.331701
0.104026
-0.462479
0.078426
-0.003847
0.261982
-0.139748
0.244169
-0.344320
0.091234
-0.536343
0.242919
-0.467391
0.610303
-0.269871
0.428759
-0.355273
0.065679
-0.672766
0.078590
-0.669428
0.675565
-0.225636
0.365336
-0.504703
0.642039
-0.251231
0.031332
-0.200425
0.134863
-0.048466
0.133939
-0.086687
0.308682
-0.650126
0.047537
-0.613082
0.060756
-0.263607
0.106520
-0.570698
0.454971
-0.460409
0.484188
-0.555982
0.076492
-0.605754
0.016117
-0.531462
0.325447
-0.691264
0.181498
-0.540843
0.453347
-0.611207
0.050066
-0.063858
0.159277
-0.168373
0.214243
-0.345860
0.223624
-0.043044
0.411136
-0.590388
0.022571
-0.347711
0.193865
-0.329850
0.355197
-0.060721
0.596035
-0.001777
0.664756
-0.556372
0.564344
-0.234031
0.132188
-0.283151
0.041932
-0.544949
0.159594
-0.599012
0.198784
-0.206801
0.601774
-0.357329
0.501677
-0.611499
0.156184
-0.518932
0.426530
-0.690355
0.274158
-0.112641
0.682138
-0.593836
0.102231
-0.598691
0.173022
-0.525260
0.380335
-0.483497
0.585867
-0.496087
0.023116
-0.168264
0.584187
-0.230842
0.357655
-0.205010
0.196309
-0.613362
0.575102
-0.642115
0.134045
-0.172664
0.373907
-0.521992
0.141038
-0.071563
0.316128
-0.580376
0.367486
-0.460816
0.412858
-0.476719
0.140912
-0.325499
0.393454
-0.421775
0.560123
-0.500421
0.509795
-0.635331
0.146912
-0.260162
0.344426
-0.459493
0.300217
-0.380251
0.292612
-0.668857
0.369846
-0.647003
0.426135
-0.358451
0.135795
-0.507926
0.671963
-0.385555
0.746342
0.022891
0.634781
-0.515671
0.083191
-0.554533
0.399163
-0.437502
0.410267
-0.455101
0.366305
-0.458724
0.397869
-0.015962
0.263794
-0.492022
0.320744
-0.660578
0.644179
-0.002804
0.352460
-0.290433
0.712983
-0.031603
0.667321
-0.130886
0.692108
-0.431153
0.663718
0.038864
0.660903
-0.257080
0.201326
-0.000161
0.503651
-0.121509
0.102777
-0.162413
0.072897
-0.241004
0.064770
-0.268401
0.266694
-0.225471
0.450188
-0.637221
0.343384
-0.633831
0.669286
-0.186185
0.285948
-0.314479
0.501838
-0.453384
0.501032
-0.173185
0.740686
-0.131906
0.055826
-0.154881
0.190595
-0.442920
0.502323
-0.208305
0.580889
-0.079848
0.118750
-0.587053
0.121507
-0.088092
0.409299
-0.202156
0.096337
-0.506888
0.539187
-0.076591
0.713438
-0.078696
0.332143
-0.388378
0.714596
0.039680
0.136897
-0.507718
0.523212
-0.424513
0.599640
-0.559386
0.168001
-0.038349
0.471553
-0.049852
0.347622
-0.613024
0.557265
-0.496876
0.123243
-0.177296
0.041381
-0.066250
0.640916
-0.206555
0.574188
-0.505649
0.211363
-0.520258
0.581374
-0.601343
0.604875
-0.598215
0.552310
-0.158987
0.200539
-0.331595
0.754638
-0.037020
0.745113
0.004482
0.462889
-0.087086
0.688866
-0.432296
0.496622
-0.008983
0.603889
-0.617267
0.114459
-0.470010
0.171322
-0.616078
0.033448
-0.210520
0.693329
-0.211555
0.594291
-0.540605
0.457221
-0.602566
0.487565
-0.341101
0.223667
-0.454707
0.408054
-0.280635
0.746975
-0.309533
0.754047
-0.170643
0.060688
-0.054580
0.227104
-0.326628
0.566776
-0.665340
0.346023
-0.383122
0.005472
-0.528508
0.329293
-0.131676
0.208035
0.043102
0.269624
-0.291124
0.510253
-0.461505
0.138460
-0.475287
0.564741
-0.065666
0.323014
-0.117580
0.620240
-0.334332
0.167843
0.032194
0.371832
-0.295654
0.459360
-0.579413
0.643978
-0.544718
0.497074
-0.567008
0.452021
-0.654248
0.661556
-0.158013
0.252791
-0.116145
0.371110
-0.560892
0.203990
-0.248994
0.165102
-0.438707
0.389038
-0.271514
0.740494
-0.079967
0.469240
-0.058717
0.263063
-0.274275
0.272353
-0.118070
0.351293
-0.244049
0.474848
-0.607617
0.179639
-0.099836
0.085407
-0.225795
0.478557
-0.566015
0.275395
-0.590739
0.118877
-0.328492
0.247789
-0.236540
0.427773
-0.374414
0.152205
-0.039943
0.623236
-0.512034
0.550684
-0.165230
0.646477
-0.439208
0.357998
-0.088266
0.558171
-0.445950
0.481444
-0.567315
0.474838
-0.597866
0.685510
-0.094745
0.628203
-0.325274
0.103875
-0.032394
0.284513
-0.382008
0.254104
-0.594012
0.524361
-0.525221
0.234352
-0.314080
0.160106
-0.372550
0.644535
-0.002828
0.293402
-0.465419
0.151227
-0.111371
0.477213
-0.051737
0.245918
-0.256406
0.482140
-0.194481
0.144449
-0.626683
0.708607
-0.241792
0.448984
-0.425881
0.757198
-0.219314
0.697956
-0.044146
0.116009
-0.445975
0.336189
0.007501
0.652533
-0.158178
0.418478
0.003233
0.646374
-0.353909
0.239856
-0.255901
0.292453
-0.209383
0.215672
-0.383354
0.563236
-0.273026
0.234931
-0.653654
0.669008
-0.668119
0.677670
-0.092699
0.228755
0.030217
0.726752
-0.626044
0.299514
-0.265394
0.411125
-0.139572
0.476452
0.041711
0.204773
-0.576187
0.499161
-0.409328
0.339173
-0.256702
0.698243
-0.248967
0.094721
-0.236001
0.318527
-0.586485
0.328278
-0.519103
0.357317
-0.507944
0.119145
-0.482414
0.539680
-0.126409
0.494410
-0.554665
0.766291
-0.232540
0.769190
-0.269722
0.492121
-0.226959
0.682101
-0.370019
0.108911
-0.160169
0.579119
-0.572070
0.324144
-0.333988
0.055583
-0.182570
0.621948
-0.494336
0.677940
-0.138220
0.197357
-0.265859
0.517134
-0.348695
0.407802
-0.501086
0.391905
-0.254594
0.181184
-0.322283
0.677326
-0.051957
0.625696
-0.499585
0.113134
-0.125908
0.690949
-0.155274
0.397994
-0.203085
0.305425
0.000650
0.537978
-0.622923
0.058812
-0.056135
0.583445
-0.276276
0.566390
-0.561871
0.433342
-0.052353
0.656230
-0.569018
0.734841
-0.561971
0.152964
0.016452
0.276679
-0.494644
0.374314
-0.333637
0.510376
-0.108090
0.683055
-0.087332
0.447002
-0.543321
0.503128
-0.270578
0.052097
-0.555266
0.132226
-0.514653
0.592750
-0.462296
0.543400
-0.423929
0.353002
-0.274393
0.479779
-0.392663
0.628967
-0.414348
0.605387
-0.151692
0.523792
-0.107718
0.436737
-0.595476
0.271943
0.038736
0.628566
-0.563237
0.189359
-0.625584
0.559866
-0.489142
0.593282
-0.101490
0.453867
-0.261231
0.104364
-0.342307
-0.004268
-0.393751
0.092915
-0.481268
0.712258
-0.131894
0.103303
-0.290141
0.603389
-0.334420
0.641712
-0.413042
0.240643
0.008202
0.160133
-0.392069
0.210366
-0.305752
0.627746
-0.398103
0.360560
-0.650709
0.258221
-0.175774
0.226161
-0.092761
0.115122
-0.355058
0.654538
-0.212084
0.402771
-0.014959
0.543397
-0.287929
0.711653
-0.113149
0.698079
0.052227
0.678353
-0.371846
0.562125
-0.057216
0.660187
-0.069977
0.245626
-0.417183
0.425235
-0.284169
0.278444
-0.134659
0.362214
-0.152255
0.454801
-0.542485
0.051747
-0.609091
0.207557
-0.552728
0.365428
-0.516805
0.062194
-0.619131
0.340584
-0.605389
0.145785
-0.342131
0.223351
-0.308732
0.389804
-0.101980
0.069792
-0.400639
0.033163
-0.415391
0.276782
-0.478202
0.389780
-0.026133
0.630938
-0.540565
0.669890
-0.041718
0.462038
-0.360193
0.688381
-0.062399
0.367490
-0.385702
0.240067
-0.123442
0.028712
-0.046290
0.259572
-0.180453
0.504320
-0.117874
0.199702
0.022923
0.163817
-0.319014
0.027373
-0.292056
0.647149
-0.136852
0.675964
-0.258660
0.393618
-0.428746
0.141268
-0.583247
0.525275
-0.603518
0.328908
-0.533382
0.432605
-0.020628
0.257607
-0.004740
0.432386
-0.059137
0.221104
-0.462671
0.524497
-0.336878
0.014512
-0.479253
0.424894
0.017369
0.437790
-0.475540
0.127824
-0.357665
0.698941
-0.161900
0.163418
-0.458668
0.428009
-0.350479
0.002219
-0.196394
0.390631
-0.250763
0.295552
-0.310495
0.010236
-0.687640
0.687328
-0.590622
0.030596
-0.583865
0.680252
-0.658664
0.166966
-0.662188
0.390013
-0.160909
0.689484
-0.337544
0.649318
-0.440154
0.215777
-0.562396
0.093860
-0.401132
0.122191
-0.561449
0.279091
-0.687083
0.609372
-0.007697
0.344585
-0.472748
0.404882
-0.011676
0.317168
-0.677349
0.564062
-0.680853
0.280101
-0.674978
0.161521
-0.529440
0.162530
-0.660563
0.350885
-0.656497
0.110507
-0.319597
0.589253
-0.683300
0.021287
-0.078193
-0.317523
0.490277
-0.382718
0.047725
-0.619897
0.515658
-0.664181
0.689405
-0.434798
0.350213
-0.436098
0.491869
-0.535647
0.638354
-0.389768
0.442838
-0.374814
0.199265
-0.252194
0.124505
-0.255595
0.593567
-0.379894
0.184777
-0.348082
0.312973
-0.329387
0.413194
-0.554256
0.484469
-0.066773
0.148551
-0.500042
0.011462
-0.132516
0.238454
-0.001290
0.189132
-0.310332
0.647792
-0.413193
0.572866
-0.578854
0.644205
-0.387894
0.417309
0.017578
0.574605
-0.160162
0.330631
-0.385870
0.196262
-0.413179
0.554748
-0.354158
0.234003
-0.280859
0.293499
-0.629377
0.232770
-0.560957
0.612789
-0.505672
0.679535
-0.108680
0.423685
-0.127385
0.292298
-0.313979
0.737293
0.085033
0.455790
-0.264604
0.249264
0.050838
0.451461
-0.413900
0.159538
-0.550375
0.268659
-0.385306
0.591247
-0.084259
0.344329
-0.240510
0.451336
-0.398753
0.021483
-0.463850
0.103036
-0.254956
0.627687
-0.071582
0.553166
0.219755
0.968465
0.064742
0.549509
0.274229
0.905694
0.127308
0.218790
-0.187359
0.501495
0.179842
0.753234
-0.120470
0.668638
0.005586
0.474970
-0.519303
0.387011
-0.283466
0.011152
-0.527224
0.451547
-0.319335
0.595588
-0.703017
0.536354
-0.613306
0.202763
-0.409449
0.517347
-0.229989
0.341924
-0.609222
0.573439
-0.572964
-0.049646
-0.532228
0.251439
-0.184570
0.489635
-0.043108
0.461562
-0.466162
0.121010
-0.155617
0.344192
-0.467176
0.036924
-0.384158
0.425744
-0.479503
0.191878
-0.576870
0.117753
-0.031261
0.444196
-0.175448
0.191963
-0.865080
0.110867
-0.126017
0.298184
-0.092761
1.007278
-0.302367
0.600858
-0.088275
-0.016408
-0.606988
0.319211
-0.866801
0.076110
-0.837849
0.378849
-0.446332
0.508377
-0.091184
0.315461
-0.258773
0.550792
-0.661820
0.459900
-0.244144
-0.143998
-0.672890
-0.129653
-0.436947
-0.054267
-0.319688
0.254764
-0.312631
0.399714
-0.068053
0.616588
-0.043774
0.092661
-0.535776
0.191913
-0.534496
-0.286093
-0.947269
-0.006180
-0.436038
0.664580
-0.063443
0.647177
-0.455359
0.146088
-0.203276
0.067076
-0.619259
-0.367459
-0.659039
0.030512
-0.226766
0.430633
-0.108832
0.750911
0.028122
0.265957
-0.347073
0.206582
-0.414262
0.151284
-0.735510
-0.133314
-0.995352
-0.537924
-0.791665
0.148730
-0.685139
0.515150
-0.499743
0.382190
-0.103370
-0.135212
-0.085104
-0.010693
-0.762664
0.251560
-0.569086
0.136689
-0.378662
0.166926
-0.241746
0.524490
-0.185257
0.444374
-0.357343
0.181422
-0.582854
0.224841
-0.829519
-0.354030
-0.634696
-0.629823
-0.655402
0.432413
-0.114211
0.077788
-0.154720
0.261182
-0.259506
0.361660
-0.395823
-0.190474
-0.490435
0.002056
-0.640554
0.271236
-0.272457
0.379191
-0.243083
0.384680
-0.096218
0.677056
-0.395531
-0.021887
-0.421326
0.303101
-0.856531
0.032268
-1.036488
-0.106906
-0.784787
0.575591
-0.434382
0.677507
-0.668599
0.682230
-0.036376
0.259042
-0.923654
0.258972
-0.532948
-0.140021
-0.601529
-0.038089
-0.498651
-0.014541
-0.604168
-0.315768
-0.899783
0.315905
-0.086622
-0.273903
0.109899
0.174362
-0.362010
0.165101
-0.328741
-0.031909
-0.767556
0.110828
-0.013597
0.431327
-0.121244
0.594900
-0.616848
0.128757
-0.259167
0.015672
-0.270239
-0.120117
-1.017796
-0.586097
-0.483033
-0.447462
-0.958526
-0.191661
-1.077117
-0.302308
-0.589710
0.060700
-0.202914
0.554014
0.239228
0.715296
0.205707
0.100820
-0.817245
0.570328
-0.291568
0.277943
-0.303325
0.691583
-0.163207
0.360271
-0.586950
-0.209300
-0.958908
-0.565239
-0.672700
-0.113974
-0.789691
-0.437879
-0.883100
-0.419760
-1.218330
-0.142893
-0.624561
0.351087
-0.407759
0.299865
-0.356803
0.397533
0.219566
0.325198
-0.618206
0.367314
-0.277471
0.040380
-0.362778
0.080616
-0.691515
0.414899
-0.691902
-0.033037
-0.385022
-0.026607
-0.548072
0.229431
-0.553658
-0.459293
-0.824813
-0.541850
-1.054104
-0.539952
-0.548820
-0.386833
-0.257043
0.475003
0.106009
0.578403
0.331125
0.671607
-0.482013
0.177607
-0.499763
0.425138
-0.393474
0.030801
-0.189264
0.431777
-0.529518
0.107085
-0.249796
0.345336
-0.140477
0.326622
-0.291331
0.055827
-0.565567
0.189499
-1.154457
-0.119714
-0.473653
-0.053957
-0.261762
0.179483
-0.400960
0.434690
-0.108237
0.417686
-0.263444
0.280739
-0.498951
0.197514
-0.226549
0.623816
-0.328485
0.773964
0.115249
0.741737
-0.000969
0.541133
-0.014857
0.768827
-0.288219
0.081350
-0.884115
-0.377418
-0.848587
-0.249606
-0.736416
0.430117
0.011293
0.250863
-0.382998
0.423562
-0.127813
0.702761
-0.069654
0.091268
-0.359902
0.312376
-0.114045
0.137756
-0.174800
0.758733
0.369500
0.687933
0.107720
0.733653
0.538708
0.942856
0.035889
-0.082787
-0.584884
0.087144
-0.896137
-0.270417
-0.474600
0.641989
-0.354562
0.546160
-0.262969
0.593663
-0.049549
0.292059
-0.148556
0.761420
-0.289428
0.524958
-0.176855
0.068876
-0.274758
0.358475
0.028768
0.508010
0.244635
0.563424
0.215594
0.920607
0.443329
0.621176
-0.473226
-0.066403
-0.424949
0.168799
-0.186105
0.717654
0.001602
0.399949
0.109963
0.681219
0.076894
0.530132
-0.116365
0.655556
-0.506727
0.049400
-0.063389
0.554343
-0.535741
0.800903
0.004467
0.502012
0.013052
0.742030
0.379498
1.238211
0.609246
0.973443
0.031211
0.209261
-0.267134
0.472518
0.558541
0.848602
-0.010094
0.732716
0.204270
0.617463
-0.237425
0.978240
0.239230
0.565352
-0.246865
0.002597
-0.253715
0.373896
-0.515373
0.551065
-0.312862
0.505298
0.132277
0.609865
0.249641
1.675025
1.011039
1.371357
0.377842
0.480559
0.163692
1.051038
0.374940
0.595351
0.111655
0.753362
0.173111
0.736252
0.054176
0.827418
-0.397693
0.469801
-0.676504
0.566707
-0.439272
0.578156
-0.140786
0.251088
-0.008574
0.556575
-0.065828
0.405748
0.155641
0.829323
0.341918
1.163275
-0.157422
0.465736
0.313372
0.660464
0.195741
0.597315
0.203753
0.955392
0.062950
0.790189
-0.200706
0.717987
-0.143094
0.435980
-0.065773
0.350116
-0.474563
-0.004317
-0.478519
0.438501
-0.098150
0.061185
-0.424475
0.275146
-0.170243
0.404098
0.155729
0.367724
-0.224386
0.609387
-0.259712
0.479882
0.206918
0.615858
0.370836
0.310366
-0.207116
0.595173
-0.260888
0.219113
-0.411156
0.204505
-0.534148
0.621833
-0.422026
0.324250
-0.536596
0.680219
-0.140710
0.535229
-0.043613
-0.099533
-0.277588
0.318065
-0.157746
-0.131874
-0.430434
0.085529
-0.760118
0.284620
-0.777342
0.032030
-0.052473
0.092488
-0.405358
0.660002
0.199600
0.476602
-0.176915
0.504700
-0.356629
0.469516
-0.059528
0.186108
-0.382893
0.441862
-0.062437
0.451631
-0.195594
0.555249
-0.136464
0.129916
-0.512094
-0.207983
-0.844752
-0.026233
-0.781942
-0.203189
-0.519396
-0.018867
-0.798662
0.100639
-0.703753
0.649946
-0.502788
0.240999
-0.655736
0.287598
-0.033974
0.498257
-0.113099
0.359892
-0.569264
0.152718
-0.660653
0.554281
-0.639095
0.169880
-0.426669
0.300381
-0.601822
0.246462
-0.649500
0.275879
-0.528818
-0.252226
-0.761551
0.272956
-0.407583
0.573639
-0.389249
0.110981
-0.325014
0.611261
-0.316569
0.107355
-0.512397
0.464169
-0.485115
0.430752
-0.447307
0.658569
-0.242863
-0.045616
-0.177611
0.239888
-0.647492
0.269953
-0.931359
0.333559
-0.854751
0.004035
-0.488432
0.320101
-0.642770
0.140531
-0.576954
0.073067
-0.351727
0.546049
-0.445849
0.262251
-0.423364
0.583624
-0.670311
0.118819
-0.582726
0.173449
-0.356544
0.334805
-0.076618
-0.004531
-0.148566
0.420737
-0.747115
0.605232
-0.119334
0.245960
-0.181986
-0.003599
-0.597146
-0.021619
-0.579186
0.488993
-0.125557
0.618211
-0.249242
0.106117
-0.341038
0.696512
-0.554282
0.222740
-0.690832
0.617670
-0.186375
0.603820
-0.495871
0.596315
-0.360269
0.201402
-0.686473
0.471118
-0.325689
0.091203
-0.432181
0.534099
-0.068148
0.562184
-0.607033
0.460782
-0.395973
0.619134
-0.498652
0.553559
-0.435349
0.200067
-0.202215
0.303510
-0.185004
0.666283
-0.311832
-1.701180
0.617695
-0.596662
0.601364
-0.522600
0.433236
-0.690061
0.252570
-0.138839
0.371914
-0.456527
0.152956
-0.323839
0.260258
-0.633698
0.680176
-0.451607
0.319434
-0.419343
0.294298
-0.067208
0.465246
-0.392270
0.274941
-0.231685
0.527178
-0.384222
0.122440
-0.551676
0.513556
-0.343179
0.502028
-0.487485
0.363934
-0.690180
0.450275
-0.193560
0.684286
-0.338507
0.670032
-0.737785
-0.013930
-0.293996
0.036534
-0.520755
0.144238
-0.244614
0.071937
-0.133673
0.479551
-0.133329
0.590962
-0.668365
0.098414
-0.642757
0.417946
-0.621936
0.475198
-0.354888
0.607075
-0.154853
0.293060
-0.629489
0.137374
-0.214970
0.640067
-0.487883
0.510204
-0.712305
-0.086236
-0.201073
0.210043
-0.466944
0.322318
-0.130669
-0.045421
-0.398448
0.607735
-0.503260
-0.010215
-0.295958
0.238112
-0.144600
0.459598
-0.661557
0.696109
-0.402359
0.450219
-0.319053
0.036853
-0.566428
0.677409
-0.285453
0.058669
-0.573547
0.190860
-0.713771
0.059995
-0.287355
0.321018
-0.732566
0.507423
-0.604730
0.514538
-0.670393
0.236218
-0.250363
0.219814
-0.763322
0.562644
-0.583710
0.616414
-0.405470
0.231001
-0.233394
0.556897
-0.158402
0.493570
-0.065916
0.812867
-0.022207
0.585476
0.085325
0.355411
-0.235017
0.832001
0.238211
0.355153
-0.315751
0.130069
-0.344118
0.323069
-0.437462
0.622203
-0.270576
0.527758
-0.498062
0.107622
-0.691282
0.506888
-0.611553
0.410169
-0.107741
0.600590
-0.059370
0.456633
0.004498
0.544271
0.487519
0.677925
0.264698
0.830506
-0.260475
0.363166
-0.229839
0.096500
-0.014013
0.151419
-0.565505
0.100226
-0.346561
0.252595
-0.151446
0.457349
-0.124687
0.070556
-0.171134
0.116723
-0.374331
0.679793
-0.572882
0.634843
-0.402396
0.447099
0.207979
1.075827
0.507193
1.053529
-0.285831
0.617949
-0.490426
0.368980
-0.097508
0.699849
-0.140445
0.345272
-0.483553
0.508456
-0.559471
0.262689
-0.523236
0.222511
-0.209779
0.302425
-0.265688
0.073418
-0.057808
0.367953
-0.580656
0.186296
-0.417148
0.419671
0.110540
0.887508
-0.066848
0.506187
0.051735
-0.092521
-0.182506
0.284776
-0.128169
0.542584
-0.086888
0.500919
-0.066010
-0.061565
-0.943549
0.312620
-0.429744
0.169993
-0.768698
0.264251
-0.521933
-0.032759
-0.628915
0.341392
-0.306787
0.203565
-0.098296
0.453598
-0.133933
0.667238
0.174553
0.516459
-0.219953
0.295452
-0.725085
0.036280
-0.485286
0.737259
-0.403134
0.689943
-0.194057
0.240996
-0.336184
0.439004
-0.893706
-0.343378
-1.066907
-0.578789
-1.027803
0.308919
-0.409564
0.493662
-0.418449
0.196617
-0.420271
0.472341
-0.110392
0.916240
-0.252989
0.434077
-0.341927
0.328248
-0.671866
-0.012297
-0.490542
0.383548
0.383963
1.033744
0.204355
0.902191
-0.121559
0.582705
-0.119974
0.104274
-0.791954
-0.465913
-0.723334
0.144312
-0.639237
0.360821
-0.081298
0.063125
0.005939
0.400999
-0.280618
0.585791
-0.284609
0.407433
-0.870097
0.095389
-0.446286
-0.667257
-1.009505
0.420195
0.140304
1.180649
0.356489
0.839046
0.349304
1.061140
0.123969
0.581258
-0.710565
-0.017452
-0.415806
0.319742
-0.063709
0.337693
-0.564870
0.067890
-0.478987
0.139907
-0.322340
0.153445
-0.830733
0.212862
-0.645357
-0.139860
-0.813459
-0.700617
-0.554280
0.715181
0.250137
0.844947
0.385015
0.688194
0.122389
0.815255
0.069192
0.869952
-0.413761
0.256132
-0.773372
0.318180
-0.575627
0.120408
-0.011359
0.024868
-0.277170
0.257161
-0.653821
0.045785
-0.671680
-0.085564
-0.704339
-0.417963
-0.982349
-0.354782
-0.489736
0.398011
-0.054415
1.041344
0.538659
0.810223
0.502380
1.121548
0.385749
0.856187
-0.471123
0.276043
-0.559852
0.476576
-0.210043
0.119279
-0.619046
0.399415
-0.649806
0.192928
-0.540627
0.237939
-0.561496
0.088611
-0.885269
-0.223792
-1.007531
0.407899
-0.605943
0.938176
-0.036908
1.078372
0.580972
1.111804
-0.061729
0.808501
-0.087160
0.162731
-0.436794
0.500921
-0.395500
0.005269
-0.493311
0.594024
-0.367949
0.580960
-0.582161
0.238466
-0.641676
0.147610
-0.649967
0.194329
-0.526025
0.086149
-0.721104
0.393911
-0.324646
1.493460
0.435847
0.775743
0.364368
0.869264
0.125339
0.337881
-0.528167
-0.163576
-0.523782
-0.070167
-0.610797
0.477044
-0.291888
0.692692
-0.368867
0.543522
-0.043161
0.275233
-0.385105
0.070778
-0.551803
-0.205419
-0.991353
-0.202331
-0.291047
0.693992
-0.347213
0.999467
0.239631
0.772322
0.238163
0.372079
-0.186383
0.456542
-0.756206
-0.245152
-0.979167
0.474343
-0.339967
0.417476
-0.171204
0.406731
-0.420804
0.029266
-0.173198
0.406508
-0.529120
0.199694
-0.084888
0.261041
-0.460765
0.328220
-0.081430
0.405144
0.046095
1.048672
-0.030743
0.859439
0.076331
-0.105581
-0.811898
0.163510
-0.586727
0.185072
-0.704746
0.188722
-0.118664
0.321770
-0.114928
0.208521
-0.404420
0.563252
-0.155484
0.582379
-0.753180
0.171754
-0.531032
0.646282
0.092516
0.553941
0.367925
0.801167
0.407502
0.573851
-0.114197
0.150818
-0.349673
-0.135652
-0.533302
-0.167334
-0.853242
0.247361
-0.776240
-0.019309
0.134915
0.548517
-0.677921
0.399148
-0.692729
0.071366
-0.213790
0.477074
-0.567664
-0.345323
-0.601751
0.455801
-0.166793
0.786653
0.063235
0.362344
0.066649
0.511865
0.081256
-0.066116
-0.455410
0.084679
-0.568612
-0.389038
-0.541045
0.259925
-0.583126
0.043581
-0.063194
0.410451
-0.656900
0.528986
-0.663381
0.701861
-0.342934
0.243733
-0.514401
-0.138731
-0.069825
0.423333
-0.617435
0.608882
-0.169986
0.075713
-0.595955
0.149092
-0.196726
0.213759
-0.526708
-0.164777
-0.421718
0.106290
-0.281266
0.249910
-0.765371
0.272944
-0.088146
0.078887
-0.477290
0.534408
-0.089349
0.295138
-0.537191
0.324402
-0.825776
0.009250
-0.690572
0.031772
-0.589453
0.279228
-1.054297
0.041093
-0.779404
-0.180497
-0.334924
0.097162
-0.198547
-0.218816
-0.312083
-0.024576
-0.523210
0.061428
-0.621575
0.314541
-0.014152
0.327165
-0.369264
0.630852
-0.524864
0.141574
-0.407113
0.755554
-0.730436
0.025147
-0.570819
-0.281152
-0.551354
0.262171
-0.739073
-0.051522
-0.505354
0.003004
-0.426099
0.260211
-0.063816
-0.207653
-0.029922
0.588228
-0.222218
0.045483
-0.718131
0.294588
-0.548173
0.620039
-0.521745
0.524630
-0.259474
0.690783
-0.554669
0.632840
-0.032933
0.139119
-0.212931
0.377514
-0.651504
0.446549
-0.747567
0.197021
-0.198869
0.196040
-0.487798
0.369458
-0.453229
0.503962
-0.571451
0.301983
-0.173750
-0.097687
-0.485175
0.084959
-0.289379
0.258473
-0.330284
0.539667
-0.281174
0.704054
-0.018260
0.602209
-0.532034
0.797139
-0.368262
0.106947
-0.597662
0.398090
-0.159062
0.505551
-0.510487
0.329994
0.132299
0.200166
-0.499002
0.131795
-0.547854
0.090647
-0.353928
0.580354
-0.253403
0.280837
-0.385305
0.280128
-0.545879
0.382005
-0.653216
0.496685
-0.164030
0.448468
-0.090434
0.438775
-0.098635
0.348589
-0.212249
0.419834
-0.432390
0.339870
-0.396065
0.032128
-0.743440
-0.032570
-0.440307
0.469630
-0.380025
0.288827
-0.353164
0.517975
-0.601775
0.339905
-0.014984
0.392551
-0.154069
0.132249
-0.210226
0.372977
-0.099628
0.425079
-0.050685
0.292712
-0.160588
0.117669
-0.079349
0.257898
-0.290376
0.078829
-0.141840
0.583075
-0.247882
0.463463
0.059275
0.270410
-0.202543
0.273701
-0.248521
0.468118
-0.680462
0.674973
-0.124649
0.517718
-0.328941
0.606939
-0.424724
0.431162
-0.142382
0.359230
-0.669293
0.253083
-0.262992
0.216290
-0.520781
0.587063
-0.210030
0.040684
0.009931
0.698881
-0.127689
0.340241
-0.490501
0.462089
-0.459403
0.434446
-0.307390
0.685211
-0.232106
0.095805
-0.303666
0.011952
-0.685255
0.682845
-0.084108
0.305618
-0.613910
0.691457
-0.540626
0.452248
-0.628889
0.370500
-0.660793
0.395450
-0.112327
0.235595
-0.234982
0.647397
-0.120221
0.492433
-0.574147
0.062515
-0.373873
0.463053
-0.020742
0.653900
-0.373743
0.012401
-0.520097
0.367303
-0.661415
1.264166
0.391389
-0.179465
0.673330
-0.462876
0.454306
-0.613519
0.417286
-0.022573
0.691977
-0.258028
0.168899
-0.185751
0.622301
-0.318643
0.430449
-0.052238
0.156352
-0.006780
0.549488
-0.137191
0.662254
-0.509179
0.273853
-0.140608
0.691823
-0.460833
0.417136
-0.299491
0.550452
-0.251927
0.530339
-0.311666
0.078103
-0.171769
0.129523
-0.582685
0.104016
-0.463410
0.454770
-0.300875
0.629179
-0.127671
0.057595
-0.031541
0.428931
-0.082137
0.469564
-0.652959
0.251846
-0.366749
0.665933
-0.467937
0.119541
-0.127964
0.295835
-0.694612
0.437778
-0.031295
0.275875
-0.527244
0.214913
-0.433061
0.082361
-0.628765
0.527966
-0.601173
0.236721
-0.171645
0.433110
-0.226477
0.537102
-0.394463
0.578710
-0.300511
0.013200
-0.389560
0.047170
-0.686978
0.633077
-0.489316
0.038321
-0.397914
0.630664
-0.168046
0.548549
-0.459132
0.523982
-0.564257
0.522109
-0.688922
0.393126
-0.277324
0.614091
-0.469015
0.227577
-0.449924
0.026761
-0.279507
0.517961
-0.503818
0.084527
-0.301986
0.187311
-0.457186
0.563091
-0.235865
0.063541
-0.609849
0.145463
-0.116027
0.183636
-0.401303
0.202178
-0.207573
0.578622
-0.111562
0.638005
-0.200023
0.414074
-0.059318
0.600317
-0.428280
0.613942
-0.420728
0.194897
-0.368092
0.319946
-0.479673
0.513932
-0.375456
0.025888
-0.316061
0.409902
-0.459120
0.035308
-0.232679
0.587390
-0.494238
0.246627
-0.510192
0.251341
-0.481293
0.584151
-0.161871
0.465985
-0.302449
-0.007499
-0.400055
0.017848
-0.207107
-0.101392
-0.639083
-0.051720
-0.554017
-0.312769
-0.582363
0.020787
-0.602703
-0.078258
-0.450164
-0.137598
-0.134893
0.381346
-0.229596
0.675352
0.089677
0.445029
-0.178542
0.402096
-0.220549
0.303344
-0.295913
0.475991
-0.085745
0.275121
-0.264039
0.800408
0.066677
0.738458
-0.025042
0.293734
-0.257663
-0.149356
-0.506427
0.182164
-0.377545
0.162009
-0.461626
0.453191
-0.178236
0.195640
-0.142804
0.483571
-0.191605
0.133342
-0.300806
0.588503
-0.683315
0.698829
-0.167265
0.765144
0.164350
0.727965
0.292757
0.858105
-0.031137
0.704701
-0.307228
0.418145
-0.326308
0.102317
-0.314535
0.390588
-0.247719
0.615475
0.046909
0.611793
0.162680
0.313170
-0.003279
0.500401
0.019292
0.524716
-0.460409
0.141877
-0.029692
0.391071
-0.081686
0.491444
0.270857
0.794202
0.269484
0.691051
0.189573
0.642290
0.247459
0.230876
0.060067
0.499366
0.017386
0.793130
-0.119021
0.220404
-0.016896
0.325845
-0.273044
0.653694
0.117377
0.887266
-0.120974
0.563730
-0.522192
0.259366
-0.472685
0.730568
-0.342841
0.417756
-0.181433
0.847839
0.316870
0.315290
-0.263722
0.468229
-0.108557
0.594168
0.054141
0.906748
0.908281
1.186679
0.165773
0.644584
-0.022403
0.373166
-0.159244
0.741217
0.126464
0.758939
0.110516
0.711464
-0.664449
0.592412
-0.472886
0.446056
-0.272757
0.891194
-0.304724
0.543143
-0.181576
0.142654
-0.506299
-0.106059
-0.262505
0.650006
0.218441
1.318029
0.511208
0.674367
0.322853
0.528290
-0.277294
-0.059228
-0.073781
0.033366
-0.186946
0.803033
-0.122745
0.463651
-0.407733
0.589821
0.022106
0.168145
0.207862
0.854413
0.173011
0.374098
-0.031733
0.041381
-0.785991
0.106696
0.361952
0.571168
0.249598
0.608773
0.202476
0.434454
0.073140
0.062912
-0.651843
-0.196204
-0.970637
-0.288516
-0.685693
0.297106
-0.225993
0.357171
-0.050938
0.498021
-0.602431
0.325800
-0.079834
0.213135
-0.158389
0.229686
-0.586051
0.136511
-0.585302
0.351135
0.107500
0.384539
-0.313179
-0.201720
-0.365414
0.223341
-0.538439
-0.116652
