0.000000
0.000000
0.000000
0.000000
0.000000
0.000000
0.000000
0.000000
0.000000
0.000000
0.000000
0.000000
0.000000
0.000000
0.000000
0.000000
0.000000
0.000000
0.000000
0.000000
0.000000
0.000000
0.000000
0.000000
0.000000
0.000000
0.000000
0.000000
0.000000
0.000000
0.000000
0.000000
0.000000
0.000000
0.000000
0.000000
0.000000
0.000000
0.000000
0.000000
0.000000
0.000000
0.000000
0.000000
0.000000
0.000000
0.000000
0.000000
0.000000
0.000000
0.000000
0.000000
0.000000
0.000000
0.000000
0.000000
0.000000
0.000000
0.000000
0.000000
0.000000
0.000000
0.000000
0.000000
0.000000
0.000000
0.000000
0.000000
0.000000
0.000000
0.000000
0.000000
0.000000
0.000000
0.000000
0.000000
0.000000
0.000000
0.000000
0.000000
0.000000
0.000000
0.000000
0.000000
0.000000
0.000000
0.000000
0.000000
0.000000
0.000000
0.000000
0.000000
0.000000
0.000000
0.000000
0.000000
0.000000
0.000000
0.000000
0.000000
0.000000
0.000000
0.000000
0.000000
0.000000
0.000000
0.000000
0.000000
0.000000
0.000000
0.000000
0.000000
0.000000
0.000000
0.000000
0.000000
0.000000
0.000000
0.000000
0.000000
0.000000
0.000000
0.000000
0.000000
0.000000
0.000000
0.000000
0.000000
0.000000
0.000000
0.000000
0.000000
0.000000
0.000000
0.000000
0.000000
0.000000
0.000000
0.000000
0.000000
0.000000
0.000000
0.000000
0.000000
0.000000
0.000000
0.000000
0.000000
0.000000
0.000000
0.000000
0.000000
0.000000
0.000000
0.000000
0.000000
0.000000
0.000000
0.000000
0.000000
0.000000
0.000000
0.000000
0.000000
0.000000
0.000000
0.000000
0.000000
0.000000
0.000000
0.000000
0.000000
0.000000
0.000000
0.000000
0.000000
0.000000
0.000000
0.000000
0.000000
0.000000
0.000000
0.000000
0.000000
0.000000
0.000000
0.000000
0.000000
0.000000
0.000000
0.000000
0.000000
0.000000
0.000000
0.000000
0.000000
0.000000
0.000000
0.000000
0.000000
0.000000
0.000000
0.000000
0.000000
0.000000
0.000000
0.000000
0.000000
0.000000
0.000000
0.000000
0.000000
0.000000
0.000000
0.000000
0.000000
0.000000
0.000000
0.000000
0.000000
0.000000
0.000000
0.000000
0.000000
0.000000
0.000000
0.000000
0.000000
0.000000
0.000000
0.000000
0.000000
0.000000
0.000000
0.000000
0.000000
0.000000
0.000000
0.000000
0.000000
0.000000
0.000000
0.000000
0.000000
0.000000
0.000000
0.000000
0.000000
0.000000
0.000000
0.000000
0.000000
0.000000
0.000000
0.000000
0.000000
0.000000
0.000000
0.000000
0.000000
0.000000
0.000000
0.000000
0.000000
0.000000
0.000000
0.000000
0.000000
0.000000
0.000000
0.000000
0.000000
0.000000
0.000000
0.000000
0.000000
0.000000
0.000000
0.000000
0.000000
0.000000
0.000000
0.000000
0.000000
0.000000
0.000000
0.000000
0.000000
0.000000
0.000000
0.000000
0.000000
0.000000
0.000000
0.000000
0.000000
0.000000
0.000000
0.000000
0.000000
0.000000
0.000000
0.000000
0.000000
0.000000
0.000000
0.000000
0.000000
0.000000
0.000000
0.000000
0.000000
0.000000
0.000000
0.000000
0.000000
0.000000
0.000000
0.000000
0.000000
0.000000
0.000000
0.000000
0.000000
0.000000
0.000000
0.000000
0.000000
0.000000
0.000000
0.000000
0.000000
0.000000
0.000000
0.000000
0.000000
0.000000
0.000000
0.000000
0.000000
0.000000
0.000000
0.000000
0.000000
0.000000
0.000000
0.000000
0.000000
0.000000
0.000000
0.000000
0.000000
0.000000
0.000000
0.000000
0.000000
0.000000
0.000000
0.000000
0.000000
0.000000
0.000000
0.000000
0.000000
0.000000
0.000000
0.000000
0.000000
0.000000
0.000000
0.000000
0.000000
0.000000
0.000000
0.000000
0.000000
0.000000
0.000000
0.000000
0.000000
0.000000
0.000000
0.000000
0.000000
0.000000
0.000000
0.000000
0.000000
0.000000
0.000000
0.000000
0.000000
0.000000
0.000000
0.000000
0.000000
0.000000
0.000000
0.000000
0.000000
0.000000
0.000000
0.000000
0.000000
0.000000
0.000000
0.000000
0.000000
0.000000
0.000000
0.000000
0.000000
0.000000
0.000000
0.000000
0.000000
0.000000
0.000000
0.000000
0.000000
0.000000
0.000000
0.000000
0.000000
0.000000
0.000000
0.000000
0.000000
0.000000
0.000000
0.000000
0.000000
0.000000
0.000000
0.000000
0.000000
0.000000
0.000000
0.000000
0.000000
0.000000
0.000000
0.000000
0.000000
0.000000
0.000000
0.000000
0.000000
0.000000
0.000000
0.000000
0.000000
0.000000
0.000000
0.000000
0.000000
0.000000
0.000000
0.000000
0.000000
0.000000
0.000000
0.000000
0.000000
0.000000
0.000000
0.000000
0.000000
0.000000
0.000000
0.000000
0.000000
0.000000
0.000000
0.000000
0.000000
0.000000
0.000000
0.000000
0.000000
0.000000
0.000000
0.000000
0.000000
0.000000
0.000000
0.000000
0.000000
0.000000
0.000000
0.000000
0.000000
0.000000
0.000000
0.000000
0.000000
0.000000
0.000000
0.000000
0.000000
0.000000
0.000000
0.000000
0.000000
0.000000
0.000000
0.000000
0.000000
0.000000
0.000000
0.000000
0.000000
0.000000
0.000000
0.000000
0.000000
0.000000
0.000000
0.000000
0.000000
0.000000
0.000000
0.000000
0.000000
0.000000
0.000000
0.000000
0.000000
0.000000
0.000000
0.000000
0.000000
0.000000
0.000000
0.000000
0.000000
0.000000
0.000000
0.000000
0.000000
0.000000
0.000000
0.000000
0.000000
0.000000
0.000000
0.000000
0.000000
0.000000
0.000000
0.000000
0.000000
0.000000
0.000000
0.000000
0.000000
0.000000
0.000000
0.000000
0.000000
0.000000
0.000000
0.000000
0.000000
0.000000
0.000000
0.000000
0.000000
0.000000
0.000000
0.000000
0.000000
0.000000
0.000000
0.000000
0.000000
0.000000
0.000000
0.000000
0.000000
0.000000
0.000000
0.000000
0.000000
0.000000
0.000000
0.000000
0.000000
0.000000
0.000000
0.000000
0.000000
0.000000
0.000000
0.000000
0.000000
0.000000
0.000000
0.000000
0.000000
0.000000
0.000000
0.000000
0.000000
0.000000
0.000000
0.000000
0.000000
0.000000
0.000000
0.000000
0.000000
0.000000
0.000000
0.000000
0.000000
0.000000
0.000000
0.000000
0.000000
0.000000
0.000000
0.000000
0.000000
0.000000
0.000000
0.000000
0.000000
0.000000
0.000000
0.000000
0.000000
0.000000
0.000000
0.000000
0.000000
0.000000
0.000000
0.000000
0.000000
0.000000
0.000000
0.000000
0.000000
0.000000
0.000000
0.000000
0.000000
0.000000
0.000000
0.000000
0.000000
0.000000
0.000000
0.000000
0.000000
0.000000
0.000000
0.000000
0.000000
0.000000
0.000000
0.000000
0.000000
0.000000
0.000000
0.000000
0.000000
0.000000
0.000000
0.000000
0.000000
0.000000
0.000000
0.000000
0.000000
0.000000
0.000000
0.000000
0.000000
0.000000
0.000000
0.000000
0.000000
0.000000
0.000000
0.000000
0.000000
0.000000
0.000000
0.000000
0.000000
0.000000
0.000000
0.000000
0.000000
0.000000
0.000000
0.000000
0.000000
0.000000
0.000000
0.000000
0.000000
0.000000
0.000000
0.000000
0.000000
0.000000
0.000000
0.000000
0.000000
0.000000
0.000000
0.000000
0.000000
0.000000
0.000000
0.000000
0.000000
0.000000
0.000000
0.000000
0.000000
0.000000
0.000000
0.000000
0.000000
0.000000
0.000000
0.000000
0.000000
0.000000
0.000000
0.000000
0.000000
0.000000
0.000000
0.000000
0.000000
0.000000
0.000000
0.000000
0.000000
0.000000
0.000000
0.000000
0.000000
0.000000
0.000000
0.000000
0.000000
0.000000
0.000000
0.000000
0.000000
0.000000
0.000000
0.000000
0.000000
0.000000
0.000000
0.000000
0.000000
0.000000
0.000000
0.000000
0.000000
0.000000
0.000000
0.000000
0.000000
0.000000
0.000000
0.000000
0.000000
0.000000
0.000000
0.000000
0.000000
0.000000
0.000000
0.000000
0.000000
*
-0.218410
0.588131
-0.276068
0.548169
-0.558908
0.638153
-0.138286
0.234656
-0.537761
0.194442
-0.387779
0.334178
-0.495853
0.258419
-0.356311
0.666729
-0.641168
0.444998
-0.502108
0.099122
-0.424878
0.011410
-0.170021
0.096062
-0.562924
0.109675
-0.280661
0.090853
-0.076166
0.699247
-0.152780
0.359053
-0.587379
0.428849
-0.207193
0.446435
-0.367122
0.344643
-0.680894
0.199681
-0.545051
0.369511
-0.545204
0.266153
-0.618303
0.210050
-0.237204
0.552654
-0.647736
0.043536
-0.669572
0.367261
-0.058265
0.134550
-0.464259
0.623163
-0.244225
0.044920
-0.014016
0.320379
-0.044569
0.166747
-0.679441
0.631457
-0.593365
0.189475
-0.375310
0.267370
-0.499524
0.381340
-0.485834
0.340991
-0.046307
0.324841
-0.607212
0.653683
-0.538683
0.155666
-0.563439
0.405475
-0.260916
0.478231
-0.116083
0.308073
-0.616053
0.580441
-0.231236
0.160262
-0.625752
0.247281
-0.480968
0.671070
-0.372379
0.491178
-0.537055
0.394394
-0.560150
0.329394
-0.602142
0.383704
-0.745660
0.280212
-0.187894
0.499941
-0.822034
-0.033983
-0.746771
0.309506
-0.341514
0.400844
-0.207648
0.550195
-0.215221
0.312924
-0.157925
0.131445
-0.191442
0.346965
-0.317718
0.114532
-0.636527
0.018088
-0.147690
0.214810
-0.608575
0.650785
-0.747238
0.240264
-0.521616
0.291327
-0.417173
-0.005343
-0.522027
0.092208
-0.344772
-0.031632
-0.577104
0.029036
-0.580436
0.118846
-0.521507
0.052171
-0.665073
0.035720
-0.359756
0.053652
-0.258233
0.520736
-0.509888
0.355018
-0.757863
0.278225
-0.670871
-0.143866
-0.388519
0.039072
-0.332492
-0.270931
-0.358457
0.274088
-0.570224
0.356955
-0.512272
0.133017
-0.055380
0.692791
-0.138565
0.627053
-0.088831
0.698459
-0.037843
0.594877
-0.078959
-0.082916
-0.804465
0.124513
-0.415239
-0.141716
-0.637448
0.517711
-0.519257
0.569917
0.185863
1.044100
0.411066
0.728673
-0.234317
0.362335
-0.457681
0.244408
-0.703544
0.738820
-0.401402
0.600373
-0.385881
0.025253
-0.524234
0.582394
-0.649462
0.584974
-0.697814
0.466270
-0.795966
0.269477
-0.966269
0.211018
-0.210103
0.369634
-0.199236
1.075862
0.823142
1.731108
0.846206
0.888035
-0.039278
0.473520
-0.262319
0.387570
-0.115045
0.405326
-0.085691
0.358360
-0.385732
0.358335
-0.681136
0.180133
-0.384684
0.472382
-0.218742
0.043411
-0.819395
0.146130
-0.517797
-0.018522
-0.396108
0.822044
0.201864
0.920256
0.337609
1.390975
0.495864
1.217142
-0.200046
0.542442
0.059889
0.690917
0.099249
0.847898
0.216979
0.509983
-0.422793
0.490332
-0.446077
0.242130
-0.132696
0.406203
-0.538672
0.308661
-0.646680
0.267015
-0.277681
0.638944
-0.344435
0.626556
-0.173958
0.784563
0.301357
0.658558
-0.274555
0.784879
0.159224
0.114110
0.146118
0.626993
-0.315625
0.774631
0.141601
0.744773
-0.143723
0.252894
-0.129163
0.689077
-0.005323
0.562537
-0.291445
0.003059
-0.459906
0.620780
-0.454553
0.724240
-0.033974
0.213992
-0.651368
-0.221319
-0.889564
0.222333
-0.678323
0.238469
-0.369265
0.761601
0.035856
0.671973
-0.286080
1.030654
-0.282681
0.480870
-0.398813
0.128614
-0.188262
0.605227
-0.346516
0.308034
-0.656863
0.315520
-0.160742
0.211773
-0.435853
0.645500
0.016597
-0.139065
-0.630211
-0.113034
-0.830579
0.058837
-0.319014
0.010897
-0.034527
0.063868
0.169641
0.697842
-0.096678
1.019247
-0.170839
0.709725
-0.563684
0.343779
-0.236734
0.275980
-0.467252
0.403250
-0.180669
0.159574
0.008683
0.166846
-0.405118
0.164068
-0.404468
-0.293825
-0.722607
-0.344035
-0.505411
0.371885
-0.408235
-0.073560
-0.621675
0.218193
0.238599
0.778091
-0.182513
0.446128
-0.028385
0.436244
-0.299338
0.591028
-0.272018
0.171027
-0.240623
0.494563
-0.457771
0.742405
-0.178447
0.427349
-0.200975
-0.000767
-0.552951
0.155082
-0.776596
0.420771
0.481868
1.101776
-0.265890
-0.425826
-0.454742
0.453105
-0.415908
0.045405
-0.464035
0.378212
-0.166652
-0.005505
-0.273243
0.241403
-0.453715
0.566316
-0.100612
0.016847
-0.072722
0.464208
-0.548215
0.119560
-0.525388
-0.340580
-0.757832
0.326419
-0.060404
0.514366
0.483969
0.823907
-0.822758
-0.317724
-0.402327
0.149577
-0.468445
-0.322681
-0.862839
-0.345172
-0.850953
-0.037955
-0.062157
0.680566
-0.112372
0.337162
-0.158594
0.545896
-0.256041
0.349792
-0.577908
-0.038398
-0.537337
0.288677
-0.244461
0.165470
-0.073325
1.010609
-0.107360
0.340057
-0.127629
-0.361914
-0.730654
-0.269254
-0.894654
-0.153884
-1.105449
-0.499501
-0.681087
0.138019
-0.270640
0.205231
-0.251651
0.372992
-0.114011
0.352829
-0.048391
0.423885
-0.133295
0.140581
-0.485556
0.261582
-0.242817
0.746587
-0.251991
0.887164
-0.398010
0.149229
-0.434658
0.318433
-0.114470
0.350419
-0.950396
-0.206493
-0.932448
-0.131982
-0.664728
0.209958
-0.433051
0.601179
-0.453016
0.107013
-0.028735
-0.003693
-0.510814
0.359040
-0.215423
0.525778
-0.277554
0.135511
0.000487
0.638627
-0.051080
0.803682
-0.675913
-0.598822
-0.293182
0.474782
-0.544813
0.099074
-0.499442
0.283478
-0.448888
-0.298877
-0.503645
0.622054
-0.356686
0.694639
-0.121315
0.276218
-0.494269
0.544651
-0.489916
0.713605
-0.436226
0.356423
-0.535159
0.402037
-0.741888
0.505173
-0.179902
1.025578
-0.606850
0.127718
-0.711546
0.442846
-0.432116
0.548500
-0.411428
0.385194
-0.599060
0.258013
-0.521974
0.665554
-0.414170
0.220773
-0.419650
0.329395
-0.140120
0.508886
-0.710069
0.785918
-0.268220
0.801089
-0.116375
0.653835
-0.281359
0.457403
0.394909
0.640386
0.249724
0.041806
-0.279240
0.219225
0.269599
0.182916
-0.526581
0.194390
-0.048286
0.442154
-0.112205
0.670354
-0.193830
0.113893
-0.288375
0.172923
-0.285247
-0.094814
-0.622328
0.550291
-0.328621
0.800575
-0.025726
0.635214
-0.147978
0.265159
0.256682
0.535809
-0.430770
-0.258778
-0.378599
0.083641
-0.503869
0.310774
-0.522180
0.137956
-0.620525
0.746533
-0.406382
0.809882
-0.399900
0.253336
-0.375775
0.153394
-0.335034
0.579541
-0.421931
0.701744
-0.332362
0.593046
0.083162
0.899709
-0.033912
0.890878
0.097899
0.669362
-0.740273
-0.340377
-0.827621
-0.441099
-0.562150
0.070299
-0.181381
0.030171
-0.169771
0.693781
-0.453720
0.300521
-0.322788
0.620837
-0.076849
0.261488
-0.139057
0.388169
-0.468404
0.470211
-0.205754
0.479544
-0.022685
0.784006
0.286353
0.397471
0.104055
0.284031
-0.467744
0.066705
-0.748142
0.396668
-0.854452
-0.235018
-0.529787
0.191075
-0.366366
0.728882
-0.500271
0.201403
-0.170553
0.616188
-0.256224
0.629602
-0.523346
0.328315
-0.206266
0.632735
0.012863
0.801095
-0.193191
0.765146
-0.361450
0.291451
0.180189
0.477289
-0.154169
0.198798
-0.341973
0.006729
-0.433948
0.346009
-0.193036
0.086308
0.094285
0.488363
-0.275954
0.684748
-0.051443
0.427339
-0.049390
0.275622
-0.347502
0.302628
-0.209402
0.165909
-0.642066
0.424432
-0.050743
0.101996
-0.156150
0.660253
-0.302430
0.386478
-0.739367
-0.001224
-0.456773
0.228628
-0.238875
0.327704
-0.066853
0.779675
-0.296204
0.465799
0.094878
0.550847
-0.552449
0.488505
-0.477345
0.632931
-0.219058
0.526755
-0.207154
0.559642
-0.131971
0.377085
-0.123295
-0.072800
-0.189359
0.022868
-0.273778
0.389767
0.112485
0.816101
-0.201755
0.387931
-0.077991
0.774631
0.062793
0.569008
0.056027
0.523684
-0.297341
0.568056
-0.645122
0.368565
-0.407575
0.510578
-0.157665
0.184920
-0.443506
0.376644
-0.012136
0.647057
-0.272828
0.090555
-0.383048
0.235324
-0.180757
0.569284
-0.181212
0.630585
-0.032037
0.596444
-0.054093
0.382937
-0.375391
0.319910
-0.370236
0.024115
-0.585184
0.604664
-0.420534
0.225034
-0.467572
0.368781
-0.593600
0.175147
-0.179360
0.051193
-0.360164
0.622395
-0.434440
0.347236
-0.618261
0.646235
-0.521982
0.235712
-0.243598
0.073487
-0.023935
-0.013133
-0.385051
0.199696
-0.477952
0.608076
-0.327925
0.318927
-0.058980
0.133688
-0.338554
0.646367
-0.030376
0.127305
0.171401
-0.497948
0.427869
-0.065001
0.673096
-0.607228
0.116266
-0.333163
0.530097
-0.544253
0.004886
-0.425861
0.515519
-0.520613
0.645800
-0.067483
0.551350
-0.662505
0.071036
-0.192428
0.167525
-0.566820
0.066530
-0.522711
0.194050
-0.121310
0.656400
-0.532603
0.067677
-0.686776
0.591691
-0.239078
0.484724
-0.319560
0.304077
-0.457844
0.226354
-0.420792
0.090480
-0.057060
0.262150
-0.108442
0.451312
-0.087457
0.613224
-0.412053
0.147746
-0.468716
0.368187
-0.220673
0.658967
-0.560241
0.085460
-0.026785
0.360455
-0.279510
0.148096
-0.316855
0.112113
-0.215778
0.303531
-0.003998
0.454034
-0.093757
0.294129
-0.100579
0.433776
-0.689945
0.308270
-0.705066
0.527089
-0.032859
0.040343
-0.373370
0.164892
-0.666278
0.057127
-0.316123
0.371832
-0.465078
0.488651
-0.377590
0.284631
-0.575698
0.404375
-0.645086
0.154760
-0.552356
0.261455
-0.267602
0.074460
-0.588199
0.189027
-0.705263
0.359444
-0.920856
0.176191
-0.918480
0.040537
-0.564710
0.345300
-0.460669
0.339470
-0.484823
-0.055330
-0.411440
0.352066
-0.177250
0.089284
-0.161616
0.545758
-0.590997
0.514718
-0.131577
0.466275
-0.218344
0.049164
-0.666471
0.002502
-0.405727
-0.014721
-0.473426
-0.199202
-0.757550
0.389445
-0.429182
0.184609
-0.527614
0.718023
-0.031433
0.053176
-0.522928
0.455498
-0.500772
0.258351
-0.445336
0.452991
-0.557468
0.582274
-0.541311
0.019917
-0.413285
0.432637
-0.532221
0.482187
-0.286286
0.066951
-0.594859
-0.058801
-0.440559
0.121914
-0.405505
0.100925
-0.176277
0.441575
0.197452
0.969619
0.173719
0.582819
-0.232682
0.770662
0.083535
0.715816
0.089002
0.349739
-0.351624
0.065857
-0.630458
0.302539
-0.616916
0.471654
-0.331429
0.262197
-0.194163
0.201023
-0.188009
0.474527
-0.021762
0.120792
-0.610151
0.150953
-0.828351
-0.368452
-1.256335
-0.340284
-0.512681
-0.022868
-0.225826
0.767538
0.143181
1.300490
0.292723
1.054990
0.058526
0.132225
-0.630980
0.542540
-0.083762
0.599260
-0.162151
0.661462
-0.287201
0.679312
0.056813
0.832106
-0.100388
0.654642
0.173019
0.211500
-1.130987
-0.757963
-1.763612
-0.879558
-0.856081
0.298855
0.077305
0.833101
0.140313
1.142438
0.522007
0.851686
0.156525
0.268690
-0.442686
0.310869
-0.164852
0.458081
-0.160424
0.314547
-0.012941
0.673841
0.193870
0.434934
0.433381
1.244487
0.198470
1.085571
-0.363105
-0.458139
-1.098060
-0.344364
-0.501907
0.470880
-0.228807
0.803566
0.195046
0.836161
0.697246
1.024844
0.055701
0.822818
-0.074392
0.608415
-0.108610
0.572904
-0.204524
0.450481
0.175980
0.831326
0.014774
0.940356
0.095262
0.756110
1.075085
0.612832
-0.544137
0.287376
-0.426019
-0.075921
-0.161999
0.321624
-0.293917
0.404142
0.182228
0.822529
0.572781
1.174675
0.011471
0.768659
-0.392628
0.141836
-0.550186
0.500327
-0.017916
0.940141
0.212211
0.763774
0.339682
0.988828
0.105605
0.756922
0.192707
1.087366
0.085181
0.410419
-0.310750
0.119550
-0.408851
0.611204
-0.546949
-0.106855
0.004771
0.364255
-0.146398
0.575453
-0.225282
0.139617
-0.498162
0.245627
-0.593926
0.229645
-0.297442
0.756250
-0.199272
0.689889
-0.047590
0.655434
0.412084
0.672702
-0.051533
0.394978
0.132077
0.139562
-0.222121
0.019328
-0.147597
0.132124
-0.858678
-0.640382
-0.852357
0.278663
-0.065226
0.605514
-0.005998
0.490871
-0.100261
0.648556
-0.457379
0.634067
-0.129917
0.489417
0.078271
0.339842
-0.130857
-0.070401
-0.338473
0.169653
0.013354
0.381919
-0.583234
0.462850
-0.338418
0.431678
-0.220277
-0.319561
-0.427874
0.113362
-0.980393
0.008545
-0.560597
0.295885
-0.395706
0.294022
-0.402570
0.485874
-0.007771
0.464206
-0.409979
0.502700
-0.476672
0.132122
-0.423674
0.070697
-0.848953
-0.434693
-0.761550
0.040740
-0.404189
-0.272380
-0.484950
-0.078167
-0.309627
0.259225
0.174866
0.198577
-0.329377
-0.039829
-0.827164
-0.042364
-0.049930
0.077024
-0.503555
0.371394
-0.364359
0.186678
-0.112605
0.326593
-0.929396
0.046890
-0.650377
-0.346511
-0.981229
-0.336977
-0.590435
0.481171
-0.342402
0.591967
-0.066282
0.357165
-0.096458
0.372420
0.229336
0.445175
-0.299275
0.085583
-0.780201
0.134529
-0.686881
0.485929
-0.433145
0.689659
-0.559356
0.278055
-0.335133
0.161208
-0.776360
-0.252988
-1.259152
-0.609028
-1.284000
-0.260240
-0.843859
0.705206
0.087732
0.367671
-0.265235
0.564353
-0.989113
0.063665
-0.741770
0.156888
-0.644648
-0.177653
-0.544941
-0.172229
-0.598130
0.363523
-0.362549
0.553810
-0.089033
0.107879
-0.533961
0.561872
-0.585754
-0.419208
-0.845708
-0.508705
-0.612715
-0.259026
-0.368866
0.659094
0.111391
0.249904
-0.749700
0.300037
-0.561708
-0.070216
-0.412506
0.199907
-0.162510
-0.076301
-0.682339
0.489157
-0.255925
0.331422
-0.606966
0.099257
-0.598563
0.246818
-0.684267
0.687170
-0.407095
0.186960
-1.078793
-0.672965
-0.402398
0.171415
0.197670
0.663904
0.801490
0.273583
0.052334
0.317503
-0.478896
0.064762
0.144058
-0.264405
-0.476461
0.199441
-0.181930
0.179727
-0.453773
0.642876
-0.222219
0.690525
-0.172590
0.098646
-0.157666
0.142898
-0.333684
-0.000366
-0.240140
-0.129468
-0.514947
0.870770
-0.101156
0.800171
0.274326
0.534699
-0.350978
-0.095994
-0.939957
-0.421956
-1.148477
-0.312287
-0.384092
-0.153868
-0.553065
0.224884
-0.476535
0.603181
-0.567284
0.275749
-0.485987
0.059927
-0.364888
0.616664
-0.097422
0.715394
0.192093
0.847896
-0.238794
0.183460
-0.250772
0.337578
0.277954
0.412702
0.056304
-0.304208
-0.870401
-0.397809
-0.594677
-0.199818
-0.598357
0.029428
-0.460257
0.345584
-0.479792
0.389116
-0.520212
0.312813
-0.263929
0.308097
-0.761070
0.031908
-0.166674
0.581624
0.479954
0.551636
0.169548
0.123013
-0.218337
0.189724
0.085335
-0.118334
-0.464537
-0.398187
-0.634649
0.389277
-0.592063
-0.241189
-0.504524
0.169742
-0.314024
0.106431
-0.530452
0.373832
-0.275155
0.336773
-0.060595
0.016654
-0.795559
0.195006
-0.183224
0.976885
0.146623
0.916713
0.039493
0.847289
0.245063
0.264260
-0.466445
0.244181
0.091689
0.594887
-0.147380
0.032039
0.175604
0.370417
-0.046472
0.610279
0.167726
0.065519
-0.543395
0.549945
-0.025564
0.377695
-0.231936
0.218060
-0.132327
0.175051
-0.372608
0.784830
-0.292794
0.469252
-0.015586
0.307149
0.634963
0.971578
-0.359538
0.226271
-0.004875
0.351224
0.057298
0.639611
-0.007862
0.741803
0.226061
0.398366
-0.423925
0.357380
-0.599057
0.559278
-0.355861
0.444672
-0.417867
0.358429
-0.190154
0.566015
-0.731301
0.034897
-0.476238
0.317116
-0.085126
0.140956
-0.193363
1.068817
0.578967
1.188194
0.494766
0.856746
0.487149
1.017492
0.259157
0.237147
-0.075344
0.314243
-0.629275
0.393147
-0.410550
0.500789
-0.695177
0.331689
-0.368912
0.345186
-0.093451
0.001114
-0.175407
-0.007223
-0.401373
-0.350952
-0.636517
0.089296
-0.313969
0.694688
0.135630
0.742582
0.372305
0.609801
-0.252733
0.110327
-0.305031
0.390756
0.046356
0.585291
-0.224331
0.328684
-0.079869
0.234897
-0.699469
0.529300
-0.036180
0.694386
-0.171449
0.338107
-0.450425
0.024605
-0.873771
-0.007807
-0.703200
0.115349
-0.796307
-0.332036
-0.249161
0.273181
-0.345673
0.492796
-0.514266
-0.077874
-0.807265
0.026864
-0.345394
0.426705
-0.412703
0.222699
-0.383155
0.662945
-0.555627
0.483351
-0.193284
0.555096
-0.320751
0.183906
-0.620239
0.392254
-0.674054
0.140014
-0.089630
0.431082
-0.600557
0.307710
-0.396840
0.101817
-0.551519
0.251827
-0.456269
0.120895
-0.297647
0.529699
-0.582182
0.139974
-0.159798
0.660412
-0.658586
0.578126
-0.180780
0.341915
-0.540894
0.036407
-0.125266
0.034180
-0.591547
0.437084
-0.252564
0.456962
-0.192095
0.212101
-0.653044
0.178326
-0.640905
0.496074
-0.647053
0.224168
-0.024844
0.510305
-0.544827
0.418558
-0.122214
0.008422
-0.403447
0.590726
-0.158768
0.570706
-0.552013
1.397784
0.448832
-0.032793
0.459269
-0.289726
0.069200
-0.584535
0.323904
-0.660704
0.322453
-0.587546
0.401950
-0.577340
0.085742
-0.338620
0.056557
-0.010365
0.148852
-0.026184
0.188468
-0.225388
0.514603
-0.020307
0.651937
-0.630114
0.028529
-0.357970
0.520839
-0.187297
0.228676
-0.372853
0.304651
-0.677508
0.405646
-0.063920
0.267234
-0.474846
0.648455
-0.591140
0.435546
-0.270912
0.478673
-0.126775
0.115654
-0.553317
0.476507
-0.161085
0.574790
-0.624971
0.187659
-0.063258
0.150358
-0.071920
0.083565
-0.102295
0.632376
-0.112094
0.460265
-0.453215
0.299391
-0.688938
0.126067
-0.604042
0.666449
-0.531696
0.667975
-0.233694
0.306626
-0.616379
0.125003
-0.031208
0.198603
-0.589374
0.187611
-0.284221
0.481808
-0.649120
0.454154
-0.342730
0.580684
-0.641391
0.405976
-0.031056
0.643637
-0.489541
0.133351
-0.576013
0.601635
-0.593613
0.329231
-0.201632
0.581781
-0.378666
0.103613
-0.551125
0.285199
-0.075974
0.091133
-0.581527
0.702083
-0.182674
0.653679
-0.157505
0.121590
-0.112720
0.462009
-0.626035
0.069396
-0.227907
0.221645
-0.651709
0.164109
-0.627633
0.682766
-0.107746
0.417174
-0.116076
0.681436
-0.322838
0.003802
-0.318827
0.504928
-0.591657
0.077265
-0.602719
0.459332
-0.315903
0.750684
-0.435750
0.344246
-0.613339
0.106094
-0.136454
0.190346
-0.130102
0.310778
-0.618174
0.027715
-0.370914
0.155771
-0.243101
0.322538
-0.320019
0.170734
-0.305791
0.422963
-0.593287
0.415730
-0.407670
0.215074
-0.411984
0.101747
0.024193
0.389261
0.001867
0.798072
0.041654
0.560791
-0.528287
0.647863
-0.642624
0.661140
-0.581294
0.231230
-0.057274
0.068115
-0.480144
0.033892
-0.084170
0.152110
-0.190028
0.326801
-0.477198
0.502915
-0.494183
0.077051
-0.217486
0.407277
-0.436376
0.712951
-0.546746
0.120755
-0.698615
0.776312
-0.366308
0.325439
-0.201100
0.828770
-0.430686
0.582957
-0.454970
0.551556
-0.410305
0.437321
-0.691645
0.557605
-0.492392
0.474397
-0.591830
0.577678
-0.638696
0.064111
-0.192064
0.445313
-0.536983
0.077880
-0.399716
0.142601
-0.371198
0.347586
0.041728
0.410472
-0.295374
0.131505
0.291052
0.566655
0.029088
0.146677
-0.245181
0.672342
-0.541889
0.107966
-0.445314
0.346895
-0.530803
0.439053
-0.204745
0.324439
-0.210613
0.095581
-0.166094
0.213520
-0.098058
0.520483
-0.492761
0.009341
-0.222913
0.302724
0.033938
0.393830
-0.428458
0.257998
-0.411577
0.759027
-0.149014
0.676152
-0.013014
0.517994
-0.587102
0.396999
-0.385366
0.533377
-0.483511
0.132080
-0.180489
0.330297
-0.554549
0.423135
-0.570108
0.179447
-0.365881
0.321695
-0.123114
0.876852
-0.551114
0.070720
-0.133772
0.265271
-0.589808
0.373122
-0.055799
0.388301
-0.113444
0.252077
0.089609
0.236091
-0.546718
0.117707
-0.593973
0.530165
-0.485317
0.281210
-0.362866
0.283264
-0.376441
0.598184
-0.506809
0.421339
-0.104515
0.636006
-0.165489
0.236290
-1.104598
0.593126
-0.285831
0.962464
-0.272981
0.573727
0.467795
0.586789
0.548511
0.664765
-0.297262
0.132632
-0.336782
0.666495
-0.187247
0.283556
-0.054555
0.082371
-0.112914
0.540864
-0.328082
0.526416
-0.039574
0.181094
-0.198556
0.822781
-0.146061
0.529629
-0.528472
-0.401582
-0.200445
0.685520
-0.267859
0.789619
0.172994
0.541330
-0.110023
0.513891
-0.099246
0.209407
-0.643198
0.192620
-0.110764
0.396165
-0.118819
0.298126
-0.679634
0.174441
-0.349413
0.137054
0.056483
0.154589
-0.463128
0.256079
0.147533
0.018090
-0.348851
0.198218
0.488705
0.078585
0.089038
0.808828
-0.271442
0.400579
-0.231141
0.853740
-0.159404
0.390567
-0.218588
0.565892
-0.324309
0.278798
0.100315
0.435186
-0.674806
0.125625
-0.028677
0.673856
-0.250470
0.513334
0.053192
0.416432
-0.095352
0.282789
-0.603032
0.671522
-0.941252
0.544552
0.173349
0.045300
-0.246663
0.215861
0.324648
0.112922
-0.435349
0.570221
-0.081570
0.225790
-0.017785
0.523772
-0.045211
0.341890
-0.695612
0.051871
-0.072651
0.687585
-0.117832
0.206564
-0.520974
0.578131
-0.154022
1.068370
-0.231302
0.087542
-0.566852
0.686369
0.302683
0.677782
-0.559068
0.062503
-0.248285
-0.057279
-0.549758
0.263732
-0.268201
0.583997
-0.627035
0.451363
-0.076150
0.644198
-0.168708
0.121319
-0.282087
0.175931
-0.115073
0.459818
-0.028309
0.445427
-0.041032
0.346783
0.189837
0.313863
0.304517
0.087302
-0.787797
0.400566
0.094641
0.111112
0.044116
0.447490
-0.445786
0.133750
-0.514615
0.536663
-0.213523
0.165764
-0.395139
0.139526
-0.618363
0.471235
-0.083543
0.102345
-0.544057
0.449181
-0.154045
0.230500
0.265482
1.090832
0.452201
0.771500
0.231431
0.847336
-0.227273
0.531321
-0.040802
0.299751
-0.218288
0.166188
0.037579
0.361368
-0.466575
0.592467
-0.361953
0.352739
-0.395977
0.573852
-0.520015
0.091061
-0.012973
0.447655
-0.502225
0.179823
-0.430549
0.604539
-0.402981
0.621883
-0.400779
0.884414
0.278399
0.940254
-0.461149
-0.589166
-0.673177
-0.132976
-0.360454
0.275960
-0.350088
0.432543
-0.216585
0.444907
-0.004962
0.034947
-0.296363
0.365284
-0.388422
0.692287
-0.238978
0.223696
-0.040424
0.324824
-0.553227
0.750159
-0.381474
0.749754
0.235809
0.905291
0.717798
1.217119
0.335313
0.144068
-0.467131
-0.322273
-0.389926
0.432056
-0.579056
0.528368
-0.664411
0.363684
-0.198191
0.210197
-0.071876
0.202270
-0.245145
0.368245
-0.567879
0.633729
-0.307666
0.175529
-0.054821
0.535680
-0.244918
0.248882
0.110162
0.144766
-0.368541
0.435802
0.313074
0.680495
-0.687749
-0.137110
-0.168659
0.014646
-0.352684
0.637241
-0.600304
0.232284
-0.348509
0.588292
-0.561864
0.546691
-0.098479
0.687260
0.003288
0.339321
-0.276901
0.661766
-0.211440
0.729257
0.111666
0.855636
-0.005809
0.532221
-0.354449
0.415054
-0.185887
0.345163
-0.183960
0.204836
0.258441
0.471733
-0.500303
0.091357
-0.564760
0.132477
-0.636724
0.482644
-0.346022
0.285890
-0.370943
0.261404
-0.080262
0.469308
-0.142668
0.220750
-0.068750
0.525960
0.000881
0.274926
-0.811428
0.056001
0.289919
0.519761
-0.309540
0.528784
0.041018
0.341981
-0.077937
0.276400
-0.114059
0.368131
-0.190291
0.570475
-0.459580
0.068266
-0.001479
0.396761
-0.550919
0.401014
-0.623421
0.220168
-0.562428
0.127375
-0.659545
0.766447
-0.046493
0.227550
-0.758676
0.349407
-0.289173
0.470885
-0.238937
0.605847
0.066547
0.521112
-0.391042
0.277364
-0.500621
0.108196
-0.164547
0.524823
-0.468934
0.362138
-0.395633
0.228520
-0.430401
0.397105
-0.619937
0.286440
-0.039486
0.604573
-0.471726
0.646026
0.035778
0.640159
-0.327762
0.244845
-0.878880
0.381331
0.169631
0.395563
-0.618236
0.818673
-0.103913
-0.055924
-0.140462
0.118624
-0.514732
0.665749
-0.224813
0.678515
-0.489722
0.693763
-0.340654
0.185370
-0.216627
0.078045
-0.574824
0.151918
-0.346785
0.630163
-0.041970
0.161891
-0.269836
0.303103
-0.328283
0.682769
-0.206693
0.557371
0.178116
0.676008
-0.047735
0.783891
-0.188606
0.537894
-0.590252
0.395804
-0.657856
0.403230
-0.359444
0.182674
-0.381749
0.149165
-0.176495
0.021988
-0.335015
0.399680
-0.093801
0.219020
-0.535600
0.451852
-0.131736
0.613800
-0.569749
0.720051
-0.639114
0.602551
-0.353055
0.374726
-0.400885
0.458416
-0.093462
0.641325
-0.303504
0.336615
-0.481880
0.193441
-0.031357
0.439734
-0.596674
0.390801
-0.622408
0.278423
-0.538704
0.100597
-0.302397
0.177915
-0.482816
0.409245
-0.367372
0.367220
-0.129311
0.563940
-0.204584
0.091740
-0.460588
0.226637
-0.589192
0.205063
-0.605844
0.293774
-0.658904
0.697509
-0.235552
0.262089
-0.334126
0.017431
-0.455530
0.365483
-0.457165
0.352204
-0.054716
0.381596
-0.628601
0.596709
-0.478294
0.231702
-0.070508
0.275795
-0.625143
0.462727
-0.593730
0.091214
-0.266750
0.195169
-0.102865
0.107960
-0.391520
0.000302
-0.306356
0.296644
-0.293433
0.265276
-0.294153
-1.201005
0.527365
-0.628279
0.546416
-0.282895
0.293762
-0.303581
0.635099
-0.350046
0.683154
-0.565725
0.246296
-0.506496
0.097208
-0.317003
0.037553
-0.022915
0.079245
-0.657385
0.088769
-0.376998
0.122847
-0.196131
0.481436
-0.514382
0.196415
-0.087803
0.111025
-0.489849
0.353079
-0.405178
0.318834
-0.180445
0.333458
-0.165244
0.465556
-0.623091
0.479506
-0.385189
0.295142
-0.436543
0.284226
-0.506496
0.229299
-0.343960
0.144991
-0.241779
0.389208
-0.214452
0.212902
-0.469441
0.609255
-0.387902
0.669157
-0.378272
0.145723
-0.165572
0.466075
-0.256748
0.655411
-0.119124
0.662152
-0.274233
0.304808
-0.282142
0.478608
0.006536
0.310485
-0.136122
0.577253
-0.384657
0.777544
0.103165
0.432612
-0.104191
0.449010
-0.358342
0.500831
-0.005407
0.735635
-0.610072
0.537901
-0.579427
0.264821
-0.513323
0.258962
-0.410544
0.678321
-0.025077
0.667269
-0.636780
0.143113
-0.653429
0.205049
-0.414234
0.238313
-0.634490
0.493452
-0.395883
0.316205
-0.119225
0.360233
0.015565
0.430869
-0.365423
0.401432
-0.387694
0.446136
0.015106
0.046618
-0.313376
0.649791
-0.595843
0.199048
-0.213555
0.408439
-0.469624
0.600535
-0.425426
0.458354
-0.634586
0.266267
-0.724415
0.382088
-0.609425
0.239703
-0.163340
0.534260
-0.004572
0.608936
-0.542484
0.387096
0.007921
0.053543
0.054854
0.730982
-0.256059
0.087005
-0.170669
0.386283
-0.071713
0.563157
-0.307421
0.669472
-0.069518
0.511002
-0.408294
0.428959
-0.586839
-0.022426
-0.423440
0.410724
-0.224335
0.400846
0.236383
0.704345
0.010698
0.575169
-0.481101
0.224918
-0.630104
0.826873
-0.265096
0.127350
-0.516370
0.695688
-0.520967
0.358776
-0.584738
0.191612
-0.685824
0.647138
-0.103785
0.294136
-0.632369
0.120127
-0.111677
0.503785
-0.391164
0.693436
-0.171497
0.442860
0.097673
0.572576
-0.025190
0.551879
-0.192672
0.471809
-0.375459
0.421572
-0.250553
0.643965
-0.033203
0.590312
-0.399926
0.246950
-0.137540
0.539899
-0.512975
-0.033895
-0.130641
0.495456
-0.658956
0.197394
0.033661
0.749981
-0.105312
0.146687
-0.175017
0.240998
-0.100336
0.575491
-0.180814
0.335676
-0.520622
0.001118
-0.297443
0.306469
-0.192625
0.536184
-0.213080
0.668478
-0.088779
0.719111
-0.548483
0.230854
-0.151322
0.629285
-0.148062
0.633952
0.221973
0.331208
-0.223900
0.410922
-0.206946
0.459547
-0.489516
0.100918
-0.104076
0.512019
-0.579285
0.044494
-0.319093
0.145595
-0.121498
0.558087
-0.244514
0.599047
0.264288
0.656760
0.178745
0.637125
-0.467199
0.431007
-0.546882
0.266773
-0.723108
0.694422
-0.185395
0.196682
-0.269171
0.537119
0.013725
0.253920
-0.438323
0.019161
-0.218048
0.167126
-0.372930
-0.492688
-0.673349
0.285794
-0.089544
0.425011
0.124275
0.336928
0.033452
0.936103
-0.265500
0.486026
-0.618692
0.563237
-0.281416
0.382567
-0.288782
0.113558
0.028040
0.463974
0.068279
0.266208
-0.286769
-0.171728
-1.141048
0.209514
-0.176231
0.403770
-0.187329
-1.071251
-1.403746
-0.681310
-0.173591
0.049386
-0.515861
0.352892
-0.374003
1.041111
-0.283664
0.228690
-0.435934
0.109371
-0.588256
0.360271
-0.675274
0.027897
-0.041369
0.329721
-0.250648
0.237328
-0.488119
-0.144784
-0.696883
0.318199
0.075677
0.612475
-0.588324
-0.884793
-1.383728
-0.050600
-0.731318
0.183846
-0.696745
0.130521
-0.020316
0.782707
-0.180156
0.066037
-0.587065
0.606147
-0.212255
0.331377
0.016292
-0.093871
-0.877792
0.449338
-0.362425
0.397209
-0.101195
-0.085353
-0.045123
0.275500
0.086555
0.461470
0.021991
-0.735121
-1.046979
-0.456959
-0.684836
-0.105448
-0.474573
0.682732
0.151505
0.932033
0.079578
0.285254
-0.487154
0.327103
-0.271983
0.404516
-0.219469
0.174959
-0.398759
0.104718
-0.660592
0.319788
0.056026
0.101717
0.230555
0.601635
0.084231
0.766604
-0.237190
-0.386697
-0.422708
-0.185915
-0.554234
0.374770
-0.059118
0.426245
-0.252614
0.345087
-0.419303
0.062098
-0.636041
0.569222
-0.288736
0.457216
-0.251694
0.326189
-0.581586
0.249804
-0.446945
0.039827
-0.337233
-0.070291
-0.458396
0.550062
0.371204
0.775378
0.462243
0.099238
-0.949335
-0.175443
-1.105602
-0.235595
-0.842602
0.762218
-0.228392
0.198797
-0.500034
0.251525
-0.087926
0.334539
-0.322772
0.036914
-0.211883
0.388838
-0.939598
0.167349
-0.752118
0.405465
-0.323793
-0.040641
-0.058348
0.132906
0.303343
0.254106
-0.486481
-0.204812
-0.843016
-0.872952
-1.361118
0.083361
-0.339198
0.631620
-0.529194
0.245465
-0.666915
0.297361
-0.229842
0.486471
-0.646782
0.296475
-0.131810
0.054741
-0.621071
0.003070
-0.509981
-0.130299
-0.195284
0.344464
-0.006999
0.234487
-0.149516
-0.194202
-0.553760
-0.720579
-1.024266
-0.580036
-0.908053
-0.458907
-0.165086
0.481447
0.010245
0.372058
-0.474281
-0.070001
-0.611989
0.384466
-0.367935
0.090488
-0.150222
0.167243
-0.632366
-0.007907
-0.882057
-0.301832
-0.724092
-0.387364
0.487619
0.492689
0.177504
-0.438783
-0.872462
-1.136433
-0.937158
-0.415735
-0.341036
0.166675
-0.134513
0.644448
-0.470541
0.344356
-0.611956
0.322465
-0.211574
0.155034
-0.401914
0.080159
-0.504588
-0.049360
-0.343490
-0.236756
-0.512015
0.573322
-0.135537
0.269412
-0.176665
0.120883
-0.252104
0.075997
-0.853311
-0.501559
-0.448313
-0.224006
0.005098
0.431537
-0.548106
0.123876
-0.358179
0.001872
-0.257605
0.587408
-0.637810
0.526960
-0.327670
0.125320
-0.682952
-0.144342
-0.241167
0.439611
-0.075175
0.551799
-0.237654
0.850379
-0.271661
0.309953
0.076836
0.160403
0.020424
0.265153
-0.445121
0.331665
0.700833
0.455515
0.153298
0.600130
-0.785898
0.539782
-0.699525
0.211827
-0.166396
0.677408
-0.153669
0.136669
-0.490967
0.355390
-0.166512
0.664515
-0.172718
0.878063
0.035063
1.347542
0.244230
0.161056
0.098679
0.298068
0.058647
0.629774
0.412979
1.003973
0.317664
0.622853
-0.249602
0.191071
-0.487948
0.344956
-0.769873
0.329405
-0.515229
0.541524
-0.566174
0.727109
-0.459428
-0.074989
-0.014838
0.564413
0.055474
0.722639
0.484663
0.783999
0.320511
0.956499
0.336544
0.849672
0.468958
1.370751
0.707512
0.393068
0.049196
0.897640
-0.040765
0.444818
-0.787810
0.332034
-0.114023
0.344122
-0.330105
0.005473
-0.685881
0.203223
-0.466899
0.490288
-0.148734
0.565845
-0.191698
0.592923
-0.198899
0.774639
0.634024
0.782660
0.392358
1.160389
0.438323
0.750934
0.523111
1.285503
0.506670
1.036358
-0.445515
0.408246
-0.530027
0.484928
-0.415127
0.392325
-0.379612
0.430147
-0.041131
0.015825
-0.395642
-0.011629
-0.116474
0.551313
-0.370606
0.659377
-0.021214
0.887963
-0.000207
1.302078
0.806523
0.767102
0.565966
0.533685
0.418210
0.989126
0.240145
0.705044
-0.045166
0.401204
-0.359819
-0.020431
-0.360684
0.627620
-0.605960
0.016326
-0.335521
0.285874
-0.412969
0.360985
-0.310237
0.150049
-0.418320
0.790358
0.117775
0.722407
0.156235
0.614944
0.285458
0.736042
0.171349
0.707962
-0.110689
1.008791
0.164730
0.736223
-0.056519
0.609608
-0.242151
0.453157
-0.420720
0.433990
-0.500336
0.054921
-0.373818
0.406522
-0.064331
-0.005030
-0.717853
0.440627
-0.512288
0.137409
-0.425330
0.242447
-0.064140
0.300762
-0.436507
0.046768
0.034083
0.314105
-0.605214
0.328093
-0.697657
0.525283
-0.223593
0.114369
-0.435670
0.424908
-0.102635
0.600599
-0.214923
0.525907
-0.334560
0.015259
-0.582478
0.006256
-0.451844
0.593910
-0.055835
0.363584
-0.539434
0.348343
-0.089287
0.287801
-0.692453
-0.266663
-0.509883
-0.048776
-0.242999
0.220751
-0.661433
0.596260
-0.255805
0.441241
-0.488106
0.448560
-0.633028
0.170630
-0.198325
0.035677
-0.071215
0.413248
-0.561583
0.405775
-0.428506
0.442410
-0.416327
0.147911
-0.418360
0.408816
-0.620963
0.094273
-0.205380
0.501850
-0.677042
0.604299
-0.614487
0.155988
-0.103634
0.002524
-0.578948
0.677215
-0.645286
0.114657
-0.440188
0.409661
-0.563217
-0.189371
0.580292
-0.061542
0.408892
-0.651506
0.474790
-0.270476
0.357281
-0.203296
0.012886
-0.071434
0.353357
-0.388101
0.503389
-0.216754
0.571656
-0.638873
0.080899
-0.505468
0.568196
-0.683065
0.672984
-0.665651
0.685766
-0.550902
0.643908
-0.631052
0.665559
-0.384096
0.340713
-0.528776
0.057311
-0.221005
0.590319
-0.466184
0.172541
-0.365132
0.036830
-0.530252
0.551899
-0.065952
0.578812
-0.243764
0.443595
-0.397263
0.442450
-0.327506
0.330298
-0.530065
0.122796
-0.223180
0.501779
-0.086900
0.177254
-0.488332
0.657944
-0.121162
0.419383
-0.623503
0.505258
-0.060097
0.452355
-0.562576
0.283252
-0.338314
0.320244
-0.490426
-0.033160
-0.404602
0.242553
-0.630626
0.354746
-0.280940
0.051561
-0.161952
0.583353
-0.543043
0.475960
-0.279549
0.306130
-0.665272
0.443700
-0.147973
0.041645
-0.621423
0.646868
-0.699588
0.043228
-0.365580
0.623153
-0.549461
0.436358
-0.362188
0.443498
0.001347
0.057287
-0.031949
0.519844
-0.074013
0.226431
-0.107043
0.623686
0.042312
0.395932
-0.656369
0.280394
-0.239232
0.488633
-0.204459
0.308955
-0.204573
0.026018
-0.094994
0.350628
-0.068405
0.015309
-0.296264
0.188612
0.023515
0.877795
-0.320123
1.140278
0.199712
0.832058
0.151081
0.979676
-0.080455
0.468669
0.105522
0.497272
-0.097299
0.008597
-0.522212
-0.137065
-0.669954
0.144111
-0.700112
0.404482
-0.260447
0.558861
-0.206100
0.339736
-0.591267
0.296761
-0.656712
0.878954
0.010402
0.793674
0.558745
0.934268
0.319086
0.560079
0.290002
0.802647
0.077956
0.874438
0.162711
0.381045
-0.000811
0.626682
-0.409423
0.092105
-0.414607
-0.435832
-0.979777
0.015583
-0.607983
0.262808
-0.288375
0.550757
-0.130850
0.483750
-0.148540
0.330027
0.369405
0.961653
-0.107757
0.943520
0.015273
0.605452
0.379246
0.553125
0.738709
0.848455
-0.187075
0.621027
-0.146825
0.140429
-0.503962
0.330711
-0.307921
-0.076922
-0.842019
-0.540285
-0.685495
0.602603
-0.527070
0.052219
-0.155547
0.105784
-0.579249
0.690793
0.017238
0.471172
-0.131804
0.847448
0.043758
0.421185
0.038076
0.393984
0.014696
0.506847
0.114256
0.254894
-0.242204
-0.125293
-0.301642
0.211286
-0.422709
0.125364
-1.095155
-0.468710
-0.424782
0.211629
-0.525060
0.446558
-0.127655
0.358236
-0.484942
0.579313
0.026064
0.465364
-0.689417
0.271874
-0.531822
0.251956
-0.464357
-0.019947
0.073389
0.681914
0.275876
0.585977
-0.441619
0.077612
-0.050683
0.457033
-0.270127
-0.123216
-1.053291
-0.468419
-0.728252
0.289609
-0.306539
0.428786
-0.544725
0.123319
-0.120652
0.780772
-0.133693
0.589244
-0.835272
-0.422045
-1.012699
-0.839745
-1.232778
-0.193177
-0.451656
0.895569
0.464412
0.574442
-0.018881
0.547221
0.118859
0.115194
-0.741834
0.066553
-0.850154
-0.576839
-0.769230
0.196207
-0.100894
0.128450
-0.532656
0.425460
-0.541479
0.389465
-0.569226
-0.411718
-1.143685
-0.481641
-1.180497
-0.829541
-1.817795
-0.493903
-0.940997
1.124419
-0.037141
0.547860
-0.057989
0.537436
-0.140663
0.646183
-0.326699
0.064700
-0.630068
-0.392769
-0.742024
0.049083
-0.285387
0.448379
-0.292862
0.373384
-0.564960
-0.103484
-0.575052
-0.504875
-1.872189
-0.483183
-1.357112
-0.737086
-1.504174
-0.430564
-1.094464
0.730471
0.283875
0.197327
-0.178846
0.231685
0.315058
0.305665
-0.801628
0.111115
-0.720032
0.435830
-0.615317
0.267823
-0.022225
0.559942
-0.364095
0.322975
-0.312235
0.418770
-1.388989
-0.795210
-1.412906
-0.975057
-1.276334
-0.631987
-1.259779
-0.769447
-0.508213
0.685462
-0.058942
0.170262
-0.727485
-0.038283
-0.470407
0.090795
-0.507520
0.084308
-0.790954
0.539581
-0.589519
0.517084
-0.670019
0.523692
-0.118447
0.670958
-0.360390
0.334385
-0.896614
-0.232815
-1.130154
-0.314141
-0.831421
-0.760209
-1.334464
-0.276507
0.367803
1.352567
-0.155581
0.441868
0.208408
0.136493
-0.144248
-0.032815
-0.970624
0.024326
-1.006324
0.523603
-0.520090
0.136348
-0.679426
0.518821
-0.639768
0.628313
-0.320544
-0.006989
-0.889216
-0.367788
-0.775402
0.087915
-0.468908
-0.004058
-0.888516
0.146194
0.260284
0.671101
-0.058864
0.830945
-0.044673
0.258456
0.091329
-0.021681
-0.589352
-0.479775
-0.933822
-0.040529
-0.000587
0.285267
-0.048395
0.668062
-0.384790
0.039848
-0.406229
0.405923
-0.624375
-0.092162
-0.456231
0.166206
-0.470131
-0.211662
-0.310555
0.025658
-0.664187
1.072846
-0.051111
0.423230
-0.620696
0.285128
-0.278949
0.015145
-0.390649
-0.252986
-0.626718
0.255787
-0.427440
0.221581
-0.284431
0.568092
-0.405102
0.349556
-0.354271
0.340087
-0.083086
0.256367
-0.503469
0.071779
-0.710447
-0.048116
-0.279346
0.365986
0.620256
0.460027
0.019677
0.018313
0.026835
0.286474
0.010369
-0.135867
-0.631145
0.227260
-0.523089
0.632266
0.144888
0.325196
-0.020389
0.537609
-0.354935
0.361830
-0.160535
0.633802
-0.342940
0.154123
-0.429118
0.058749
-0.882807
0.082116
-0.927351
0.212335
0.334083
0.434705
-0.003242
0.311601
-0.318070
0.145170
-0.368494
0.464713
0.209570
0.805037
-0.328740
0.712275
-0.053685
0.419957
-0.249949
0.400768
-0.543822
0.318833
0.077710
0.790436
-0.408480
0.493480
-0.627592
0.122134
-0.426450
-0.096498
-0.470362
-0.010447
-0.006213
0.244685
0.014508
0.217594
-0.420176
0.446990
0.155652
0.363316
0.458349
0.643201
-0.262093
0.663663
0.091861
0.516041
-0.020547
0.510867
-0.084235
0.271132
0.155136
1.372786
-0.173414
0.213267
-0.314520
0.304547
-0.376268
0.077453
-0.190890
0.345791
0.278776
-0.064830
-0.184425
0.458064
0.054825
0.526096
0.249474
0.690159
0.467237
0.793630
0.134675
0.764831
-0.212155
0.291429
-0.640502
0.521389
-0.009078
0.660016
0.037697
0.801867
0.371621
0.753238
0.198851
0.303725
-0.120505
-0.256876
-0.773091
0.458801
-0.115464
0.206207
-0.144447
0.827326
0.371012
1.066838
0.348493
0.496904
0.402500
0.637939
0.281539
0.441509
-0.213907
0.519702
-0.658618
0.039356
-0.016040
0.595831
-0.243777
0.742199
-0.007276
0.685881
0.159246
0.211017
0.211575
0.237906
-0.284721
-0.268858
-0.575641
0.144846
-0.418519
0.193625
0.527316
0.624053
0.213403
0.866362
-0.236231
0.369576
-0.411513
0.178882
-0.122131
0.199992
-0.318254
0.570423
-0.641464
0.261927
-0.393905
1.011046
0.214147
1.056629
-0.005288
0.560392
-0.176462
0.180052
-0.452876
0.150019
-0.565728
-0.086296
-0.615954
0.404373
-0.107617
0.466776
-0.140091
0.519112
0.145335
0.639825
0.212776
0.230969
-0.512553
0.041532
-0.123204
0.055749
-0.180129
0.468425
-0.473664
0.384717
0.231154
0.846811
0.012944
0.558417
0.060485
0.277841
0.034172
0.074768
-0.515393
0.123077
-0.635739
-0.035438
-0.531279
0.212801
-0.278442
0.231189
-0.493080
0.506509
-0.430008
0.713669
-0.135676
0.609803
-0.028258
0.012485
-0.596051
0.164901
-0.024059
0.090887
-0.537119
0.835658
-0.004522
0.721326
-0.361196
0.445780
0.242787
0.291157
-0.083200
0.052090
-0.728467
0.223259
-0.323688
0.398833
-0.478127
0.163781
-0.627576
0.413849
-0.019540
0.436977
-0.057312
0.592335
-0.363880
0.239914
-0.475750
0.392755
-0.263063
0.335235
-0.564773
0.292196
-0.466003
0.446070
-0.362513
0.710894
-0.243609
0.293314
-0.147141
0.238409
-0.461432
0.260888
-0.466525
0.464979
-0.528690
0.096414
-0.699819
0.542274
-0.597822
0.532356
-0.314502
0.638359
-0.252134
0.396832
-0.526088
0.616014
-0.636722
0.303717
-0.309095
0.153432
-0.704094
0.109616
-0.581584
0.349620
-0.713454
-0.018280
-0.496154
0.064658
-0.453342
0.438157
-0.756924
0.516215
-0.457519
0.111692
-0.543663
0.113553
-0.337668
0.507194
-0.677984
0.234091
-0.347165
0.294300
-0.170621
0.599299
-0.691132
0.696709
-0.515613
0.608194
-0.318232
0.104084
-0.116963
0.271994
-0.275443
0.624262
-0.696877
0.152069
-0.053759
0.358877
-0.400539
0.320888
-0.251026
0.392030
-0.174272
0.002299
-0.501584
0.015816
-0.115335
0.139253
-0.523010
-0.074318
0.373344
-0.170174
0.387620
-0.543965
0.069473
-0.378752
0.540674
-0.584786
0.306631
-0.139221
0.008252
-0.423934
0.411408
-0.283469
0.350461
-0.405213
0.446959
-0.402085
0.066393
-0.146494
0.023928
-0.317571
0.538511
-0.198222
0.319868
-0.340095
0.214039
-0.435204
0.479347
-0.037049
0.528523
-0.152691
0.207223
-0.216143
0.696655
-0.276697
0.594895
-0.537324
0.161492
-0.201523
0.676553
-0.169732
0.625186
-0.387947
0.453221
-0.275625
0.093177
-0.200160
0.677730
-0.159567
0.346657
-0.001656
0.477138
-0.185167
0.199880
-0.097006
0.525262
-0.413919
0.532210
-0.304611
0.450967
-0.360733
0.457298
-0.658187
0.576886
-0.453935
0.234922
-0.471752
0.291324
-0.396335
0.673340
-0.267757
0.566281
-0.598302
0.655838
-0.319288
0.174132
-0.048976
0.519465
-0.151855
0.208538
-0.166125
0.153512
-0.685676
0.351292
-0.353392
0.082682
-0.176556
0.067309
-0.614893
0.481192
-0.518809
0.274639
-0.238875
0.476575
-0.152402
0.692545
-0.011056
0.624661
-0.283473
0.408820
-0.596084
0.552432
-0.273228
0.496740
-0.506519
0.593091
-0.669935
0.556321
-0.412599
0.122031
-0.064860
0.578724
-0.275543
0.050536
-0.230013
0.628937
-0.133181
0.406630
-0.695847
0.048619
-0.181488
0.521381
-0.317749
0.427127
-0.287916
0.479261
-0.415078
0.305234
-0.399407
0.003597
-0.008941
0.298743
-0.553955
0.284347
-0.094306
0.361105
-0.177028
0.064311
-0.217553
0.589618
-0.186336
0.282414
-0.468337
0.461882
-0.332700
0.699124
-0.389750
0.473647
-0.395503
0.394744
-0.506335
0.593573
-0.197312
0.142110
-0.314048
0.495838
-0.610794
0.038761
-0.092927
0.317384
-0.035969
0.115060
-0.606648
0.593744
-0.388843
0.006975
-0.254931
0.565883
-0.071269
0.472488
-0.455493
0.260352
-0.051967
0.224398
-0.011332
0.395312
-0.214149
0.422368
-0.139544
0.637965
-0.048204
0.721630
-0.462860
0.344853
-0.061548
0.154411
-0.087600
0.026942
-0.162935
0.200054
-0.324447
0.216705
-0.291276
0.248155
-0.109666
0.680248
-0.255111
0.364435
-0.546268
0.328948
-0.134300
0.310803
-0.573097
0.203687
-0.505136
0.628451
-0.550972
0.117921
-0.241100
0.124111
-0.585280
0.490748
0.076568
0.537353
-0.002085
0.116234
-0.617821
0.114674
-0.117769
0.110570
-0.287841
0.464313
-0.325372
0.579342
-0.012454
0.434862
-0.559554
0.270046
-0.096624
0.417926
-0.581437
0.250737
0.007708
0.502836
-0.321448
0.629323
-0.286395
0.390961
-0.509579
0.743689
-0.275197
0.605605
-0.395750
0.351197
-0.332891
0.426165
-0.443311
0.284526
-0.517861
0.581914
-0.392582
0.105823
-0.347151
0.016795
-0.686091
0.361569
-0.442653
0.557329
-0.614597
0.565247
-0.237753
0.565806
0.077115
0.407353
-0.133821
0.686590
0.059861
0.749466
-0.012602
0.738621
-0.652631
0.477828
-0.508991
0.393073
-0.103897
0.176952
-0.097154
0.566410
-0.459547
0.615113
-0.449166
0.151189
-0.019108
0.102812
-0.158176
0.017640
-0.442026
0.624346
-0.525196
0.423417
-0.345286
0.236664
-0.060945
0.711620
-0.212136
0.597633
-0.270976
0.524971
-0.424850
0.518673
-0.403261
0.461702
-0.268558
0.247966
-0.132367
0.391926
-0.423608
0.230063
-0.259001
0.182298
-0.143113
0.014987
-0.325453
0.175926
-0.092431
0.503416
-0.148694
0.593534
-0.362233
0.128966
-0.066570
0.328580
0.045065
0.544694
0.049766
0.556185
-0.158701
0.460252
-0.218426
0.017850
-0.252487
0.655928
-0.459673
0.540082
-0.200409
0.592884
-0.231737
0.624134
-0.120918
0.498276
-0.096720
0.277177
-0.495528
0.442698
-0.402195
0.636673
-0.162798
0.699214
-0.260705
0.875593
-0.363073
0.842150
-0.050432
0.114237
-0.358091
0.255923
-0.522755
0.656791
0.006885
0.070030
-0.656675
0.263287
-0.020717
0.416964
-0.103122
0.221322
-0.306945
0.344282
-0.134062
0.443248
-0.122486
0.253359
0.033139
0.680702
-0.599557
0.528155
-0.316501
0.475064
-0.076038
0.410377
-0.064581
0.346799
-0.192251
0.404551
-0.312018
0.679283
-0.639748
0.158527
-0.619847
0.651379
-0.223509
0.576886
-0.214207
0.244360
-0.291239
0.326921
-0.453916
0.615436
-0.649844
0.612905
-0.299759
0.142782
-0.049233
0.435095
-0.480699
0.385426
0.186512
0.659268
-0.234671
0.517022
0.003567
0.632976
-0.670215
0.345836
-0.311416
0.304099
-0.308989
0.271079
-0.457409
0.229267
-0.221900
0.680929
-0.103582
0.445727
-0.213677
0.415239
-0.039669
0.698410
-0.246975
0.079338
-0.504726
0.705403
0.114001
0.266172
-0.059844
0.218339
-0.057124
0.467543
-0.486151
0.636555
-0.050544
0.687782
-0.538146
0.043281
-0.317672
0.169246
-0.342759
0.627069
-0.440058
0.100124
-0.156327
0.671056
-0.069682
0.278186
-0.380881
0.342489
-0.601495
0.512093
-0.223805
0.357963
-0.290712
0.359138
-0.002624
0.658054
-0.108752
0.605212
-0.498577
0.506858
-0.121611
0.524146
-0.406784
0.194496
-0.494622
0.263079
-0.234445
0.112534
-0.432295
0.577108
-0.039587
0.172280
-0.668003
0.206974
-0.118802
0.092136
-0.394827
0.600242
-0.301765
0.515760
-0.083498
0.831508
-0.450552
0.160879
-0.026334
0.338319
-0.441973
0.442816
-0.667278
0.508517
-0.210703
0.112832
-0.312689
0.629443
-0.302487
0.109356
-0.192553
0.536919
-0.221898
0.624734
-0.411895
0.271368
-0.081636
0.427311
-0.405268
0.297100
-0.350796
0.305965
0.111082
0.280285
-0.425458
0.450526
0.048583
0.763422
-0.249723
0.251883
-0.109090
0.278023
-0.658759
0.097888
-0.066792
0.176190
-0.203697
0.383416
-0.105594
0.506254
-0.492798
0.298554
-0.342195
0.017651
-0.216336
0.065122
-0.237341
0.399141
-0.346970
0.127599
-0.392789
0.326666
-0.060945
0.698509
-0.176251
0.299206
-0.142482
0.403326
-0.103384
0.653930
-0.620979
0.231654
-0.219019
0.586626
-0.321810
0.289812
-0.062748
0.525299
-0.672857
0.169002
-0.331390
0.467386
-0.460217
0.683294
-0.471762
0.767679
0.083535
0.153705
-0.128424
0.643795
0.093939
0.301006
-0.523672
0.467977
0.011011
0.343264
-0.479234
0.342105
-0.676316
0.636719
-0.292270
0.603652
-0.163693
0.513337
-0.490264
0.485259
-0.102773
0.553514
-0.310925
0.076204
-0.016333
0.648369
-0.530669
0.535977
-0.468362
0.464578
-0.322536
0.778948
-0.237234
0.245738
-0.225513
0.613590
-0.162764
0.430558
-0.094330
0.327640
0.001792
0.636484
-0.665564
0.679244
-0.572422
0.257966
-0.582879
0.035875
-0.071546
0.373052
-0.522154
0.176213
-0.223756
0.136114
-0.242698
0.265907
0.062295
0.270442
0.143579
0.860372
-0.248100
0.698143
-0.422365
0.200878
-0.523997
0.393921
-0.555264
0.149659
-0.083087
0.676657
-0.473343
0.083691
-0.612683
0.439073
-0.062926
0.485104
-0.697034
0.645869
-0.519135
0.070357
-0.316577
0.345708
-0.241397
0.546750
-0.423829
0.563702
-0.010947
0.648201
-0.513633
0.200337
-0.435796
0.362117
-0.572084
0.506844
-0.378909
0.539577
-0.161539
0.265573
-0.688312
0.245030
-0.242027
0.461802
-0.328720
0.154851
-0.200727
0.393880
-0.637867
0.199841
-0.335264
0.461937
-0.265699
0.656987
-0.104158
0.510426
-0.492798
0.586151
-0.297235
0.598539
-0.423445
0.228634
-0.012810
0.275799
-0.491604
0.661888
-0.062316
0.191670
-0.502981
0.223921
-0.457296
0.491431
-0.468922
0.699323
-0.253216
0.099836
-0.151818
0.454136
-0.489002
0.094074
-0.652005
0.126743
-0.554932
0.218208
-0.083062
0.657907
-0.028461
0.583655
-0.539536
0.328514
-0.479743
0.270491
-0.517498
0.499984
-0.543123
0.312057
-0.463567
0.605370
-0.503805
0.266613
-0.129262
0.261101
-0.058044
0.598184
-0.260422
0.311280
-0.695795
0.414484
-0.065359
0.485115
-0.508368
0.017318
-0.611944
0.363154
-0.235790
0.694752
-0.322653
0.262100
-0.580268
0.162710
-0.590391
0.358375
-0.428566
0.412482
-0.159238
0.271613
-0.024537
0.622805
-0.176983
0.528342
-0.189417
0.306245
-0.089443
0.247462
-0.204429
0.349867
-0.558738
0.200252
-0.064326
0.624122
-0.685376
0.572621
-0.641591
0.597161
-0.235635
0.177448
-0.591736
0.557943
-0.440082
0.471826
-0.017828
0.333221
-0.130235
0.446315
-0.045703
1.882998
0.017929
-0.070241
0.212278
-0.194912
0.598583
-0.401695
0.501157
-0.688026
0.649157
-0.005586
0.337893
-0.407705
0.204014
-0.404042
0.432020
-0.191206
0.274846
-0.373553
0.088422
-0.510662
0.550770
-0.680630
0.368417
-0.290995
0.452470
-0.386223
0.624216
-0.582705
0.132538
-0.669919
0.172178
-0.150467
0.040160
-0.386342
0.339041
-0.646724
0.077544
-0.158169
0.622162
-0.039867
0.149375
-0.268450
0.552848
-0.364299
0.651793
-0.300657
0.544238
-0.241128
0.648699
-0.637671
0.052318
-0.522775
0.618220
-0.420804
0.090543
-0.370690
0.107027
-0.014758
0.253395
-0.239572
0.684111
-0.427229
0.383472
-0.040459
0.093105
-0.060759
0.634054
-0.262033
0.119922
-0.657451
0.176361
-0.371341
0.088581
-0.166158
0.640957
-0.134564
0.343462
-0.549610
0.359288
-0.305044
0.477025
-0.417046
0.098244
-0.397012
0.136809
-0.188787
0.067702
-0.242630
0.203925
-0.329164
0.463978
-0.252398
-0.021624
-0.279808
0.022842
-0.352271
0.039336
-0.303921
0.304175
-0.407076
0.135537
-0.460880
0.180224
-0.159890
0.680692
-0.071466
0.335667
-0.342520
0.542154
-0.003202
0.607645
-0.336896
0.423523
-0.005928
0.034084
-0.540581
0.288273
-0.036472
0.198106
-0.190687
0.502885
-0.611833
0.570809
-0.668596
-0.247341
-0.529952
0.292745
-0.525719
0.126140
-0.344778
0.664879
0.011060
0.222962
-0.727640
0.485427
-0.178838
-0.073644
-0.268059
0.399429
-0.576585
0.216603
-0.339076
0.197633
-0.594053
0.501099
0.035382
0.745986
-0.316964
0.393565
-0.614545
-0.017927
-0.383444
-0.038380
-0.629148
-0.245288
-1.029996
-0.419031
-0.863357
-0.214662
-0.565039
-0.166433
-0.207267
0.093878
-0.269465
0.062234
-0.064292
0.292188
-0.074813
0.217646
-0.047202
0.616609
-0.352585
0.580025
0.222837
0.682963
0.299128
0.567173
-0.012533
0.809985
-0.268938
0.154935
-0.364683
-0.765061
-1.461301
-0.522988
-0.971734
0.067817
-0.593881
-0.068002
-0.615044
0.020633
-0.511343
0.519369
-0.507721
0.526510
-0.000128
0.409580
-0.147254
0.070891
-0.474669
0.636694
0.379390
0.915838
-0.125118
0.544173
0.254728
0.868915
0.106517
0.285677
-0.523297
-0.007594
-0.656602
0.230798
-0.469494
0.229607
-0.135432
0.319987
-0.544161
0.288505
-0.287946
0.050439
-0.324605
0.329118
-0.387167
0.559263
-0.244773
0.362206
-0.088510
0.885845
0.012808
0.751655
-0.152928
0.366594
-0.403580
0.468919
-0.707347
-0.063071
-0.521481
0.329592
0.199989
0.634435
0.191312
0.184035
0.033769
0.031072
-0.425276
0.067184
-0.566510
-0.035501
-0.428787
0.336523
-0.204379
0.361548
-0.138105
0.542282
-0.050580
0.764735
0.120075
0.688506
-0.237587
0.226022
-0.799632
-0.694500
-1.023241
-0.316956
-0.747264
0.653567
0.488139
0.995081
0.269455
0.811565
-0.106161
0.279803
-0.023224
0.013747
-0.407572
-0.301995
-0.452589
0.451238
-0.549454
0.506617
-0.271076
0.013963
-0.005435
0.616325
-0.400307
0.337005
-0.468999
-0.345265
-0.697305
-0.731328
-0.636582
-1.034349
-0.514165
0.731282
0.741081
1.401940
0.301037
0.772012
0.184318
0.733860
0.043658
0.261711
-0.190034
0.362366
-0.232088
0.176895
-0.596484
0.526552
-0.674514
0.457798
-0.193900
0.397372
-0.497351
0.148066
-1.007896
-0.227462
-0.481633
-0.494165
-1.360469
-0.544002
-0.159327
0.736750
0.797853
1.551376
0.536169
0.477097
-0.212612
0.174642
-0.120522
0.209744
-0.160982
0.480053
-0.592883
0.093613
-0.389556
0.111933
-0.193715
0.325380
-0.564607
0.286666
-0.060072
0.043531
-0.719024
0.169051
-0.367476
-0.167908
-0.486775
-0.559158
-0.091842
1.100269
0.287608
1.222932
1.019376
0.382887
0.190295
0.303943
-0.396668
-0.141440
-0.507328
0.482646
-0.492035
0.390393
-0.442539
0.355450
-0.421311
0.186958
-0.444723
0.713365
-0.328869
0.500407
-0.275180
0.419630
-0.408451
0.584374
-0.123660
-0.038326
-0.244296
1.025967
0.304257
0.675383
0.532541
0.362422
-0.196737
0.042858
-0.248984
0.452836
-0.739083
0.194916
-0.721189
0.337993
-0.210990
0.445737
-0.000455
0.687967
-0.037713
0.548914
0.178038
0.676800
-0.399919
0.477197
-0.339760
0.551780
-0.339674
0.267604
-0.117572
1.164530
0.582325
0.618645
-0.240467
0.457538
0.090500
0.696847
-0.009811
0.274955
-0.206509
0.093999
-0.711483
0.236613
-0.493938
0.675394
-0.569807
0.046848
-0.311599
0.750084
-0.384369
0.636583
-0.236976
-0.204656
-0.652521
-0.210037
-0.712939
0.290692
-0.303468
0.796622
0.034389
0.372002
0.165546
0.785531
0.405352
0.402490
0.082260
0.328805
-0.545261
0.489573
-0.334108
0.229500
-0.067700
0.207622
-0.475061
0.624528
-0.017233
0.627581
-0.457167
0.546053
-0.510826
0.099216
-0.954310
0.289243
-0.710416
-0.264227
-0.696040
0.709888
0.088568
0.388465
-0.094045
0.684242
0.940049
0.819662
0.294720
0.645870
-0.001773
0.306162
-0.761419
0.635835
-0.450331
0.100119
-0.189928
0.612691
-0.049544
0.885237
-0.484805
0.134878
-0.802322
-0.283753
-1.061569
-0.247794
-1.029761
-0.622308
-0.304286
0.136170
-0.344278
-0.029045
0.162761
0.785135
-0.042017
0.109135
-0.325459
0.076744
-0.336512
-0.272056
-0.733328
0.272883
-0.591040
0.440020
-0.256472
0.475737
-0.194601
0.826031
-0.200334
-0.343967
-0.927592
-0.037292
-1.103238
-0.955849
-1.368498
-0.714964
-0.510983
0.487031
-0.213578
0.129543
-0.402694
0.547962
-0.067012
-0.053052
-0.173490
0.244324
-0.941585
-0.186688
-0.733747
0.264809
-0.249155
0.416569
-0.583706
0.306193
0.190811
0.566571
-0.548786
0.180888
-0.859994
-0.359044
-0.597894
-0.841697
-1.463846
-0.950382
-0.390506
-0.045899
-0.298381
-0.114587
-0.807510
-0.252220
-0.068333
0.236745
-0.218161
-0.190885
-0.724940
0.067500
-0.180756
0.298589
0.003305
0.651626
-0.589148
0.356635
-0.105525
0.785819
-0.373806
0.249221
-0.843326
-0.283891
-0.871692
-0.265119
-0.879020
-0.224572
-0.151177
0.321698
-0.398726
0.235843
-0.430803
0.269443
-0.607233
0.287937
-0.508580
0.059082
-0.876116
-0.196843
-0.733444
0.037216
-0.581599
0.069713
-0.333944
0.612298
0.127560
0.365051
-0.027153
0.278146
-0.726246
0.373946
-0.149428
0.359199
-0.637285
-0.223645
-0.618469
0.394686
-0.405466
0.363255
-0.423433
-0.102238
-0.361979
0.177162
-0.610881
-0.256665
-0.981570
0.290236
-0.630740
0.394077
-0.556224
0.591704
-0.415681
0.440131
-0.652421
0.304886
-0.036962
0.698114
-0.298318
0.496011
-0.256215
0.303297
-0.508258
0.357497
-0.436099
-0.218423
-0.760513
0.694423
-0.049035
0.557722
-0.579737
0.342165
-0.863830
0.147779
-0.898691
0.414981
-0.159773
0.651063
-0.245398
0.060204
-0.335550
0.105433
-0.594066
0.321624
-0.162755
0.918568
0.045204
0.306407
-0.278318
0.387435
-0.645524
0.163615
-0.890188
0.164445
-0.457480
-0.018855
-0.270091
-0.135408
-0.026609
-0.138005
-0.434011
0.090754
-0.277729
0.661821
-0.331521
0.104790
-0.466458
0.501694
-0.049376
0.012058
-0.513296
0.598792
0.257560
0.784368
-0.136847
0.694807
-0.241542
0.430392
-0.273786
0.315925
-0.084483
0.237166
-0.374306
-0.114395
-0.766535
0.019056
-0.647925
-0.099171
-0.409213
0.145414
-0.739712
0.106377
-0.655983
0.063851
-0.097747
0.318788
-0.162623
0.564203
-0.106549
0.295977
-0.421950
0.836525
-0.427308
0.902867
-0.121843
0.656691
-0.239544
0.523426
0.056480
0.214799
-0.569551
0.292527
-0.457508
0.152244
-0.717036
-0.062128
-0.574089
0.038350
-0.441917
0.606241
-0.375860
0.391036
-0.027687
0.344990
-0.454936
0.125434
-0.664799
0.622599
-0.675818
0.121533
-0.097893
0.592925
0.047041
0.193206
-0.405647
0.638659
-0.332824
0.493089
-0.049938
0.529284
-0.584591
0.608865
-0.214683
0.021455
-0.396087
0.043897
-0.134855
0.152169
-0.150649
0.572275
-0.057191
0.526485
-0.263336
0.084878
-0.171475
0.018632
-0.209179
0.147289
-0.623766
0.210957
-0.219399
0.068813
-0.062017
0.283395
-0.088471
0.627850
-0.141563
0.452525
-0.418657
0.236678
-0.281437
0.275780
-0.174731
0.495645
-0.340263
0.536444
-0.538819
0.479058
-0.688606
-1.044254
0.351333
-0.045797
0.515952
-0.614668
0.130675
-0.687427
0.632940
-0.340987
0.122679
-0.568770
0.540939
-0.348026
0.636636
-0.604115
0.627350
-0.027021
0.527486
-0.077293
0.477490
-0.246094
0.312238
-0.058911
0.531545
-0.479325
0.551794
-0.174669
0.315770
-0.390613
0.653727
-0.304376
0.380081
-0.305059
0.350173
-0.196032
0.219769
-0.479311
0.189214
-0.149562
0.136521
-0.312983
0.047444
-0.629496
0.620996
-0.680995
0.481860
-0.623433
0.664386
-0.395217
0.655120
-0.458096
0.643371
-0.307428
0.518027
-0.474491
0.045528
-0.369821
0.649160
-0.361297
0.060434
-0.602887
0.669798
-0.439628
0.211775
-0.297577
0.723275
-0.279545
0.308143
0.054900
0.622227
-0.193891
0.431751
-0.548308
0.286451
-0.272392
0.692397
0.204696
0.451299
-0.364435
0.559358
-0.184957
0.300496
-0.389410
0.471314
-0.116145
0.164957
-0.516842
0.485209
-0.123093
0.162584
-0.562953
-0.033415
-0.130946
0.337995
-0.209544
0.497801
-0.131282
0.620826
-0.399694
0.468346
-0.206029
0.321380
0.663731
1.283957
0.699110
1.152081
0.293628
0.529312
-0.639168
0.137924
-0.059934
0.200305
-0.429241
0.444831
-0.671667
0.544642
-0.620895
0.454823
-0.457827
-0.014299
-0.784791
0.169557
-0.197443
0.032765
-0.512730
0.123331
-0.580925
0.574664
-0.432100
0.390923
-0.055674
0.490453
0.269214
0.835632
-0.049439
0.110503
-0.137516
0.077426
-0.388252
0.140584
-0.209440
0.418737
-0.340912
0.638713
-0.186477
0.284689
-0.580042
-0.160108
-0.225288
-0.053566
-0.204818
-0.159092
-0.401879
-0.080498
-0.638621
-0.461607
-0.557946
-0.174866
-0.198942
0.364267
-0.340639
0.536551
-0.687104
0.007469
-0.341995
0.285289
-0.427463
0.216722
-0.538573
0.698022
-0.364685
0.050500
-0.423188
-0.049033
-0.818172
0.277521
-0.411740
0.253851
-0.712636
0.227585
-0.709390
-0.496001
-0.702494
-0.258186
-0.330054
0.420757
-0.646484
0.167778
-0.270681
0.042900
-0.968259
-0.041188
-1.169942
0.184321
-0.196789
0.004240
-0.264163
0.398071
-0.263625
0.088707
-0.397137
0.523703
-0.295438
-0.121680
-0.743230
0.236668
-0.641997
0.025051
-0.825874
0.652803
-1.011496
0.398286
-0.672396
0.298310
-0.982727
-0.838634
-1.152589
-0.752537
-0.926709
-0.397904
-1.217375
0.175856
-0.435843
0.371308
-0.398722
0.289751
-0.478962
0.634790
-0.680766
-0.049246
-0.154520
0.191842
-0.656852
0.320498
-0.446693
0.295883
-0.068646
-0.113733
-0.180709
0.182805
-0.517950
-0.690561
-1.268698
-0.544650
-1.587017
-0.401499
-1.388683
-0.472474
-0.838980
-0.477487
-0.322858
0.490345
-0.596355
0.272512
-0.327125
0.289009
-0.535070
0.028682
-0.386841
0.408555
-0.013390
0.553033
-0.127598
0.230399
-0.477423
0.076774
0.158927
0.342383
-0.914334
-0.424066
-0.865622
-0.877977
-1.038589
-0.430125
-1.217696
-0.526090
-0.656425
0.247179
-0.730199
0.027524
-0.605663
0.554594
-0.024524
0.531444
-0.153201
0.318083
-0.225118
0.792323
-0.163840
0.600223
-0.061695
0.442996
-0.663234
0.404861
0.145504
0.423591
-0.126313
0.213496
-0.401556
0.083174
-0.304803
0.159200
-0.337366
0.126105
-0.860707
-0.054071
-0.199236
0.435168
-0.078766
0.555110
-0.671219
0.022556
-0.439674
0.690710
-0.570417
0.725650
-0.001555
0.736069
0.104659
0.142320
0.079184
0.456387
0.031731
0.199977
-0.428283
-0.146353
-0.594548
0.416812
-0.157919
0.623734
-0.231385
0.227381
-0.147328
0.667667
-0.178630
0.060543
-0.121951
0.245124
-0.601034
0.232816
-0.119976
0.501131
-0.267652
0.750662
-0.246232
0.259882
0.080610
0.117295
-0.612498
0.073682
0.237102
0.325635
-0.068749
0.386853
-0.079147
0.542668
-0.172325
0.746740
0.178328
0.754289
0.094854
0.743494
-0.083283
0.689201
-0.411821
0.347998
-0.055658
0.665750
-0.626240
0.511592
-0.267461
0.697551
-0.342205
0.502525
-0.054417
0.357782
-0.055480
0.230637
-0.828443
0.142890
-0.440364
0.640851
0.077369
0.392332
-0.177395
0.401772
0.222128
0.724587
-0.023982
0.907129
0.099107
0.388415
-0.437615
0.228492
-0.311649
0.270409
-0.609416
0.188149
-0.409556
0.392915
-0.213648
0.257619
-0.279069
0.094826
0.272653
-0.001175
-0.533658
-0.173069
-0.127567
-0.101398
-0.167961
-0.013073
-0.287139
0.639933
0.214290
1.005921
-0.219754
0.754129
-0.096014
0.422552
-0.481703
0.220411
-0.124058
0.205114
-0.543647
0.192090
-0.692809
0.297105
-0.253420
0.368769
-0.256493
0.015110
-0.459843
0.110485
-0.606772
0.068164
0.075753
0.168041
-0.424549
0.472712
0.309932
0.412601
-0.237751
0.451032
-0.005736
0.137108
-0.049978
-0.155605
-0.754493
0.171874
-0.513607
0.470780
-0.437451
0.336263
-1.003486
-0.024990
-0.389941
0.289691
-0.374199
0.381474
-0.511357
0.005076
-0.174069
0.359585
0.044006
-0.091993
-0.501848
0.665238
-0.354266
0.532263
-0.226794
0.743219
-0.132269
0.113308
-0.242322
0.037007
-0.369049
0.161407
-0.262336
0.320542
-0.390765
-0.130114
-0.432619
-0.069805
-0.214383
0.017956
-0.183382
0.231640
-0.489183
0.453588
-0.325599
0.390648
-0.877457
-0.533281
-0.395624
-0.057248
-0.123016
0.296794
0.064918
0.251719
-0.693105
0.363248
-0.387952
-0.057547
-0.736286
0.340286
-0.391529
0.323246
-0.508927
0.460145
-0.966884
-0.053786
-0.073152
0.082896
0.133470
0.301150
0.430796
0.590366
0.095183
0.420040
-0.531019
-0.013226
-0.061553
0.230638
0.248948
0.218065
-0.315796
0.608915
-0.664044
0.325762
-0.433144
0.445211
-0.087375
0.445092
-0.681813
0.064438
-0.089921
0.226912
-0.645317
0.248354
-0.630677
0.287828
0.208824
0.774925
0.526748
0.960499
0.306242
0.519324
-0.280956
0.561541
0.039822
0.869239
0.148068
0.281971
-0.271338
0.335905
-0.380827
0.270101
-0.447111
0.126700
-0.022694
0.518513
-0.028465
0.160338
-0.203581
-0.128923
-0.423069
-0.009457
-0.620159
0.041561
-0.329531
0.294744
0.488143
0.990250
-0.017222
0.824700
0.257427
0.345574
0.448499
0.490664
-0.270851
-0.214372
-0.739513
0.122356
-0.904982
0.216685
-0.623195
0.297641
-0.136656
0.095375
-0.494285
0.213570
-0.549124
0.382740
-0.403983
0.025298
-0.744675
0.101684
-0.596050
0.535402
-0.044809
0.493476
0.551340
1.016082
0.393496
0.683421
-0.116937
0.473181
-0.611045
0.496227
-0.774435
-0.192522
-0.347435
0.428951
-0.441848
0.036000
-0.364631
0.231504
-0.342980
0.573311
-0.262573
0.111436
-0.725397
0.107076
-0.793439
-0.179336
-0.600713
0.394812
-0.640401
0.039072
0.104158
0.183559
-0.521014
-0.017543
-0.549205
0.555468
-0.362664
0.010523
-0.970369
0.032726
-0.274628
0.236682
-0.319134
0.290341
-0.210835
0.039801
-0.326259
0.575479
-0.275385
0.659178
-0.404874
0.524418
-0.277065
0.049203
-0.563746
-0.491478
-1.230670
-0.616660
-1.747860
-0.437045
-0.881229
-0.035150
-1.499308
-0.178569
-0.466741
0.378451
-0.386838
0.247444
-0.082071
0.320750
-0.407251
0.307225
-0.604221
0.034673
-0.597669
0.115057
-0.074434
0.224280
-0.689609
0.306029
-0.277807
0.241776
-0.328695
0.146439
-0.215649
0.045593
-0.676016
0.173549
-0.518667
0.013183
-0.426811
0.143777
-0.299397
0.218460
-0.051943
0.232367
-0.081584
0.391145
-0.494134
0.193689
-0.699273
0.212512
-0.500961
0.603495
-0.246684
0.399413
-0.017261
0.320493
-0.631647
0.004875
-0.685806
0.096671
-0.390340
0.205056
-0.469302
0.359803
-0.569231
0.097322
-0.212419
0.157690
-0.237523
0.636547
-0.405014
0.449029
-0.071433
0.530823
-0.630903
0.205248
-0.209567
0.430829
-0.398952
0.208840
-0.643270
0.200068
-0.112209
0.190668
-0.598215
0.137825
-0.499564
0.540288
-0.116882
0.496429
-0.616387
0.552822
-0.632743
0.382844
-0.180160
0.595606
-0.415454
0.449185
-0.007583
0.041229
-0.276224
0.496282
-0.449224
0.377080
-0.322388
0.380127
-0.582329
0.531955
-0.110956
0.281281
-0.040797
0.054313
-0.480923
0.153543
-0.244412
0.379698
-0.283683
0.058685
-0.199832
0.424822
-0.535789
0.142420
-0.241844
0.520883
-0.496038
0.432705
-0.417427
0.218831
-0.166756
0.432739
-0.264487
0.444106
-0.228812
2.758624
0.121187
-0.551200
0.393838
-0.003516
0.383155
-0.504794
0.284796
-0.423950
0.559091
-0.065989
0.577080
-0.021085
0.445725
-0.161097
0.160924
-0.646561
0.585075
-0.697555
0.084222
-0.125365
0.525208
-0.574063
0.562721
-0.238188
0.097420
-0.029500
0.670927
-0.361907
0.473607
-0.199739
0.375618
-0.594793
0.050939
-0.069456
0.598296
-0.434104
0.574239
-0.183104
0.158223
-0.433180
0.249119
-0.037194
0.535079
-0.710508
0.182572
-0.699210
0.641385
-0.081310
0.695722
-0.025605
0.206659
-0.573536
0.599667
-0.069381
0.059130
-0.697087
0.098881
-0.030057
0.358993
-0.575197
0.229898
-0.036391
0.465653
-0.273728
0.093104
-0.359680
-0.012838
-0.692343
0.445740
-0.308797
0.218922
-0.305920
0.037627
-0.386533
0.029659
-0.453696
0.200130
-0.086096
0.445951
-0.266484
0.058828
-0.692171
0.063765
-0.659261
0.061552
-0.122895
0.656349
-0.149961
0.162482
-0.303196
0.062868
-0.327392
0.409923
-0.426502
0.759584
-0.359262
0.219561
-0.505228
0.542035
0.078838
0.285392
-0.155801
0.070676
-0.492865
0.186649
-0.430952
-0.127418
-0.845614
0.145997
-0.591029
0.182820
-0.298473
0.541077
-0.246578
0.257739
-0.576971
0.398223
-0.195448
0.149880
-0.423220
0.648752
0.124854
0.481598
-0.048075
0.522757
-0.034255
0.664216
-0.044240
0.359138
-0.213544
0.141130
-0.317725
0.067484
-0.513184
0.376170
-0.465425
0.253783
-0.033324
0.162965
-0.632537
0.569632
-0.325415
0.227344
-0.389559
0.595877
-0.446248
0.503379
0.005105
0.381257
-0.168766
0.473900
-0.453524
0.349978
-0.060183
0.119872
-0.331702
0.490812
-0.271921
0.285288
-0.445758
-0.064450
-0.646410
-0.035599
-0.414889
0.604555
-0.017041
0.389679
-0.389358
0.160898
-0.465639
0.319626
-0.016562
0.113007
-0.470396
0.722851
-0.482503
0.676934
0.303827
0.823715
0.269702
0.473026
-0.284518
-0.157333
-0.497668
0.170988
-0.176804
0.446414
-0.461474
-0.135277
-0.383597
-0.031336
-0.364753
0.191903
-0.040017
0.669467
-0.076795
0.483691
-0.170006
0.541994
-0.530522
0.784664
0.224421
1.101438
0.546909
1.355292
0.270404
0.463390
0.090828
0.291553
-0.228284
0.236500
-0.646554
-0.202187
-0.094345
0.519129
0.328254
0.632907
0.238894
0.765535
-0.085096
0.966361
0.327011
0.419458
-0.658189
0.396038
-0.050870
0.144627
-0.008357
0.561904
-0.110704
0.726307
0.340042
0.363141
0.464434
0.794976
0.272346
0.600873
-0.085416
0.675734
0.248101
0.919039
-0.094758
0.651432
0.148064
0.729106
0.450736
0.847889
-0.170581
1.102450
0.049633
0.649484
-0.341338
0.508566
-0.625305
0.423966
0.031507
0.365476
-0.112119
0.636636
-0.161291
0.138046
-0.318277
0.410213
-0.039503
0.745752
0.114893
1.082058
0.585056
1.081752
-0.033922
1.044445
0.629145
0.483952
-0.012677
0.479125
-0.239676
1.185609
0.383416
0.656272
-0.423200
0.579619
-0.211905
0.146485
-0.206039
0.387272
-0.256558
0.263955
-0.523153
-0.346185
-0.578621
-0.471319
-0.341884
-0.022100
-0.047118
0.644823
0.344768
0.907457
0.184582
0.251963
-0.290830
0.171406
-0.373646
0.112127
-0.398798
0.316801
0.221031
0.191639
-0.102870
0.141998
-0.599893
0.613898
0.181327
0.341190
-0.753434
-0.148124
-0.772512
-0.527137
-0.993823
-0.284437
-0.749997
0.090151
-0.286893
-0.403665
-0.717577
0.110442
-0.203176
0.279615
-0.595981
-0.390361
-0.886130
-0.505521
-0.395949
0.548115
-0.052396
0.454282
-0.093393
0.077993
-0.531928
0.284925
-0.108984
0.477994
-0.280809
-0.124528
-1.081208
-0.250026
-1.076262
-0.168217
-0.138424
-0.469153
-0.667415
-0.718784
-0.845277
-0.391404
-0.293746
-0.667504
-0.597449
-0.177349
-1.647025
-0.394378
-0.731115
-0.072977
-0.122527
0.279461
-0.178059
0.108105
0.013426
0.317452
-0.068905
0.435162
-0.618914
0.095863
-0.478743
-0.020116
-0.216555
0.350022
-0.555847
-0.835181
-1.977659
-0.788143
-0.758957
-0.570951
-0.660610
0.002850
-0.461096
-0.427772
-0.730316
-0.235020
-0.800308
-0.036424
-0.198637
0.562985
-0.404593
0.210064
-0.141259
0.618789
-0.187664
0.147688
-0.109251
0.244471
-0.592804
0.538454
0.252671
0.098480
-0.654970
-1.150303
-1.913482
-1.165469
-0.669148
-0.480211
-1.102361
-0.170409
-0.449250
0.448084
-0.553126
0.143100
-0.839560
0.537985
-0.145909
0.349743
-0.153815
0.301598
-0.197285
0.619384
-0.450530
0.344614
-0.493367
-0.214586
-0.190625
0.413246
-0.417010
0.174278
-0.997660
-1.346478
-1.276999
-0.615069
-1.085735
-0.213375
-0.446767
-0.097843
0.240391
0.456071
-0.302392
0.583848
0.103141
0.338091
-0.252310
0.092965
-0.171294
0.474107
-0.383406
0.356096
0.000953
0.806746
-0.134451
0.450100
-0.495969
0.156853
-0.608252
-0.660328
-1.467416
-0.389509
-1.453822
-0.543945
-0.749413
-0.374219
-0.252335
0.260953
0.506589
0.801728
0.054779
0.460990
-0.286214
0.722208
-0.346104
0.635695
-0.057467
0.040316
-0.645883
0.299217
-0.369567
0.610439
-0.271127
0.454547
-0.495591
-0.488663
-1.301102
-1.045301
-2.197000
-0.920532
-1.252254
-0.622288
-1.267517
-0.244183
-0.429166
0.586098
0.325765
0.203475
-0.094266
0.569024
-0.276226
0.422975
-0.314954
0.241500
-0.115521
0.064606
-0.109934
0.238568
0.070057
0.439530
-0.072149
0.775528
-0.624677
-0.504282
-1.323314
-0.666518
-1.387062
-0.434458
-0.795591
-0.082983
-0.010914
0.041594
0.058226
0.439900
-0.144143
0.334592
-0.173125
0.632727
-0.449745
0.734099
-0.512170
0.316262
-0.161283
0.200264
-0.474958
0.355174
-0.036046
1.049233
0.127613
0.794835
-0.515927
-0.057580
-0.419039
-0.239860
-0.563373
0.399271
0.363961
0.126676
-0.076292
0.044382
-0.113863
0.137009
0.187185
0.151034
-0.078566
0.287826
-0.028785
0.775655
-0.150336
0.694686
-0.513509
0.037914
-0.262306
0.720315
-0.022176
0.561677
0.250716
0.846342
0.071253
0.844020
0.435764
0.609230
0.381851
0.722281
0.714435
1.253789
-0.029087
0.284503
-0.376910
0.680312
0.090609
0.129593
-0.309825
0.690291
-0.359232
0.340035
0.075303
0.705571
-0.081532
0.277712
-0.660816
0.638197
-0.146523
0.773009
0.058124
1.211539
0.570531
1.304273
0.888759
1.417109
0.715978
1.168593
0.156630
0.815351
-0.083822
0.532676
0.167259
0.559163
-0.323415
0.404809
0.154530
0.277781
-0.364875
0.274634
-0.572469
0.490116
-0.281286
0.065867
-0.463912
0.386337
-0.227463
0.849598
0.376996
1.217988
0.165713
0.816414
0.428106
1.156318
0.599001
0.685742
-0.211792
0.460020
-0.486370
0.540869
0.553912
0.747887
-0.359823
0.398443
-0.010861
0.567104
0.071383
0.635107
-0.555476
0.646636
-0.601552
0.611523
-0.424066
0.184277
-0.582066
0.522256
-0.023825
0.840192
-0.180489
0.711727
0.365907
0.919961
0.381816
0.276732
0.063469
0.198988
-0.056530
0.559771
-0.198448
0.567797
-0.567272
0.194943
-0.634283
0.528593
-0.249262
0.030730
-0.290354
0.312718
-0.493877
0.235619
-0.257657
0.395600
-0.093671
0.906023
-0.193720
0.505660
0.238314
0.725497
-0.157749
0.079012
-0.089505
0.629309
0.130799
0.640949
0.306581
0.411108
-0.390701
0.393030
-0.913198
0.120775
-0.841106
0.345427
-0.181444
0.364180
-0.302919
0.345687
-0.376987
0.607545
-0.658227
0.170852
-0.104287
0.317175
-0.421052
0.577536
0.069625
0.669032
-0.118361
0.912859
0.463697
0.786360
0.351016
0.589145
0.290453
0.546381
-0.066862
0.263870
-0.469104
-0.174480
-0.874327
0.230431
-0.338966
0.600428
-0.165168
0.412958
-0.269243
0.468056
-0.058644
0.646230
-0.375605
0.027886
-0.090307
0.587567
-0.143024
0.696980
-0.114583
0.560229
-0.176361
0.814026
0.190161
0.941153
-0.172743
0.811403
-0.413215
0.329286
-0.064732
0.723665
-0.468748
0.710711
0.006289
0.471780
-0.312155
0.353478
-0.376896
0.477313
-0.066435
0.646139
-0.245369
0.125636
-0.591679
0.622326
-0.133791
0.045992
-0.392480
0.449219
-0.602264
0.596790
-0.055878
0.474484
-0.316138
0.256909
-0.195680
0.461197
0.002507
0.237207
-0.533925
0.288832
-0.187262
0.312350
-0.251136
0.228740
-0.084133
-0.294778
0.582217
-0.461029
0.340604
-0.648653
0.407167
-0.585973
0.073732
-0.299536
0.506942
-0.215682
0.309000
-0.203307
0.591227
-0.301010
0.095475
-0.695452
0.022652
-0.468303
0.198064
-0.339881
0.126086
-0.247346
0.554515
-0.656629
0.534364
-0.056953
0.268979
-0.085500
0.285692
-0.353112
0.648791
-0.167910
0.114141
-0.279408
0.144365
-0.489701
0.202578
-0.145490
0.164766
-0.659461
0.409062
-0.419283
0.237023
-0.287140
0.037768
-0.318300
0.292751
-0.054339
0.092853
-0.489787
0.394318
-0.234556
0.037222
-0.248744
0.175481
-0.571586
0.305697
-0.444460
0.657086
-0.591389
0.097574
-0.595887
0.089203
-0.159593
0.264842
-0.079420
0.136678
-0.265528
0.406872
-0.106540
0.385244
-0.019791
0.631346
-0.531092
0.390485
-0.602620
0.213631
-0.658047
0.671040
-0.298914
0.450228
-0.363982
0.518016
-0.487407
0.612727
-0.693496
0.358993
-0.218427
0.437976
-0.305479
0.140429
-0.462372
0.329948
-0.041839
0.159707
-0.331972
0.400267
0.002744
0.180176
0.127627
0.352412
-0.354755
0.147397
-0.072705
0.350815
-0.481377
0.035602
-0.544459
0.412137
-0.003003
0.128317
-0.162253
0.366987
-0.646332
0.649658
-0.279891
0.622016
-0.308575
0.527131
-0.297580
0.771671
-0.512457
0.238570
-0.243696
0.001732
-0.311898
0.527784
-0.357310
0.489888
-0.541519
0.532965
-0.488443
0.440933
-0.519994
0.660637
-0.043679
0.249361
-0.026316
0.544519
-0.680259
0.029048
-0.672836
0.142509
-0.397482
0.587596
-0.146669
0.601393
-0.623945
0.335076
-0.446039
0.406251
-0.134910
0.572933
-0.308805
0.591503
-0.378116
0.002744
-0.342812
0.229752
-0.285497
0.360698
-0.597001
0.202832
-0.736740
0.435367
-0.219152
0.695941
-0.698733
0.245265
-0.540458
0.681502
-0.258285
0.471297
-0.284910
0.496829
-0.582585
0.071026
-0.523601
0.491170
-0.127561
0.796102
-0.061897
0.799177
0.137528
0.305093
-0.182555
0.618727
-0.287749
0.335434
-0.046255
0.627708
-0.671210
0.645492
-0.157751
0.617073
-0.386351
0.386143
-0.612999
0.398126
-0.634920
0.441923
-0.464980
0.047815
-0.476604
0.378775
-0.089818
0.909917
-0.560402
0.861160
0.377347
1.231356
-0.343084
0.221511
-0.075125
0.543241
-0.297142
0.111080
-0.561934
0.632210
-0.571927
0.531902
-0.612663
0.451330
-0.502145
0.093599
-0.367744
0.194346
-0.454407
0.256488
-0.613132
0.319089
-0.157581
0.158936
-0.488233
0.481117
0.191580
0.217265
0.267208
0.238548
-0.329572
0.658518
-0.674306
0.174757
0.085507
0.127130
0.015552
0.398674
-0.286529
0.550549
-0.367808
0.071190
-0.352042
0.320091
-0.515865
0.184702
-0.331905
0.228711
-0.284307
0.159787
-0.494909
0.308164
-0.588333
0.715234
-0.447895
0.788531
-0.161443
0.434428
-0.725282
0.388335
-0.394868
0.445123
0.075013
0.592293
-0.158629
0.324808
-0.510836
0.237856
0.000908
0.088123
-0.692590
0.408357
-0.140182
0.376868
0.087616
0.752505
-0.438836
0.463285
-0.123194
0.172090
-0.460972
0.910529
-0.464701
0.876256
-0.093957
0.692758
0.039669
0.762621
-0.090557
0.423872
0.172828
0.568451
-0.296936
0.554227
-0.136182
0.648388
-0.140032
0.649034
-0.076177
0.173964
-0.017523
0.127643
-0.477407
0.247631
-0.371251
0.621119
-0.188707
0.234227
-0.290554
0.307954
-0.060826
0.433640
-0.046959
-0.072386
-0.145534
0.774904
-0.098880
0.833818
-0.237166
0.220262
0.006117
0.116137
-0.338566
0.580852
-0.566560
0.524751
-0.352687
0.101679
-0.437654
0.480276
-0.192108
0.487064
-0.542908
0.065106
-0.703296
0.124731
-0.187712
0.086965
-0.254722
0.360989
0.005309
0.001865
0.069550
0.376520
0.234719
0.205016
0.064637
0.380645
-0.602771
0.509580
-0.238188
0.740837
-0.569809
0.641928
-0.378011
0.573114
-0.419488
0.150053
-0.597859
0.198121
-0.528125
0.194298
-0.184975
0.128377
-0.470662
0.164478
-0.257050
0.290739
-0.359217
0.167664
-0.751563
0.960740
-0.247693
0.025822
-0.605759
0.418616
-0.312150
0.564572
-0.608359
0.361911
-0.356696
0.298868
-0.251493
0.368632
-0.111026
0.032075
-0.138530
0.546720
-0.071642
0.269394
-0.158942
0.527129
-0.328998
0.172495
-0.229631
-0.110962
-0.358229
-0.407297
-0.410580
0.538681
-0.389708
0.126764
-0.441957
0.033820
-0.241775
0.061573
-0.410885
0.801552
-0.542972
0.519287
-0.263713
0.365650
-0.669846
0.520820
0.027063
0.054467
-0.447570
0.278261
-0.593806
0.545071
-0.158708
-0.009677
-0.276593
0.066272
-0.451114
-0.229987
-0.141932
0.397685
0.425397
0.392343
-0.204021
0.137058
-0.246518
0.760054
0.063791
0.284836
-0.559399
0.615583
-0.190434
0.550184
-0.376475
0.455010
-0.153590
0.374876
-0.175955
0.314368
-0.249079
0.217271
-0.198158
0.584896
0.334131
0.238275
-0.943599
0.215056
-0.263964
0.703820
0.112800
0.731312
0.040665
0.589619
-0.486451
0.678776
-0.277611
0.617665
-0.392633
0.444306
-0.028007
0.350285
-0.340431
0.217709
-0.123382
0.136065
-0.513411
0.497032
-0.206812
0.444909
-0.508943
0.513100
-0.022549
0.771227
-0.564711
0.228378
-0.982140
-0.149604
-0.290025
0.534072
-0.029415
0.700550
-0.169547
0.229160
-0.537294
0.415532
-0.559019
0.339067
-0.123367
0.340749
-0.067621
0.165380
-0.615393
0.511530
-0.248639
0.342338
-0.110100
0.556122
-0.550320
0.305526
-0.100730
1.152566
-0.154494
-0.108438
-1.001183
0.108958
-0.420739
0.529309
0.027000
0.386556
-0.244101
0.353675
-0.323675
0.154013
-0.176662
0.410222
-0.357670
0.138769
-0.019258
0.516529
-0.408218
0.218652
-0.569044
0.639354
-0.236533
0.587179
-0.662640
0.714728
0.240891
1.110025
-0.005918
0.562484
-0.359923
0.765048
-0.143955
0.374652
-0.534779
0.453371
-0.365921
0.695612
-0.127280
0.411700
0.001602
0.609100
-0.426596
0.241313
-0.304779
0.188507
-0.249137
0.419366
-0.521059
0.236206
-0.285393
0.683077
-0.402891
0.456126
-0.079715
1.032170
-0.152962
0.386442
-0.393650
-0.044325
0.104358
0.282709
-0.408859
0.480481
-0.319086
0.347723
-0.325920
0.239548
-0.132434
0.550464
-0.562564
0.149787
-0.459469
0.378496
-0.280712
0.111797
-0.322011
0.130878
-0.299052
0.402188
0.298389
0.662002
0.227213
0.643686
-0.210361
0.364968
-0.146579
-0.418760
-1.236702
0.237779
-0.424701
0.342604
-0.092486
0.592839
-0.467508
0.352140
-0.149578
0.193532
-0.544427
0.283651
-0.043751
0.491384
-0.341113
0.511235
-0.725779
0.134946
-0.487737
0.460515
0.154953
1.018958
-0.235232
1.027572
0.209536
0.428766
-0.553222
0.233536
-0.677076
0.339083
-0.796037
0.490527
-0.479419
0.036738
-0.072838
0.486436
-0.641061
0.574074
-0.115553
0.091587
-0.067623
0.660032
-0.370260
0.105327
-0.388681
0.113656
-0.572705
0.431929
-0.128387
0.642593
0.433496
0.666234
0.100478
-0.081543
-0.237404
0.154516
-0.632592
-0.353206
-0.706923
-0.237722
-0.768168
0.286734
-0.702723
0.443236
-0.400529
0.020675
-0.216339
0.340907
-0.595043
0.331868
-0.430067
0.657231
-0.287485
0.117022
-0.032928
0.708921
-0.126119
0.799057
-0.089451
0.745987
-0.228179
0.662721
0.036764
0.587770
-0.265474
0.198145
-0.684977
0.259338
-0.663034
0.481588
-0.706873
0.367965
-0.197708
0.628817
-0.099489
0.596798
-0.649482
0.315829
-0.237703
0.545377
-0.646867
0.673960
-0.500624
0.251857
-0.062091
0.603361
-0.139006
0.411627
-0.458302
0.583199
0.039575
0.499720
0.013707
0.403993
-0.119000
0.620919
-0.502932
0.353138
-0.485046
0.234515
-0.204258
0.440206
-0.593670
0.402335
-0.368603
0.693159
-0.299133
0.318081
-0.308987
0.536841
-0.162581
0.256721
-0.506858
0.669897
-0.493947
0.612265
-0.508624
0.715241
-0.131232
0.500001
-0.274165
0.436819
0.067050
0.088791
-0.398584
0.228613
-0.588999
0.303173
-0.560955
0.364155
-0.535709
0.065472
-0.104098
0.429379
-0.467806
0.472701
-0.422538
0.066975
-0.090749
0.031567
-0.603724
0.253492
-0.275723
0.427039
-0.199795
0.097007
-0.289089
0.084490
-0.020482
0.534297
-0.467865
0.613725
-0.684568
0.569955
-0.597478
0.444165
-0.067149
0.489966
-0.046492
0.257503
0.154120
-0.582201
0.693576
-0.258218
0.311580
-0.461382
0.030918
-0.034119
0.528320
-0.121704
0.065646
-0.449402
0.374718
-0.354261
0.142490
-0.598710
0.438418
-0.438686
0.672519
-0.517692
0.213773
-0.467644
0.412099
-0.212135
0.324237
-0.311119
0.656300
-0.391386
0.101085
-0.002793
0.319490
-0.255205
0.584994
-0.310842
0.518823
-0.182744
0.091126
-0.530855
0.250248
-0.594183
0.678186
-0.289472
0.341643
-0.353046
0.612270
-0.515924
0.235475
-0.387569
0.218295
-0.210257
0.208066
-0.445050
0.679599
-0.618428
0.642365
-0.303835
0.229547
-0.598665
0.695234
-0.329354
0.602059
-0.311350
0.593082
-0.479671
0.654008
-0.391386
0.708851
0.017324
0.249674
-0.206275
0.621681
-0.194159
0.543880
-0.232064
0.591971
-0.397159
0.070818
-0.031909
0.188507
-0.219566
0.304359
-0.353104
0.664317
-0.281778
0.273673
-0.606682
0.585626
-0.501594
0.506538
-0.594854
0.111789
-0.428320
0.171939
-0.073707
0.088065
-0.242476
0.321465
-0.283106
0.093240
-0.685393
0.357641
0.007398
0.299517
0.042933
0.514497
0.206059
0.825997
-0.142811
0.159507
-0.086055
0.480228
-0.415389
0.464499
-0.486428
0.697139
-0.037872
0.400840
-0.624643
0.442642
-0.387920
0.149240
-1.062771
0.106155
-1.003382
0.226632
-0.401166
-0.252230
-0.763292
-0.023960
-0.214014
0.477831
-0.278363
0.577214
-0.186806
0.318382
-0.307915
0.633297
-0.203528
0.048088
-0.685403
0.234456
-0.619103
0.406845
-0.691834
0.364109
-0.520266
-0.169830
-0.341087
-0.137043
-0.945754
-0.119401
-0.488506
0.055081
-0.398139
-0.009312
-0.504227
0.374299
0.241832
0.572701
-0.178293
0.613568
-0.543174
0.673110
-0.502937
0.377084
-0.163678
0.302904
-0.359765
0.130550
-0.437983
0.354816
-0.360455
0.271764
-0.167882
0.111149
-0.389652
-0.119191
-0.863121
-0.345048
-0.452656
-0.129099
-0.837682
-0.280365
-0.184091
0.548652
0.127289
0.666493
-0.136824
0.136451
-0.207358
0.123789
-0.580106
-0.118677
-0.941452
0.176254
-0.682569
0.686658
-0.612180
0.350676
-0.108382
0.270422
-0.713723
0.331109
-0.212637
-0.231226
-0.383928
-0.160296
-0.935348
0.270767
-0.518132
0.216680
-0.288525
0.500921
-0.462753
0.378094
-0.309585
0.413954
-0.581913
-0.295564
-0.487284
-0.183398
-0.894447
0.350099
-0.688498
0.344561
-0.080355
0.685728
-0.265606
0.057910
-0.320836
0.353146
-0.457505
-0.106435
-0.587558
-0.134714
-0.520068
-0.005310
-0.758863
-0.077691
-0.291116
-0.073078
-0.154317
0.576700
0.139888
0.219612
-0.741716
0.279633
-0.706410
-0.492695
-0.822081
0.194246
-0.606341
0.547667
-0.143110
0.629660
-0.084588
0.397792
-0.386566
0.369481
-0.302422
-0.052741
-0.471414
0.359851
-0.420447
0.237155
-0.277789
0.458550
-0.000522
0.291350
0.001332
0.862825
0.296608
0.429504
-0.483297
0.154443
-0.301944
0.034995
-0.725587
0.218196
-0.612190
0.290234
-0.666844
0.559632
-0.057708
0.332115
-0.112112
0.407727
-0.303205
0.233168
-0.180767
0.436518
-0.132649
0.333921
-0.541586
0.505839
0.238027
0.375417
-0.094624
0.747417
0.124762
0.535255
-0.036229
0.597456
-0.004407
0.021959
-0.974499
0.071987
-0.164579
0.071655
-0.446742
0.127090
-0.307456
0.598382
-0.295170
0.796446
-0.226875
0.152865
-0.149427
0.339633
-0.652728
-0.072557
-0.399117
0.348897
-0.727664
-0.217612
-0.702408
0.459005
-0.196952
0.670406
0.754904
0.831279
-0.028006
0.625104
-0.106834
0.684843
-0.254308
0.699868
-0.091375
0.476949
-0.090428
0.659215
-0.083012
0.980089
0.080924
0.336158
-0.057083
0.365487
-0.704144
0.138879
-0.948789
-0.112938
-1.118412
-0.808097
-0.426839
0.480026
-0.313476
0.205047
-0.038187
0.730156
0.387280
0.730901
-0.313035
0.249319
-0.299394
0.349458
-0.233453
0.654768
-0.366113
0.423173
0.132871
1.056104
0.073015
0.336170
0.369518
0.819084
-0.539339
-0.019601
-1.032838
-0.716453
-0.998348
-0.255743
-0.863000
0.312762
-0.254354
-0.048164
-0.217676
0.947760
0.540554
0.924883
-0.396975
0.599790
-0.439325
0.098400
-0.113919
0.114694
-0.465535
0.484438
-0.217054
0.527200
0.472013
0.514204
-0.097587
0.421649
-0.604979
-0.084136
-0.836028
-0.666278
-0.686096
-0.348664
-0.504727
0.303575
-0.343021
0.018620
-0.328235
0.660493
0.138387
0.791943
-0.510852
0.053945
-0.516061
0.386203
-0.619540
0.256178
-0.580141
0.182304
0.058750
0.646714
0.214635
0.799149
0.082645
0.631472
-0.872013
-0.503989
-1.621818
-0.698505
-0.482536
-0.111625
-0.251300
0.601402
-0.128685
0.292047
-0.285152
0.768333
-0.126134
0.466807
-0.039495
0.464090
-0.270499
0.044413
-0.554340
0.068546
-0.514964
0.601584
0.022021
0.589446
0.003170
1.150091
0.106271
0.576161
-0.290303
-0.641928
-1.716305
-0.616147
-0.387843
0.119200
-0.517041
0.548004
0.347496
0.363433
0.031829
0.488600
-0.450330
0.198534
-0.364464
0.550966
-0.679647
0.496254
-0.406451
0.200644
-0.671417
0.259884
-0.272800
0.350447
0.219310
0.913802
-0.091854
0.874255
-0.424332
-0.398038
-0.783621
-0.426908
-0.725773
0.078683
-0.344104
0.592879
-0.484136
0.181435
-0.125386
0.579931
-0.482687
0.143728
-0.525109
0.491755
-0.568503
0.110567
-0.490320
0.488181
-0.770711
0.008431
-0.207855
0.283975
-0.416543
0.498248
0.321126
0.895256
-0.162481
0.076130
-0.595059
-0.261632
-0.497467
-0.149551
-0.062415
0.482340
-0.403836
0.366273
-0.344534
0.268358
-0.170960
0.014316
-0.414768
0.029403
-0.632221
0.031197
-0.655231
0.475847
-0.335634
0.211372
-0.586516
-0.423846
-0.889312
0.075050
-0.380246
0.803538
-0.682293
0.458344
-0.383753
-0.238613
-0.536317
0.141687
-0.484804
0.243268
-0.223266
0.190092
-0.646146
0.581100
-0.560546
-0.177016
-0.364011
0.611237
-0.435364
0.522821
-0.012578
0.365959
-0.763880
0.304489
-0.567511
0.225478
-0.607656
0.057698
-0.203999
0.596674
0.080749
0.545958
0.062525
0.028559
-0.471970
-0.000438
-0.374413
0.181122
-0.366030
-0.340219
-0.277080
0.305610
-0.829370
-0.240447
-0.303030
0.364232
-0.108594
0.481404
-0.307707
0.533828
-0.473074
-0.089897
-0.472307
-0.133667
-0.509182
0.184358
-0.238116
0.059806
0.127986
0.682922
0.102195
0.530163
-0.417951
0.527638
-0.487169
0.053828
-0.889163
-0.012752
-0.953484
-0.143081
-0.583967
-0.115023
-0.424409
0.170647
-0.055118
0.655569
-0.549424
0.147399
-0.585952
-0.164492
-0.407397
-0.150823
-0.367404
0.293615
-0.136704
0.330004
0.344383
0.833985
0.268903
0.501504
-0.370247
0.576745
-0.747058
0.324297
-0.409676
0.332190
-0.863373
-0.074759
-0.283632
0.477667
-0.264432
0.379359
-0.574254
0.661785
-0.559215
0.615373
-0.693580
0.180308
-0.289434
0.222075
-0.498931
0.192284
-0.043447
0.685686
-0.019870
0.788250
-0.279491
0.518067
-0.246324
0.606618
-0.531000
-0.070168
-0.610873
0.173601
-0.705199
0.285895
-0.484475
0.293036
-0.604962
0.510281
-0.141155
0.147718
-0.191935
0.009336
-0.120855
0.044776
-0.666059
-0.000201
-0.433951
0.222018
-0.134418
0.423412
-0.040805
0.237261
-0.522689
0.732983
-0.497149
0.481463
-0.235295
-0.083904
-0.433471
-0.156617
-0.525611
0.299831
-0.064338
0.657425
-0.147150
0.427279
-0.274679
0.033413
-0.237147
0.409120
-0.186855
0.414551
-0.452402
0.276612
-0.513644
0.317787
-0.388715
0.105325
-0.523422
0.540986
-0.734312
0.531949
-0.141752
0.516506
-0.513271
-0.151820
-0.431135
0.401479
-0.375594
0.347543
-0.059737
0.460098
-0.120140
0.046238
-0.428457
0.260410
-0.473517
0.003136
-0.293824
0.011064
-0.421669
0.460546
-0.441702
0.126905
-0.067264
0.254884
-0.456043
0.470498
-0.409038
0.307935
-0.288281
0.390345
-0.081240
0.437732
-0.217824
0.419906
-0.554737
0.367849
-0.398895
0.030282
-0.088702
0.429182
-0.495108
0.208843
-0.475420
0.223565
-0.469253
0.249802
-0.225825
0.064153
-0.252144
0.658701
-0.522421
0.693488
-0.103506
0.592473
-0.201695
0.664645
-0.247604
0.718172
-0.104021
0.686920
-0.311866
0.253372
-0.428952
0.463613
-0.062786
0.210332
-0.157994
0.459653
-0.240793
-0.913156
0.188836
-0.035901
0.455540
-0.664256
0.259466
-0.224793
0.213193
-0.486168
0.287870
-0.472794
0.431839
-0.145636
0.472143
-0.527722
0.029525
-0.691463
0.449850
-0.315991
0.671020
-0.612006
0.282824
-0.277324
0.178227
-0.001931
0.047930
-0.241013
0.212263
-0.205924
0.000667
-0.453056
0.452621
-0.189502
0.488958
-0.208160
0.153758
-0.048930
0.432400
-0.367496
0.517318
-0.019344
0.142928
-0.248191
0.157477
-0.617632
0.087806
-0.192419
0.602566
-0.546134
0.490155
-0.576422
0.456003
0.058761
0.151695
-0.634240
0.076992
-0.199625
0.175253
-0.289255
0.405549
-0.175922
0.042309
-0.158168
0.365407
-0.532202
0.353071
-0.534036
0.565179
-0.086245
0.210551
-0.350587
0.148474
-0.358305
0.557611
-0.438807
0.130115
-0.150305
0.425498
-0.145006
0.618557
-0.235196
0.015483
-0.374896
0.310377
-0.167178
0.309136
-0.387369
0.367359
-0.483835
0.676795
-0.075692
0.664820
-0.012542
0.201411
-0.370515
0.517302
-0.610259
0.157128
-0.413503
0.657544
-0.393165
-0.021187
-0.396746
0.467088
-0.257943
0.273374
-0.167725
0.200488
-0.070459
0.334287
-0.119233
0.361710
-0.351274
0.493557
-0.671839
0.519007
-0.102030
0.345863
-0.198827
0.541028
-0.399894
0.093348
-0.694015
0.177451
-0.607651
0.017337
-0.354835
0.174952
-0.564447
0.151051
-0.858279
0.208159
-0.377460
0.290809
-0.707620
0.137250
-0.253167
0.093509
-0.404432
0.313615
-0.436426
0.522400
-0.668025
0.088012
-0.320280
0.620276
-0.665962
0.340539
-0.350627
-0.135268
-0.600364
0.273736
-0.520629
-0.208537
-0.795780
-0.506211
-1.195526
-0.569284
-1.396459
-0.443355
-1.026585
-0.360961
-1.194511
-0.073629
-0.447919
0.250033
-0.091337
0.174549
-0.599992
0.416266
-0.487599
0.336989
-0.192947
0.446748
-0.585610
0.364386
-0.574210
-0.129517
-0.655695
0.391164
-0.670985
0.215638
-0.347936
0.444763
0.372686
0.548915
-0.236593
-0.022651
0.003575
-0.339627
-0.937102
-0.448279
-0.947115
-0.270330
-0.476944
0.172408
-0.702120
0.264356
-0.418282
0.623334
-0.593043
0.140915
-0.295670
0.198890
-0.873936
0.443704
-0.256465
0.049888
-0.460963
0.767278
0.828229
1.217028
1.154105
0.997793
0.190047
0.303102
-0.281079
0.090759
-0.998781
-0.220973
-0.832267
-0.247374
-0.553819
0.464327
-0.419057
0.505199
-0.081208
0.443206
0.085672
0.456518
-0.169927
0.185815
0.057156
0.297676
-0.281973
0.830783
0.029169
0.944118
0.828540
1.553150
0.713383
1.431188
0.204020
0.090840
-0.305503
0.113823
-0.800436
-0.492236
-0.839956
0.000542
-0.932040
-0.017284
-0.608548
0.100912
-0.609765
0.399727
-0.452378
0.197844
0.174995
0.836764
-0.382321
0.582562
0.149939
0.670490
0.300422
0.852154
0.728877
2.016363
0.455751
0.850305
0.389533
0.207540
0.042122
0.196904
0.065186
0.254447
-0.522076
0.300975
-0.579793
0.036536
-0.313580
0.167857
-0.117740
0.286030
-0.050274
0.321180
-0.082675
0.491630
0.338982
0.699474
0.613810
0.460511
0.358261
0.583668
0.477793
1.456108
0.152936
0.266177
-0.309178
0.355235
0.172053
0.730658
0.297511
0.551681
-0.573822
0.341401
-0.650024
0.200514
-0.418019
0.171289
-0.237160
0.115462
-0.183247
0.755787
0.273587
0.998787
0.151217
0.575280
0.427572
0.177618
-0.092901
-0.015960
-0.301567
0.733073
-0.141982
0.157524
-0.330801
0.407064
0.469385
0.798457
0.186922
0.516748
0.007611
0.250967
-0.655635
0.689637
-0.039546
0.516120
-0.157942
0.524244
-0.545400
0.922345
-0.031967
0.537599
0.481589
0.695804
-0.032190
0.148144
-0.919490
-0.694676
-0.252756
0.367893
-0.482616
0.355494
-0.741600
0.539206
0.535962
0.625325
-0.041603
0.342435
0.014399
0.327217
-0.586004
0.147648
-0.698902
0.572169
-0.077662
0.701089
-0.300235
0.563132
-0.173025
0.358405
-0.503026
0.135466
-0.267308
-0.858069
-1.444970
-1.078301
-0.666744
0.682046
-0.232633
0.230421
-0.421057
1.061184
0.278397
0.174230
-0.606668
0.115717
-0.313426
0.163913
-0.413411
0.026773
-0.064416
0.334956
-0.204839
0.702078
-0.152727
0.561472
-0.629729
0.069820
-1.009956
-0.283340
-0.713302
-0.510612
-1.306481
-0.873550
-0.674417
0.507953
-0.218056
0.275415
-0.318716
0.440672
-0.353501
0.408657
-0.149498
-0.126538
-0.498719
-0.179427
-0.223830
0.429334
-0.447609
0.672455
-0.494192
0.522243
-0.309301
0.840740
-0.768225
-0.126906
-0.778370
-0.021729
-0.718468
-0.368123
-0.592169
0.117888
-1.065904
-0.243264
-0.125180
0.124594
-0.494933
0.290785
-0.824636
0.277394
-0.668953
0.264803
-0.306897
0.433852
-0.432211
0.558366
-0.540854
0.038862
-0.231572
0.285752
-0.005783
0.088967
-0.379382
-0.283866
-0.260402
-0.169949
-0.245232
-0.169785
-0.615872
0.467487
-0.391540
-0.384626
-0.744450
-0.207766
-0.161757
0.091932
-0.426077
0.067564
-0.553007
0.036701
-0.691792
0.577883
-0.170751
0.155088
-0.367554
0.687655
-0.632159
0.178020
-0.102725
0.062087
-0.669421
-0.362298
-0.427081
0.493444
-0.126394
-0.179808
-0.703942
0.675879
-0.603093
0.293081
-0.452117
-0.156065
-0.828212
-0.388005
-0.375938
0.371851
-0.679131
-0.234957
-0.360573
0.298112
-0.437277
0.148240
-0.243574
0.655564
-0.208148
0.597331
-0.763515
-0.108536
-0.466621
0.259238
-0.634108
0.154063
-0.276295
0.268073
-0.412276
1.138253
0.029806
0.695689
0.160561
-0.114811
-0.506123
-0.401101
-0.561097
0.171096
-0.767477
0.365194
-0.173114
0.107571
-0.545905
0.252473
-0.543307
0.345681
-0.332252
0.065675
-0.393186
0.275536
-0.350468
-0.167309
-1.149287
-0.450622
-0.446083
-0.526287
0.164751
0.401267
-0.059636
0.690537
-0.429420
0.496826
-0.657214
-0.694290
-0.804202
0.129745
-0.864919
-0.103054
-0.557186
0.425682
-0.015655
0.494012
-0.622484
0.613519
-0.002706
0.459262
-0.341107
0.078995
-0.899155
0.077510
-0.879796
-0.152869
-0.395284
-0.822503
-0.429200
0.067309
0.047191
0.202108
-0.045666
-0.068487
-0.436208
0.234613
-0.647501
0.424292
-0.707159
0.407936
-0.266749
0.308965
-0.614061
0.053837
-0.006578
0.007316
-0.523059
0.594570
-0.706643
0.325802
-0.674462
-0.268471
-0.912815
-0.513182
-0.410816
-0.124467
-0.577181
-0.424223
-0.277467
0.239313
0.058632
-0.052002
-0.151466
0.142867
-0.395552
-0.301731
-0.825717
0.258236
-0.383424
0.499172
0.031585
0.672032
-0.680229
0.693417
-0.012919
0.660519
-0.061322
0.421548
-0.813051
0.319484
-0.664022
0.024252
-0.246089
-0.007447
-0.663997
0.185109
-0.315238
-0.508721
-0.385747
0.615846
-0.248875
0.072230
-0.084155
0.074726
-0.212962
0.415123
-0.182706
0.352860
-0.565349
0.680226
-0.032155
0.605209
-0.650933
-0.008059
-0.666029
0.561882
-0.856974
0.197749
-0.648841
0.487278
-0.636625
-0.212640
-0.354715
-0.173105
-1.430766
-0.252709
-0.352113
-0.267526
-0.381396
0.627504
0.077300
0.442011
-0.191297
0.289930
-0.311864
0.755596
-0.480585
0.049115
-0.299156
0.369921
-0.029503
0.311738
-0.316124
0.672969
-0.406450
0.119122
-0.421599
0.292942
-0.235620
-0.004613
-0.534379
0.251673
-0.628891
-0.065148
-0.955929
0.403697
-0.432264
0.670155
0.213136
0.500804
0.004761
0.352225
-0.029013
0.636289
-0.217083
0.567578
-0.598440
0.696375
-0.629972
0.178364
-0.400126
0.644633
-0.541246
0.749557
-0.356210
0.620519
0.125597
0.808180
-0.334312
0.550014
0.114645
0.191706
0.343121
0.666270
0.141008
1.151180
0.289646
0.854948
-0.129001
0.369389
-0.109159
0.003910
-0.265277
0.254462
-0.607470
0.474815
-0.149443
0.505910
-0.470268
0.107224
0.049312
0.254414
0.107264
0.743268
0.144806
0.890014
0.368644
0.688519
0.035246
0.987505
0.144983
0.531835
-0.210763
0.739580
-0.236908
0.620620
-0.252519
0.574234
-0.363633
0.141884
-0.003849
0.526075
-0.145844
0.262412
-0.094716
0.053314
-0.037226
0.244192
-0.559125
0.516396
-0.315579
0.571451
-0.637340
0.376287
-0.321258
0.134814
-0.210129
0.530549
-0.125502
0.259259
-0.148863
0.681228
-0.348328
0.135455
-0.341830
0.133119
-0.605778
0.029487
-0.669617
0.294653
-0.171755
-1.297198
0.120728
-0.317599
0.235877
-0.215444
0.370914
-0.273104
0.459603
-0.230137
0.081520
-0.083176
0.092867
0.098339
0.441949
-0.491697
0.052215
-0.086927
0.188158
-0.271144
0.291166
-0.408809
0.172426
-0.686740
0.528605
-0.538393
0.107592
-0.442861
0.567881
-0.077209
0.037514
-0.039636
0.050675
-0.158242
0.357233
-0.295666
0.348628
-0.053692
0.537511
-0.163127
0.237735
-0.646403
0.210752
-0.359119
0.656283
-0.674877
0.125199
-0.022986
0.048975
-0.327687
0.291585
-0.340283
0.036393
-0.463309
0.326914
-0.564731
0.302800
-0.434506
0.307591
-0.170681
0.511715
-0.351600
0.197063
-0.571685
0.470684
-0.623598
0.065718
-0.272777
0.501939
-0.133353
0.183518
-0.310549
0.531635
-0.631162
0.402099
-0.695444
0.441565
-0.670247
0.631086
-0.546695
0.261383
-0.234283
0.174998
-0.307950
0.695595
-0.504988
0.172469
-0.298395
0.239070
-0.486267
0.463703
-0.067196
0.091800
-0.867382
0.467422
-0.829509
0.312602
-0.391291
-0.319063
-0.901212
-0.346071
-0.784008
0.288169
-0.249962
0.101387
-0.508599
0.536209
-0.042010
0.285877
-0.538330
0.564100
-0.614638
0.109451
-0.047512
0.225414
-0.105575
0.552451
-0.398352
0.415922
-0.111370
0.138752
-0.282649
-0.065066
-0.442173
0.017767
-0.131607
0.210447
-0.834852
-0.132751
-0.538509
0.381060
-0.292755
-0.096201
-0.488616
0.274476
-0.147921
0.163450
-0.098244
0.394607
-0.358793
0.039997
-0.187907
0.303852
-0.138831
0.248073
-0.557749
0.192864
-0.170814
0.194588
-0.838433
-0.037764
-0.508028
0.182301
-0.344040
-0.059177
-0.275988
0.422160
-0.387650
-0.008608
-0.774437
0.453084
-0.245641
0.896626
-0.587999
0.392660
-0.019387
0.398603
-0.354792
0.354744
-0.544089
0.078094
-0.389608
0.029906
-0.378670
0.571804
-0.242694
0.258242
0.005381
0.243175
-0.326815
-0.009244
-0.592725
0.149095
-0.105415
0.335498
0.016982
0.488422
-0.708441
0.402158
-0.396930
0.485507
-0.197732
0.665510
-0.305886
0.247806
-0.373396
0.551000
-0.429065
0.042470
-0.276001
0.262049
-0.097737
0.792913
-0.260531
0.469438
-0.380592
0.565340
0.125246
0.610586
0.055908
0.679181
-0.244513
0.315061
-0.594815
0.002401
-0.281395
0.547581
-0.102541
0.404959
-0.186396
0.491765
0.045038
-0.093526
-0.602557
0.264772
-0.222948
0.074376
-0.333265
0.662791
0.014661
0.819528
-0.080776
0.301686
-0.174411
0.650837
-0.034933
0.574746
-0.283723
0.105756
-0.210008
-0.063964
-0.723052
-0.116765
-0.156256
0.455212
-0.044391
0.760011
-0.512017
0.397628
-0.534127
-0.367849
-0.781443
0.104404
-0.220245
0.047293
-0.677046
0.446533
-0.016280
0.513441
-0.159263
0.460658
-0.030921
0.722405
-0.203085
0.152139
-0.250370
0.603512
-0.477696
-0.713031
-0.997825
0.344842
0.109145
1.137431
0.238372
0.999333
0.141031
0.240197
-0.656909
0.134964
-0.686825
0.456706
-0.062329
0.477944
-0.216995
0.247328
-0.446921
0.411772
-0.382695
0.756995
-0.208737
0.350327
-0.159321
0.367763
0.231531
0.462325
-0.350782
-0.176874
-0.473328
0.672004
0.476572
1.713176
0.670700
0.971938
0.423210
1.007912
-0.474925
-0.061062
-0.422323
0.229485
-0.016170
0.382947
-0.190965
0.036605
-0.080953
0.583444
-0.060153
0.855950
-0.340306
0.367025
-0.185025
0.187130
-0.825906
-0.391785
-0.662187
-0.174185
0.431067
0.444627
0.674388
1.559750
0.853663
1.123048
0.671199
1.003849
-0.042760
0.523159
-0.166536
0.183090
-0.531913
0.438476
-0.419354
0.546149
-0.062801
0.845918
-0.268693
0.524841
-0.215673
0.151352
-0.246469
-0.131955
-0.492510
0.070953
-0.782766
0.257128
0.245101
1.454354
0.685342
1.460829
0.399492
1.041921
0.420411
1.124563
-0.325184
0.861808
-0.070875
0.301396
-0.295855
0.380109
-0.463977
0.137758
-0.054035
0.377950
-0.403299
