0.000000
0.000000
0.000000
0.000000
0.000000
0.000000
0.000000
0.000000
0.000000
0.000000
0.000000
0.000000
0.000000
0.000000
0.000000
0.000000
0.000000
0.000000
0.000000
0.000000
0.000000
0.000000
0.000000
0.000000
0.000000
0.000000
0.000000
0.000000
0.000000
0.000000
0.000000
0.000000
0.000000
0.000000
0.000000
0.000000
0.000000
0.000000
0.000000
0.000000
0.000000
0.000000
0.000000
0.000000
0.000000
0.000000
0.000000
0.000000
0.000000
0.000000
0.000000
0.000000
0.000000
0.000000
0.000000
0.000000
0.000000
0.000000
0.000000
0.000000
0.000000
0.000000
0.000000
0.000000
0.000000
0.000000
0.000000
0.000000
0.000000
0.000000
0.000000
0.000000
0.000000
0.000000
0.000000
0.000000
0.000000
0.000000
0.000000
0.000000
0.000000
0.000000
0.000000
0.000000
0.000000
0.000000
0.000000
0.000000
0.000000
0.000000
0.000000
0.000000
0.000000
0.000000
0.000000
0.000000
0.000000
0.000000
0.000000
0.000000
0.000000
0.000000
0.000000
0.000000
0.000000
0.000000
0.000000
0.000000
0.000000
0.000000
0.000000
0.000000
0.000000
0.000000
0.000000
0.000000
0.000000
0.000000
0.000000
0.000000
0.000000
0.000000
0.000000
0.000000
0.000000
0.000000
0.000000
0.000000
0.000000
0.000000
0.000000
0.000000
0.000000
0.000000
0.000000
0.000000
0.000000
0.000000
0.000000
0.000000
0.000000
0.000000
0.000000
0.000000
0.000000
0.000000
0.000000
0.000000
0.000000
0.000000
0.000000
0.000000
0.000000
0.000000
0.000000
0.000000
0.000000
0.000000
0.000000
0.000000
0.000000
0.000000
0.000000
0.000000
0.000000
0.000000
0.000000
0.000000
0.000000
0.000000
0.000000
0.000000
0.000000
0.000000
0.000000
0.000000
0.000000
0.000000
0.000000
0.000000
0.000000
0.000000
0.000000
0.000000
0.000000
0.000000
0.000000
0.000000
0.000000
0.000000
0.000000
0.000000
0.000000
0.000000
0.000000
0.000000
0.000000
0.000000
0.000000
0.000000
0.000000
0.000000
0.000000
0.000000
0.000000
0.000000
0.000000
0.000000
0.000000
0.000000
0.000000
0.000000
0.000000
0.000000
0.000000
0.000000
0.000000
0.000000
0.000000
0.000000
0.000000
0.000000
0.000000
0.000000
0.000000
0.000000
0.000000
0.000000
0.000000
0.000000
0.000000
0.000000
0.000000
0.000000
0.000000
0.000000
0.000000
0.000000
0.000000
0.000000
0.000000
0.000000
0.000000
0.000000
0.000000
0.000000
0.000000
0.000000
0.000000
0.000000
0.000000
0.000000
0.000000
0.000000
0.000000
0.000000
0.000000
0.000000
0.000000
0.000000
0.000000
0.000000
0.000000
0.000000
0.000000
0.000000
0.000000
0.000000
0.000000
0.000000
0.000000
0.000000
0.000000
0.000000
0.000000
0.000000
0.000000
0.000000
0.000000
0.000000
0.000000
0.000000
0.000000
0.000000
0.000000
0.000000
0.000000
0.000000
0.000000
0.000000
0.000000
0.000000
0.000000
0.000000
0.000000
0.000000
0.000000
0.000000
0.000000
0.000000
0.000000
0.000000
0.000000
0.000000
0.000000
0.000000
0.000000
0.000000
0.000000
0.000000
0.000000
0.000000
0.000000
0.000000
0.000000
0.000000
0.000000
0.000000
0.000000
0.000000
0.000000
0.000000
0.000000
0.000000
0.000000
0.000000
0.000000
0.000000
0.000000
0.000000
0.000000
0.000000
0.000000
0.000000
0.000000
0.000000
0.000000
0.000000
0.000000
0.000000
0.000000
0.000000
0.000000
0.000000
0.000000
0.000000
0.000000
0.000000
0.000000
0.000000
0.000000
0.000000
0.000000
0.000000
0.000000
0.000000
0.000000
0.000000
0.000000
0.000000
0.000000
0.000000
0.000000
0.000000
0.000000
0.000000
0.000000
0.000000
0.000000
0.000000
0.000000
0.000000
0.000000
0.000000
0.000000
0.000000
0.000000
0.000000
0.000000
0.000000
0.000000
0.000000
0.000000
0.000000
0.000000
0.000000
0.000000
0.000000
0.000000
0.000000
0.000000
0.000000
0.000000
0.000000
0.000000
0.000000
0.000000
0.000000
0.000000
0.000000
0.000000
0.000000
0.000000
0.000000
0.000000
0.000000
0.000000
0.000000
0.000000
0.000000
0.000000
0.000000
0.000000
0.000000
0.000000
0.000000
0.000000
0.000000
0.000000
0.000000
0.000000
0.000000
0.000000
0.000000
0.000000
0.000000
0.000000
0.000000
0.000000
0.000000
0.000000
0.000000
0.000000
0.000000
0.000000
0.000000
0.000000
0.000000
0.000000
0.000000
0.000000
0.000000
0.000000
0.000000
0.000000
0.000000
0.000000
0.000000
0.000000
0.000000
0.000000
0.000000
0.000000
0.000000
0.000000
0.000000
0.000000
0.000000
0.000000
0.000000
0.000000
0.000000
0.000000
0.000000
0.000000
0.000000
0.000000
0.000000
0.000000
0.000000
0.000000
0.000000
0.000000
0.000000
0.000000
0.000000
0.000000
0.000000
0.000000
0.000000
0.000000
0.000000
0.000000
0.000000
0.000000
0.000000
0.000000
0.000000
0.000000
0.000000
0.000000
0.000000
0.000000
0.000000
0.000000
0.000000
0.000000
0.000000
0.000000
0.000000
0.000000
0.000000
0.000000
0.000000
0.000000
0.000000
0.000000
0.000000
0.000000
0.000000
0.000000
0.000000
0.000000
0.000000
0.000000
0.000000
0.000000
0.000000
0.000000
0.000000
0.000000
0.000000
0.000000
0.000000
0.000000
0.000000
0.000000
0.000000
0.000000
0.000000
0.000000
0.000000
0.000000
0.000000
0.000000
0.000000
0.000000
0.000000
0.000000
0.000000
0.000000
0.000000
0.000000
0.000000
0.000000
0.000000
0.000000
0.000000
0.000000
0.000000
0.000000
0.000000
0.000000
0.000000
0.000000
0.000000
0.000000
0.000000
0.000000
0.000000
0.000000
0.000000
0.000000
0.000000
0.000000
0.000000
0.000000
0.000000
0.000000
0.000000
0.000000
0.000000
0.000000
0.000000
0.000000
0.000000
0.000000
0.000000
0.000000
0.000000
0.000000
0.000000
0.000000
0.000000
0.000000
0.000000
0.000000
0.000000
0.000000
0.000000
0.000000
0.000000
0.000000
0.000000
0.000000
0.000000
0.000000
0.000000
0.000000
0.000000
0.000000
0.000000
0.000000
0.000000
0.000000
0.000000
0.000000
0.000000
0.000000
0.000000
0.000000
0.000000
0.000000
0.000000
0.000000
0.000000
0.000000
0.000000
0.000000
0.000000
0.000000
0.000000
0.000000
0.000000
0.000000
0.000000
0.000000
0.000000
0.000000
0.000000
0.000000
0.000000
0.000000
0.000000
0.000000
0.000000
0.000000
0.000000
0.000000
0.000000
0.000000
0.000000
0.000000
0.000000
0.000000
0.000000
0.000000
0.000000
0.000000
0.000000
0.000000
0.000000
0.000000
0.000000
0.000000
0.000000
0.000000
0.000000
0.000000
0.000000
0.000000
0.000000
0.000000
0.000000
0.000000
0.000000
0.000000
0.000000
0.000000
0.000000
0.000000
0.000000
0.000000
0.000000
0.000000
0.000000
0.000000
0.000000
0.000000
0.000000
0.000000
0.000000
0.000000
0.000000
0.000000
0.000000
0.000000
0.000000
0.000000
0.000000
0.000000
0.000000
0.000000
0.000000
0.000000
0.000000
0.000000
0.000000
0.000000
0.000000
0.000000
0.000000
0.000000
0.000000
0.000000
0.000000
0.000000
0.000000
0.000000
0.000000
0.000000
0.000000
0.000000
0.000000
0.000000
0.000000
0.000000
0.000000
0.000000
0.000000
0.000000
0.000000
0.000000
0.000000
0.000000
0.000000
0.000000
0.000000
0.000000
0.000000
0.000000
0.000000
0.000000
0.000000
0.000000
0.000000
0.000000
0.000000
0.000000
0.000000
0.000000
0.000000
0.000000
0.000000
0.000000
0.000000
0.000000
0.000000
0.000000
0.000000
0.000000
0.000000
0.000000
0.000000
0.000000
0.000000
0.000000
0.000000
0.000000
0.000000
0.000000
0.000000
0.000000
0.000000
0.000000
0.000000
0.000000
0.000000
0.000000
0.000000
0.000000
0.000000
0.000000
0.000000
0.000000
0.000000
0.000000
0.000000
0.000000
0.000000
0.000000
0.000000
0.000000
0.000000
*
-0.102830
0.588131
-0.276068
0.548169
-0.558908
0.638153
-0.138286
0.234656
-0.537761
0.194442
-0.387779
0.334178
-0.495853
0.255349
-0.359381
0.666561
-0.641337
0.444998
-0.502108
0.099122
-0.424878
0.011410
-0.170021
0.096062
-0.562924
0.109675
-0.280661
0.090853
-0.076166
0.699247
-0.152780
0.359053
-0.587379
0.428848
-0.207222
0.446287
-0.367001
0.345508
-0.680943
0.204762
-0.539950
0.368721
-0.538940
0.280160
-0.624071
0.198320
-0.246721
0.565407
-0.643319
0.048829
-0.664529
0.368197
-0.058147
0.134550
-0.464259
0.623163
-0.244225
0.044920
-0.014016
0.320391
-0.044167
0.166796
-0.679444
0.631546
-0.595644
0.186666
-0.377832
0.262645
-0.532174
0.358775
-0.467407
0.372125
-0.027496
0.306346
-0.652285
0.651567
-0.504667
0.199005
-0.516974
0.447985
-0.247834
0.481503
-0.116182
0.308073
-0.616053
0.580441
-0.231236
0.160278
-0.625361
0.245252
-0.480669
0.669528
-0.409322
0.460113
-0.601073
0.307692
-0.646779
0.278906
-0.570337
0.478953
-0.637680
0.337743
-0.151077
0.665177
-0.644090
0.103362
-0.607598
0.448756
-0.274014
0.433718
-0.196742
0.550201
-0.215221
0.312924
-0.158275
0.131273
-0.193364
0.389511
-0.291551
0.118725
-0.634763
0.072220
-0.088253
0.346811
-0.532333
0.689326
-0.654503
0.479112
-0.268232
0.524840
-0.258064
0.205912
-0.162583
0.409142
-0.171089
0.106673
-0.512504
0.087832
-0.555429
0.114871
-0.521550
0.052171
-0.665073
0.036770
-0.365094
0.123347
-0.168044
0.558459
-0.512858
0.459595
-0.677184
0.447621
-0.531814
0.065436
-0.094432
0.364147
-0.054762
0.048934
-0.143259
0.322994
-0.573774
0.401323
-0.528907
0.036357
-0.110465
0.699995
-0.143030
0.622969
-0.087828
0.698459
-0.037840
0.609378
-0.050630
0.002913
-0.646148
0.415725
-0.126261
0.114192
-0.274183
0.668829
-0.539873
0.255400
-0.478995
0.265868
-0.467906
0.288198
-0.256654
0.270474
-0.596138
0.213007
-0.694560
0.403880
-0.614330
0.523467
-0.440237
0.024795
-0.523462
0.583267
-0.647764
0.611290
-0.581726
0.685604
-0.520668
0.632356
-0.688517
0.466816
-0.344004
0.037005
-0.574638
0.464656
-0.210345
0.412813
-0.352592
0.077386
-0.346825
0.259798
-0.378696
0.230144
-0.162000
0.051913
-0.443151
0.156559
-0.455792
0.357480
-0.680026
0.196029
-0.382275
0.503488
-0.079296
0.330038
-0.414778
0.661023
-0.315642
0.235446
-0.533227
0.473141
-0.113845
0.207555
-0.613644
0.450297
-0.274004
0.434591
-0.847409
0.260468
-0.165126
0.443495
-0.127789
0.435276
-0.028605
0.289789
-0.487189
0.471756
-0.446348
0.242981
-0.129236
0.426374
-0.439011
0.511511
-0.229862
0.518307
-0.141549
0.584501
-0.497883
0.551776
-0.165563
0.588152
-0.111065
0.310592
-0.637825
0.524525
-0.027662
-0.136919
-0.316242
0.334317
-0.415248
0.466590
-0.202144
0.543037
-0.201866
0.230749
-0.132826
0.689054
-0.002505
0.579174
-0.232035
0.131741
-0.305548
0.610906
-0.643251
0.535410
-0.288242
0.096529
-0.438979
0.054824
-0.696367
0.306446
-0.796731
0.354493
-0.382912
0.456713
-0.528134
0.238781
-0.763473
0.636750
-0.611785
0.348701
-0.403340
0.113930
-0.191738
0.605205
-0.344679
0.324564
-0.594260
0.347184
-0.203737
0.126295
-0.478925
0.509285
0.132123
0.477598
-0.072147
0.478679
-0.475089
0.201373
-0.217300
0.178367
0.155544
-0.030136
-0.131732
0.281772
-0.652327
0.635939
-0.435467
0.585779
-0.572689
0.347252
-0.234480
0.276029
-0.461182
0.426218
-0.181234
0.105861
-0.050782
0.075494
-0.453045
0.254519
0.031641
0.353804
0.026297
0.300760
-0.323536
0.265528
-0.273221
0.218454
-0.472403
0.328689
0.158131
0.640026
-0.437966
0.362400
-0.145491
0.390292
-0.298340
0.580957
-0.276158
0.171029
-0.228209
0.510552
-0.447058
0.689391
-0.236770
0.628292
-0.095252
0.287552
0.009386
0.587618
-0.492547
0.318894
0.083109
0.468777
-0.795741
-0.458125
-0.255653
0.799918
-0.159682
0.301328
-0.331726
0.605627
-0.065744
0.069692
-0.268027
0.211148
-0.459984
0.566367
-0.092192
0.036056
-0.037396
0.320401
-0.546608
0.484454
-0.309792
0.083378
-0.456166
0.459982
-0.151522
0.403948
-0.049484
-0.011127
-1.073353
0.004882
-0.222807
0.773667
0.135266
0.468112
-0.417337
0.163559
-0.580866
0.049063
-0.069186
0.646609
-0.118755
0.337213
-0.157844
0.578739
-0.203580
0.250035
-0.614794
0.240976
-0.570436
0.461402
-0.163907
0.072531
-0.472500
0.739251
-0.163296
0.477399
0.058667
0.007376
-0.649036
0.108579
-0.035065
0.641215
-0.503623
0.140247
-0.280831
0.220961
-0.303806
0.161697
-0.270024
0.372992
-0.108307
0.388778
-0.010206
0.266150
-0.267517
0.213786
-0.516185
0.144004
-0.601202
0.150740
-0.741861
0.688365
0.024477
0.987176
-0.048364
0.417640
0.074059
0.549702
-0.545012
0.454022
-0.449885
0.362960
-0.280496
0.253508
-0.503207
0.561328
-0.474469
0.107013
-0.023025
0.044492
-0.480005
0.131331
-0.433271
0.490211
-0.397482
-0.037520
-0.173702
0.104643
-0.365498
0.630670
-0.389823
0.233800
-0.039233
0.536463
-0.690186
0.243666
-0.326552
0.585106
-0.130385
0.109997
-0.352423
0.580270
-0.472958
0.632919
-0.133778
0.276165
-0.494247
0.608247
-0.383178
0.517272
-0.652739
0.163183
-0.648603
0.344042
-0.838720
0.216530
-0.449993
0.890875
-0.318003
0.640276
-0.609328
0.254269
-0.816038
0.433037
-0.505940
0.564006
-0.429409
0.446440
-0.531527
0.542795
-0.556437
0.183949
-0.423065
0.329395
-0.116868
0.556843
-0.605560
0.611115
-0.465090
0.288738
-0.428387
0.417829
-0.304109
0.340500
0.217211
0.664761
0.633765
0.592256
-0.390014
0.284610
-0.132106
0.047661
-0.584541
0.136064
-0.061805
0.557176
-0.269261
0.446359
-0.316486
0.100787
-0.289154
0.172923
-0.284737
-0.047920
-0.562457
0.401605
-0.569063
0.407878
-0.312720
0.334153
-0.394315
0.092259
0.113570
0.579970
-0.254825
0.115166
-0.285890
0.324467
-0.774383
0.504988
-0.529170
0.057160
-0.665866
0.666864
-0.664238
0.629360
-0.536910
0.233498
-0.375720
0.153395
-0.334286
0.604735
-0.386457
0.619022
-0.677094
0.128636
-0.320627
0.546157
-0.272725
0.713670
-0.030929
0.610864
-0.484479
0.092693
-0.417313
-0.040262
-0.444807
0.332460
-0.186133
0.137899
-0.280904
0.457716
-0.641566
0.147484
-0.424580
0.605803
-0.076844
0.261489
-0.139302
0.392425
-0.475024
0.473588
-0.417438
0.041202
-0.392610
0.394532
0.114468
0.250177
-0.044064
0.114029
-0.458580
0.533416
-0.395475
0.783840
-0.764792
-0.052760
-0.532108
0.254220
-0.556662
0.447306
-0.675977
0.108735
-0.205022
0.617543
-0.256220
0.629602
-0.523346
0.333064
-0.191091
0.662648
-0.085628
0.605975
-0.436236
0.503066
-0.647178
0.134979
-0.093829
0.294720
-0.128918
0.395723
-0.110871
0.222097
-0.217286
0.541429
-0.161608
0.103734
-0.093470
0.323293
-0.453982
0.640654
-0.070600
0.429959
-0.049390
0.275622
-0.347502
0.305609
-0.205224
0.170848
-0.638673
0.396315
-0.133496
0.024301
-0.302290
0.569733
-0.382189
0.162594
-0.871551
-0.261474
-0.625128
0.039209
-0.598007
0.325675
-0.275991
0.673928
-0.386960
0.239038
-0.035118
0.536691
-0.562331
0.489099
-0.477345
0.632931
-0.219058
0.526735
-0.208553
0.566559
-0.132345
0.413777
-0.037408
0.071018
-0.110093
0.170904
-0.095319
0.412383
-0.040637
0.622687
-0.661851
0.039216
-0.647654
0.328335
-0.179878
0.410908
-0.118186
0.409210
-0.333448
0.570884
-0.648247
0.368566
-0.407575
0.510578
-0.157665
0.184920
-0.443509
0.376723
-0.011655
0.652063
-0.243282
0.144000
-0.365840
0.280690
-0.215018
0.475933
-0.451594
0.310337
-0.188316
0.492230
-0.233024
0.150167
-0.531446
0.180678
-0.478502
0.011324
-0.591586
0.596688
-0.420534
0.225034
-0.467572
0.368781
-0.593600
0.175147
-0.179360
0.051265
-0.360068
0.622869
-0.427988
0.371723
-0.574932
0.671270
-0.515723
0.240772
-0.251960
0.030741
-0.016704
0.003553
-0.341078
0.205020
-0.495784
0.574102
-0.355187
0.327230
-0.054781
0.133688
-0.338554
0.646367
-0.030376
-0.072365
0.171401
-0.497948
0.427869
-0.065001
0.673096
-0.607228
0.116266
-0.333163
0.530097
-0.544253
0.004886
-0.425861
0.515523
-0.520609
0.645800
-0.067483
0.551350
-0.662505
0.071036
-0.192428
0.167525
-0.566820
0.066530
-0.522711
0.194050
-0.121310
0.656400
-0.532603
0.067677
-0.686776
0.591691
-0.239078
0.484724
-0.319560
0.304079
-0.457820
0.226788
-0.420345
0.090983
-0.056886
0.264598
-0.095869
0.461914
-0.080121
0.616478
-0.407715
0.147604
-0.467828
0.370219
-0.218640
0.660255
-0.560096
0.085460
-0.026785
0.360455
-0.279510
0.148096
-0.316855
0.112113
-0.215773
0.303631
-0.003804
0.454851
-0.088355
0.323364
-0.058929
0.546175
-0.550153
0.479274
-0.637159
0.607038
-0.043872
0.033028
-0.368952
0.123993
-0.649506
0.076667
-0.271597
0.417334
-0.446887
0.490238
-0.377589
0.284631
-0.575698
0.404375
-0.645086
0.155208
-0.552471
0.261941
-0.267321
0.068243
-0.554329
0.271126
-0.523094
0.653927
-0.594490
0.582023
-0.500102
0.444643
-0.361297
0.437261
-0.351681
0.405169
-0.470289
0.020633
-0.357241
0.419795
-0.142834
0.100759
-0.137129
0.544187
-0.590997
0.514718
-0.128818
0.466695
-0.219093
0.073903
-0.621903
0.071563
-0.335844
0.189224
-0.139807
0.201415
-0.460350
0.662901
-0.155342
0.354840
-0.544924
0.655444
-0.099483
0.206221
-0.392705
0.451164
-0.611390
0.162994
-0.471797
0.440552
-0.582788
0.569098
-0.541311
0.019917
-0.413285
0.432308
-0.534635
0.542103
-0.199002
0.053727
-0.616006
0.120905
-0.125291
0.251850
-0.310130
0.265097
-0.453266
0.070480
-0.227998
0.608608
-0.425320
0.072922
-0.564052
0.524803
-0.279143
0.256757
-0.275967
0.190533
-0.419751
0.047764
-0.631084
0.302539
-0.616862
0.472395
-0.322456
0.330147
-0.204702
0.157091
-0.172250
0.403705
-0.210818
0.075513
-0.540948
0.538110
-0.207926
0.250920
-0.478342
0.108497
-0.215136
0.124090
0.003787
0.630540
-0.202126
0.566032
-0.455344
0.481269
-0.122789
0.031311
-0.671801
0.542540
-0.079075
0.602886
-0.145080
0.695937
-0.375280
0.467536
-0.326084
0.579982
-0.619930
0.567978
0.047105
0.234881
-0.495313
0.150221
-0.398586
0.256058
-0.267448
0.504802
-0.286306
0.448257
-0.501964
0.322047
-0.378798
0.004090
-0.188079
0.134141
-0.485359
0.310868
-0.165452
0.457161
-0.153408
0.244527
-0.360046
0.298488
-0.240464
0.035326
0.050807
0.874826
-0.478858
0.917533
-0.369687
0.159400
-0.137835
0.562762
0.112352
0.583992
-0.427610
0.548142
-0.270409
0.098237
-0.298588
0.072373
-0.420284
0.677386
-0.076463
0.608363
-0.111527
0.561823
-0.219231
0.276979
-0.318983
0.372639
-0.521506
0.633532
-0.547078
0.119251
0.691359
0.251296
-0.722731
0.702554
0.165297
0.275320
0.076880
0.417798
-0.420021
0.296816
-0.051547
0.323042
-0.286285
0.321956
-0.421279
0.584873
-0.394329
0.141563
-0.562259
0.470792
-0.049925
0.673786
-0.332615
0.223658
-0.250765
0.651598
-0.712461
0.151278
-0.256871
0.606537
-0.135229
0.668366
-0.395056
0.005849
-0.562004
0.627253
-0.658967
0.049945
-0.083895
0.201033
-0.439262
0.183320
-0.524075
0.025547
-0.505276
0.245354
-0.610420
0.199604
-0.386916
0.472679
-0.670397
0.436842
-0.446464
0.303011
-0.122197
0.593771
-0.319350
0.559107
0.011954
0.242675
-0.555145
-0.094053
-0.223933
0.580276
-0.472113
-0.097668
-0.488667
0.622658
-0.008176
0.620441
-0.123690
0.447439
-0.103761
0.647765
-0.472986
0.609037
-0.193119
0.383406
-0.108641
0.580035
-0.156085
0.079038
-0.467528
0.313555
-0.276093
0.263705
-0.359467
0.931603
-0.237735
0.505982
-0.114627
-0.099413
-0.292573
0.263805
-0.642176
0.439516
-0.256983
0.430844
-0.362174
0.265159
-0.418703
0.485864
-0.012598
0.455046
-0.433629
0.485584
-0.364083
0.626748
-0.168990
0.472724
-0.802915
-0.239104
-0.628047
0.341346
0.555187
0.461998
-0.179127
0.188941
-0.085096
0.377654
-0.159066
0.260963
-0.148588
0.269697
-0.544479
0.090764
-0.009213
0.034044
-0.521608
0.371387
-0.366622
0.172893
-0.157250
0.379220
-0.627939
0.590879
-0.164805
0.292022
-0.754056
-0.599307
-0.720111
0.670271
-0.198510
0.853885
0.068721
0.749399
0.123151
0.568639
-0.188428
0.272396
-0.211806
0.410576
-0.613152
0.360394
-0.680273
0.457632
-0.451159
0.689486
-0.559094
0.272767
-0.360872
0.225716
-0.445659
0.518123
-0.604936
0.373598
-0.520789
-0.226478
-1.354596
0.241757
-0.414783
0.144186
-0.377202
0.635094
-0.709579
0.143308
-1.556317
-0.091877
-0.493710
0.162796
-0.417979
0.005516
-0.573371
0.331132
-0.365910
0.553644
-0.088764
0.117069
-0.543130
0.647858
-0.389835
0.204002
-0.173574
0.184693
-0.015028
-0.128115
-0.876433
0.072096
-0.555586
0.016749
-0.977588
0.435710
-0.503500
-0.230285
-0.496140
0.229434
-0.107899
0.063091
-0.549142
0.601609
-0.225886
0.267122
-0.607125
0.099257
-0.598254
0.273035
-0.652901
0.687017
-0.390104
0.496031
-0.634875
0.129138
0.196167
0.060569
-0.148434
0.043816
0.271945
0.249732
-0.024413
0.725540
-0.441739
0.282751
0.025214
-0.013420
-0.219830
0.401185
-0.056269
0.327729
-0.464276
0.605411
-0.229338
0.690162
-0.172533
0.136463
-0.089420
0.070787
-0.409499
0.042321
-0.057804
0.242744
-0.277914
0.986571
-0.174821
0.250688
-0.046789
0.521106
-0.144910
0.318515
-0.912133
0.113705
-0.719036
0.014982
-0.060491
0.110288
-0.523061
0.244694
-0.511474
0.579330
-0.572423
0.275750
-0.484741
0.101761
-0.265912
0.657274
-0.238224
0.355332
-0.028061
0.647723
-0.231260
0.367163
-0.332893
-0.043141
0.049986
0.340363
0.208470
0.128693
-0.932303
0.212783
-0.158550
0.146976
-0.301668
0.303190
-0.560091
0.273622
-0.501340
0.383152
-0.518315
0.312813
-0.262482
0.345240
-0.634061
0.047224
-0.492499
0.154475
-0.004498
0.030724
-0.442406
0.256506
-0.629271
-0.148206
0.021404
0.131945
-0.121616
0.003515
-0.322114
0.838783
-0.377840
0.063808
-0.440981
0.144396
-0.515831
0.001546
-0.535447
0.375921
-0.275168
0.336787
-0.059073
0.047986
-0.695098
0.321555
-0.484222
0.538163
-0.368779
0.276721
-0.593579
0.783333
-0.040335
0.262438
-0.311435
0.241885
0.041408
0.811923
-0.044236
0.163213
0.060390
0.489161
-0.278504
0.397866
-0.038787
0.024015
-0.542261
0.554618
-0.025561
0.377709
-0.230539
0.255232
-0.059993
0.289612
-0.394213
0.664096
-0.611168
0.178434
-0.492724
0.267043
0.355543
0.832958
-0.716178
-0.073024
-0.339408
0.320477
0.003680
0.666195
-0.042676
0.554043
-0.060617
0.204545
-0.524461
0.331844
-0.602411
0.563248
-0.355859
0.444672
-0.417867
0.381420
-0.122381
0.648406
-0.682149
0.136877
-0.238018
0.376362
-0.100972
0.173597
-0.436958
0.729658
-0.063531
0.434595
-0.321520
0.418178
0.134085
0.766864
-0.040186
0.065282
-0.274610
0.224733
-0.681203
0.363333
-0.429278
0.505664
-0.695177
0.331689
-0.368912
0.351036
-0.076361
0.086779
-0.032456
0.198742
-0.035184
0.014605
-0.335619
0.273202
-0.279635
0.552557
-0.335638
0.271789
-0.313268
0.131856
-0.563827
0.033258
-0.400096
0.341740
-0.034474
0.575289
-0.249313
0.336135
-0.100022
0.230516
-0.699469
0.529300
-0.036180
0.694646
-0.160989
0.405092
-0.345682
0.237350
-0.491870
0.378138
-0.436091
0.527055
-0.392742
0.071710
-0.100257
0.083709
-0.508301
0.522645
-0.329472
0.148123
-0.674164
0.185187
-0.186073
0.508040
-0.413455
0.219492
-0.383329
0.662768
-0.555627
0.483351
-0.193284
0.555096
-0.312651
0.229464
-0.549742
0.473640
-0.634555
0.195424
-0.010989
0.426426
-0.573562
0.447081
-0.253480
0.266304
-0.518791
0.353737
-0.350013
0.327092
-0.176382
0.679485
-0.475215
0.150546
-0.164672
0.661288
-0.658586
0.578126
-0.180780
0.341915
-0.540894
0.036407
-0.125266
0.034178
-0.591503
0.437917
-0.263642
0.441246
-0.211557
0.198197
-0.636670
0.222547
-0.624622
0.510232
-0.669628
0.178103
-0.076536
0.488419
-0.531840
0.426549
-0.115511
0.008222
-0.406034
0.590726
-0.158768
0.570706
-0.552013
1.134680
0.448832
-0.032793
0.459269
-0.289726
0.069200
-0.584535
0.323904
-0.660704
0.322453
-0.587546
0.401950
-0.577340
0.085742
-0.338620
0.056557
-0.010365
0.148852
-0.026184
0.188468
-0.225388
0.514603
-0.020307
0.651937
-0.630114
0.028529
-0.357970
0.520839
-0.187297
0.228676
-0.372853
0.304651
-0.677508
0.405646
-0.063920
0.267234
-0.474846
0.648455
-0.591137
0.435550
-0.270908
0.478683
-0.137499
0.104917
-0.564425
0.476119
-0.161474
0.574790
-0.624971
0.187659
-0.063258
0.150358
-0.071920
0.083565
-0.102295
0.632376
-0.112094
0.460265
-0.453215
0.299391
-0.688941
0.126067
-0.604043
0.666449
-0.531713
0.667962
-0.233682
0.306559
-0.616418
0.124820
-0.042109
0.187325
-0.603503
0.179608
-0.292243
0.467928
-0.655727
0.453717
-0.342718
0.580698
-0.641375
0.405976
-0.031056
0.643637
-0.489541
0.133351
-0.576013
0.601635
-0.593616
0.329227
-0.201027
0.582557
-0.377427
0.105069
-0.549006
0.287008
-0.073032
0.082688
-0.593567
0.689449
-0.207508
0.635676
-0.176774
0.111011
-0.115284
0.469017
-0.624125
0.071012
-0.226560
0.221657
-0.651710
0.164109
-0.627633
0.682766
-0.107746
0.417174
-0.116117
0.683758
-0.318809
0.009733
-0.312986
0.519836
-0.592291
0.068281
-0.624905
0.441297
-0.355289
0.697937
-0.523985
0.248856
-0.687386
0.031494
-0.184532
0.164160
-0.142505
0.299816
-0.633177
0.021444
-0.370828
0.155911
-0.243101
0.322538
-0.320019
0.170734
-0.305304
0.427765
-0.587907
0.421421
-0.411524
0.206717
-0.431155
0.024510
-0.026552
0.323446
-0.092790
0.651457
-0.064742
0.448079
-0.649394
0.588728
-0.696934
0.636780
-0.620222
0.181466
-0.100940
0.062726
-0.481282
0.034117
-0.084170
0.152110
-0.190028
0.327271
-0.474647
0.510047
-0.498004
0.079951
-0.237812
0.385911
-0.501373
0.698352
-0.623001
0.038295
-0.834585
0.652936
-0.465053
0.195698
-0.293924
0.763268
-0.495855
0.520032
-0.509443
0.511649
-0.456812
0.429665
-0.693115
0.557752
-0.492391
0.474397
-0.591869
0.576561
-0.626507
0.081896
-0.203832
0.401154
-0.591943
0.001836
-0.450480
0.025204
-0.500943
0.279570
-0.090251
0.317758
-0.431415
0.022840
0.181393
0.465324
-0.067631
0.070193
-0.291694
0.634288
-0.590225
0.101138
-0.445938
0.347037
-0.530803
0.439053
-0.204789
0.323194
-0.213450
0.096657
-0.199755
0.139957
-0.178554
0.403587
-0.605914
-0.145904
-0.373086
0.165506
-0.136759
0.237463
-0.551483
0.129103
-0.532368
0.652937
-0.236351
0.605104
-0.090680
0.451855
-0.643295
0.382374
-0.386143
0.533520
-0.483512
0.132081
-0.180557
0.314314
-0.571134
0.385346
-0.637508
0.084584
-0.482003
0.190779
-0.320554
0.669358
-0.751462
-0.119012
-0.340888
0.097518
-0.747475
0.219910
-0.215335
0.254086
-0.197932
0.153219
-0.012264
0.142930
-0.586090
0.102944
-0.594785
0.529385
-0.485317
0.280928
-0.362905
0.268829
-0.413008
0.543462
-0.583143
0.337658
-0.228808
0.520651
-0.335863
-0.014128
-1.295663
0.429157
-0.443175
0.847151
-0.405596
0.434324
0.324253
0.486281
0.444639
0.589438
-0.419293
0.044375
-0.397472
0.651612
-0.187305
0.283562
-0.054556
0.082089
-0.112947
0.539873
-0.363017
0.475852
-0.108702
0.076025
-0.319314
0.691845
-0.331132
0.300193
-0.685346
-0.538962
-0.305846
0.600543
-0.372035
0.676060
0.063105
0.459499
-0.227319
0.400100
-0.227863
0.066446
-0.698699
0.167211
-0.110821
0.396171
-0.118824
0.298126
-0.679733
0.173380
-0.380215
0.092680
-0.013253
0.043232
-0.568532
0.121955
-0.005532
-0.158335
-0.485485
0.123718
0.436061
0.035169
0.030415
0.787127
-0.349373
0.320739
-0.345720
0.736866
-0.311555
0.257919
-0.280103
0.539418
-0.324365
0.278803
0.100311
0.435186
-0.674974
0.125453
-0.033312
0.654707
-0.298833
0.413527
-0.047387
0.312086
-0.204902
0.164778
-0.670530
0.664230
-0.951243
0.529488
0.109797
-0.045154
-0.364118
0.132271
0.207078
-0.008039
-0.594239
0.459830
-0.136736
0.205794
-0.017748
0.523779
-0.045211
0.342113
-0.695642
0.051840
-0.077299
0.670616
-0.177293
0.110611
-0.625323
0.476126
-0.242280
1.052273
-0.193484
0.147861
-0.533517
0.707769
0.240634
0.548654
-0.745744
-0.090899
-0.371972
-0.200235
-0.676118
0.166757
-0.315082
0.570356
-0.626587
0.451817
-0.076150
0.644336
-0.168656
0.121361
-0.286449
0.164298
-0.173201
0.363748
-0.134913
0.350495
-0.106140
0.328436
0.194824
0.341249
0.306755
0.068625
-0.846799
0.262230
-0.117132
-0.057061
-0.096300
0.310538
-0.548665
0.046095
-0.551411
0.524783
-0.212853
0.166492
-0.395139
0.139440
-0.618309
0.471289
-0.083776
0.086965
-0.592650
0.370224
-0.251263
0.140129
0.197697
1.063071
0.429667
0.761803
0.202166
0.769810
-0.328606
0.306246
-0.293906
0.087191
-0.385625
0.030496
-0.022529
0.314903
-0.502059
0.571194
-0.360999
0.353469
-0.395977
0.573852
-0.519961
0.091116
-0.013292
0.438271
-0.562404
0.097067
-0.525236
0.529332
-0.484358
0.558336
-0.449166
0.854002
0.233658
0.871286
-0.605864
-0.806591
-0.906939
-0.366319
-0.565908
0.190616
-0.402642
0.389382
-0.232894
0.425171
-0.004285
0.034953
-0.296365
0.365284
-0.388422
0.692341
-0.239136
0.208384
-0.083457
0.252427
-0.646654
0.643962
-0.469925
0.674975
0.165323
0.834145
0.634932
1.101981
0.200300
-0.044316
-0.709799
-0.585198
-0.579198
0.335473
-0.617959
0.508602
-0.677298
0.346708
-0.197984
0.210192
-0.071878
0.202270
-0.245145
0.368243
-0.567554
0.633568
-0.360584
0.106689
-0.141951
0.444041
-0.347342
0.155480
0.028373
0.046467
-0.457453
0.366962
0.175076
0.528881
-0.918271
-0.371413
-0.322927
-0.063836
-0.406746
0.635285
-0.610989
0.215157
-0.348707
0.588287
-0.561864
0.546691
-0.098479
0.687258
0.004555
0.343624
-0.301985
0.616514
-0.277192
0.662569
0.059424
0.770790
-0.079396
0.472022
-0.428878
0.310309
-0.373286
0.123408
-0.417480
0.019202
0.164424
0.423196
-0.526549
0.097078
-0.571667
0.130865
-0.637183
0.482656
-0.346022
0.285890
-0.370943
0.261402
-0.079065
0.469421
-0.141628
0.181542
-0.113045
0.443614
-0.082747
0.185015
-0.885885
-0.023782
0.204037
0.362125
-0.486807
0.341352
-0.100767
0.193635
-0.133708
0.266985
-0.127198
0.362499
-0.196596
0.570614
-0.459578
0.068263
-0.001479
0.396761
-0.550919
0.401017
-0.629135
0.221862
-0.555387
0.115232
-0.691283
0.697016
-0.136601
0.124254
-0.847952
0.240551
-0.433622
0.322339
-0.416683
0.465173
-0.085557
0.415271
-0.428527
0.266730
-0.514180
0.106444
-0.165543
0.525019
-0.468943
0.362138
-0.395633
0.228520
-0.430401
0.397112
-0.625281
0.281320
-0.044613
0.607932
-0.503182
0.600000
-0.023163
0.562624
-0.434215
0.143700
-1.019190
0.215872
-0.017660
0.256993
-0.751333
0.770896
-0.135826
-0.065450
-0.151220
0.118376
-0.512973
0.664703
-0.224820
0.678515
-0.489722
0.693763
-0.340654
0.185355
-0.222283
0.071055
-0.582467
0.147565
-0.352375
0.627079
-0.055496
0.155557
-0.284572
0.246089
-0.387287
0.584212
-0.318527
0.456874
0.084291
0.681890
-0.039837
0.782705
-0.187499
0.539478
-0.590261
0.394740
-0.657854
0.403234
-0.359444
0.182674
-0.381749
0.149166
-0.176437
0.022403
-0.334521
0.398720
-0.093458
0.216987
-0.546285
0.445834
-0.144066
0.601781
-0.601391
0.671146
-0.680441
0.551413
-0.395241
0.379038
-0.400228
0.456982
-0.092400
0.642402
-0.303180
0.336617
-0.481880
0.193440
-0.031357
0.439734
-0.596674
0.390801
-0.622408
0.278423
-0.539967
0.098845
-0.300826
0.174487
-0.497565
0.394284
-0.391474
0.343850
-0.140118
0.535541
-0.245631
0.041508
-0.506687
0.226072
-0.592921
0.201928
-0.605109
0.293150
-0.658909
0.697509
-0.235552
0.262089
-0.334126
0.017431
-0.455530
0.365483
-0.457165
0.352204
-0.056284
0.379573
-0.630627
0.596250
-0.478417
0.231453
-0.070738
0.275982
-0.625737
0.462212
-0.619832
0.065854
-0.297752
0.165462
-0.107363
0.104439
-0.391534
0.000284
-0.306367
0.296644
-0.293433
0.265276
-0.294153
-0.506631
0.527365
-0.628279
0.546416
-0.282895
0.293762
-0.303581
0.635099
-0.350046
0.683154
-0.565725
0.246296
-0.506496
0.097178
-0.317033
0.037553
-0.022915
0.079245
-0.657385
0.088769
-0.376998
0.122847
-0.196131
0.481436
-0.514382
0.196415
-0.087803
0.111025
-0.489849
0.353079
-0.405178
0.318834
-0.180445
0.333456
-0.165250
0.463340
-0.627218
0.468831
-0.398439
0.277264
-0.451985
0.264164
-0.523559
0.213556
-0.361342
0.140593
-0.251109
0.384257
-0.219838
0.208494
-0.473025
0.596836
-0.396897
0.669157
-0.378272
0.145723
-0.165572
0.466075
-0.256748
0.655420
-0.119155
0.661926
-0.274254
0.299600
-0.295382
0.439504
-0.062940
0.222600
-0.208335
0.461378
-0.499864
0.660320
-0.025542
0.323423
-0.173877
0.386884
-0.464016
0.424986
-0.071141
0.683854
-0.633480
0.544166
-0.580690
0.264821
-0.513323
0.258962
-0.410544
0.678894
-0.025037
0.667292
-0.634315
0.144192
-0.639543
0.208569
-0.443792
0.224600
-0.648073
0.506731
-0.447200
0.156408
-0.268109
0.247064
-0.116729
0.293652
-0.570487
0.290605
-0.518610
0.334503
-0.035872
0.051677
-0.318358
0.649071
-0.595843
0.199048
-0.213892
0.409166
-0.458010
0.624435
-0.388060
0.483047
-0.591727
0.322375
-0.627239
0.520945
-0.530944
0.371030
-0.045544
0.479017
-0.177762
0.492744
-0.635425
0.445871
-0.039808
0.052154
-0.039523
0.610296
-0.342759
0.020058
-0.244799
0.358350
-0.071735
0.563157
-0.307421
0.667578
-0.062204
0.521313
-0.376743
0.520214
-0.445748
0.064803
-0.303261
0.337475
-0.387178
0.230500
-0.158420
0.218122
-0.601530
0.203964
-0.697138
0.079292
-0.696709
0.632563
-0.525163
0.036517
-0.684717
0.564685
-0.646813
0.327476
-0.584743
0.191612
-0.685826
0.656478
-0.054769
0.293247
-0.624056
0.116973
-0.114560
0.300800
-0.637187
0.533628
-0.380148
0.268454
-0.105770
0.174026
-0.352063
0.423589
-0.206358
0.382586
-0.575273
0.268041
-0.451769
0.556876
-0.200604
0.276932
-0.593393
0.185321
-0.141617
0.540206
-0.512797
0.026360
-0.031818
0.498624
-0.682839
0.086586
-0.091871
0.606895
-0.243956
0.263610
-0.255123
0.119276
-0.080273
0.585411
-0.264354
0.392892
-0.364615
0.152484
-0.600626
0.196981
-0.524620
0.480892
-0.465021
0.276389
-0.337768
0.665625
-0.553321
0.231161
-0.150947
0.694938
-0.071367
0.663744
-0.021298
0.103185
-0.462368
0.004137
-0.200518
0.473465
-0.619709
0.410173
0.163908
0.282753
-0.657559
0.260227
-0.111915
0.346799
-0.419309
0.589929
-0.367415
0.312654
-0.115083
0.192035
-0.093546
0.580105
-0.468424
0.431314
-0.545730
0.321745
-0.662475
0.696677
-0.316683
0.033842
-0.660421
0.382910
-0.122302
0.122683
-0.169945
0.349342
-0.107769
0.428560
-0.099195
-0.269691
-0.519718
0.638681
-0.406580
0.321702
-0.069480
0.157037
-0.282005
0.436895
-0.469691
0.397088
-0.628930
0.563237
-0.277193
0.397354
-0.294551
0.122923
-0.019099
0.301955
-0.119600
0.335781
-0.380946
-0.325160
-0.849032
0.507197
-0.000792
0.712556
0.158129
-0.816116
-0.994518
-0.250402
-0.283788
0.103737
-0.692289
0.182643
-0.604811
0.698512
-0.339680
0.186816
-0.435407
0.109371
-0.583904
0.364337
-0.672608
0.161097
-0.061691
0.267159
-0.284021
0.080790
-0.634544
0.070380
-0.611939
0.252716
-0.024635
0.694349
-0.612782
-0.390719
-0.918589
0.364347
-0.581282
0.380543
-0.672467
0.083826
-0.116154
0.601499
-0.266469
0.020965
-0.600012
0.606149
-0.207781
0.335419
-0.015519
0.091686
-0.699756
0.688127
-0.252783
0.061447
-0.352674
-0.120003
-0.296045
-0.015116
0.008781
0.722880
0.186397
-0.589848
-0.719243
-0.433141
-0.738893
0.069387
-0.635117
0.676808
-0.130601
0.607584
-0.060634
0.246755
-0.499258
0.327103
-0.267720
0.409095
-0.233252
0.475501
-0.044514
0.248771
-0.567186
0.044270
-0.251671
-0.106667
-0.166783
0.456877
-0.241031
0.851279
-0.056030
-0.145808
-0.376643
-0.321968
-0.763714
0.261056
-0.103654
0.531782
-0.611259
0.038771
-0.508590
0.051685
-0.646355
0.569224
-0.288614
0.455438
-0.196327
0.556334
-0.164533
0.429578
-0.331835
0.209047
-0.656216
-0.233579
-0.496746
0.374735
0.311333
0.959932
0.673639
0.253922
-0.833163
0.108750
-0.986297
-0.154294
-0.645268
0.694225
-0.369655
0.048922
-0.526007
0.280914
-0.087693
0.334597
-0.322774
0.034047
-0.203821
0.611389
-0.489485
0.400148
-0.467723
0.654018
-0.019289
-0.044502
-0.017777
0.079883
0.152953
0.213101
-0.359626
0.394180
0.219387
0.012791
-0.822899
0.441338
-0.209843
0.666295
-0.696157
0.155111
-0.660520
0.365812
-0.204033
0.486528
-0.646726
0.291725
-0.121125
0.269501
-0.325773
0.324946
-0.180889
0.171920
0.084512
0.910944
0.302464
0.317025
-0.360373
-0.058649
-0.147682
0.142636
-0.233019
0.463250
-0.174813
-0.101752
-0.216973
0.457651
-0.006547
0.426815
-0.423946
0.002703
-0.581926
0.384466
-0.368515
0.085959
-0.170994
0.315241
-0.377684
0.292119
-0.584742
0.060119
-0.426196
-0.142991
0.598290
0.486006
0.231096
-0.329831
-0.338093
-0.368075
-0.019859
0.589085
0.315298
0.276962
-0.246090
0.673479
-0.393198
0.463063
-0.431129
0.399745
-0.189878
0.155075
-0.402448
0.071804
-0.539542
0.070964
-0.157763
0.010536
-0.386205
0.596773
-0.141409
0.437972
-0.249930
-0.084088
-0.310325
0.344496
-0.414613
-0.252549
0.023261
0.824532
0.422403
0.508794
-0.561912
0.122395
-0.234999
0.164817
-0.095874
0.628197
-0.627880
0.527003
-0.327942
0.117758
-0.682078
0.030390
-0.189562
0.521620
-0.101354
0.347324
-0.512397
0.755157
-0.778896
-0.076350
-0.187880
-0.169494
-0.076128
0.442864
-0.436165
0.899845
0.709254
0.343643
0.002073
0.461182
-0.690842
0.693989
-0.581535
0.225841
-0.158806
0.677408
-0.154038
0.131616
-0.459482
0.481980
-0.204444
0.486490
-0.512370
0.394006
-0.434097
1.002315
-0.423849
-0.446587
-0.714640
-0.208713
-0.311044
0.603802
0.389169
1.274750
0.144189
0.459498
-0.348078
0.200778
-0.349969
0.521275
-0.659917
0.340811
-0.515264
0.541452
-0.566652
0.719000
-0.473931
0.020690
-0.060757
0.323271
-0.502670
0.265201
-0.185272
0.335509
-0.406686
0.195356
-0.499101
0.055117
-0.381745
1.146302
0.471800
0.314780
-0.307887
0.726765
-0.037902
0.544706
-0.695483
0.508830
-0.045484
0.345452
-0.330105
0.005401
-0.686263
0.190298
-0.501924
0.552916
-0.119440
0.365713
-0.573606
0.180196
-0.778867
0.347321
0.084205
0.306604
-0.552534
0.591770
-0.266280
0.613050
0.264083
1.010805
0.128657
0.806709
-0.507964
0.539957
-0.400196
0.570782
-0.384663
0.395679
-0.379612
0.430147
-0.041131
0.009717
-0.435548
0.027395
-0.155086
0.282401
-0.580310
0.274525
-0.648115
0.417744
-0.549985
0.863668
0.109358
0.263009
0.105891
0.416383
-0.138620
0.643566
-0.078473
0.473757
-0.180567
0.491706
-0.239646
0.035178
-0.331663
0.639842
-0.605960
0.016326
-0.335521
0.285571
-0.446473
0.376652
-0.295288
0.182021
-0.404046
0.450374
-0.464423
0.284357
-0.169156
0.518288
-0.096803
0.471720
-0.343076
0.251992
-0.471601
0.605335
-0.200323
0.564266
-0.208919
0.631552
-0.194330
0.465158
-0.423258
0.433976
-0.500336
0.054921
-0.373818
0.406296
-0.071247
0.009338
-0.691867
0.517720
-0.385990
0.287155
-0.699741
0.090037
-0.037529
0.464164
-0.374393
0.062429
-0.176701
0.412666
-0.542050
0.526338
-0.581129
0.521791
-0.211821
0.171097
-0.406255
0.449765
-0.102649
0.600584
-0.214923
0.525907
-0.334560
0.015259
-0.580827
0.008378
-0.421555
0.652075
-0.017716
0.413422
-0.469795
0.403706
-0.000577
0.469536
-0.493743
0.038106
-0.233700
0.168136
-0.100535
0.410401
-0.580802
0.642585
-0.236740
0.461931
-0.464376
0.448560
-0.633028
0.170630
-0.198325
0.035677
-0.071215
0.413248
-0.561583
0.405775
-0.428506
0.442411
-0.414153
0.150061
-0.394485
0.431869
-0.563483
0.164280
-0.135575
0.564060
-0.633816
0.629318
-0.602166
0.167516
-0.097455
0.002701
-0.577918
0.678257
-0.645286
0.114657
-0.440188
0.409661
-0.563217
0.093353
0.580292
-0.061542
0.408892
-0.651506
0.474790
-0.270476
0.357281
-0.203296
0.012886
-0.071434
0.353357
-0.388101
0.503303
-0.216840
0.571652
-0.638878
0.080899
-0.505468
0.568196
-0.683065
0.672984
-0.665651
0.685766
-0.550902
0.643908
-0.631052
0.665559
-0.384096
0.340713
-0.528776
0.057311
-0.221005
0.590318
-0.466204
0.172511
-0.365108
0.036679
-0.529792
0.568404
-0.049566
0.601226
-0.221761
0.456938
-0.404529
0.438601
-0.328589
0.343407
-0.519500
0.134058
-0.211603
0.502565
-0.086900
0.177254
-0.488332
0.657944
-0.121162
0.419383
-0.623503
0.505258
-0.060096
0.452279
-0.562569
0.281101
-0.342597
0.328773
-0.453613
0.007705
-0.365452
0.283405
-0.576109
0.415018
-0.184631
0.097870
-0.171956
0.589160
-0.536471
0.500545
-0.232567
0.355971
-0.634603
0.444169
-0.158536
0.041645
-0.621423
0.646868
-0.699588
0.042585
-0.366251
0.623091
-0.547843
0.426348
-0.365390
0.410412
-0.007449
0.017967
-0.039185
0.461062
-0.025672
0.404638
-0.044467
0.601780
-0.119656
0.229098
-0.699650
0.291612
-0.210464
0.536121
-0.103620
0.350824
-0.192092
0.026760
-0.094994
0.350628
-0.068405
0.016417
-0.297496
0.067993
-0.059003
0.663748
-0.691084
0.606846
-0.390096
0.366454
-0.317258
0.397545
-0.384421
0.356443
-0.158606
0.410093
-0.061081
0.203073
-0.311873
0.180737
-0.432171
0.311523
-0.472349
0.550428
-0.147644
0.564507
-0.201253
0.339736
-0.591267
0.296247
-0.690365
0.659672
-0.312664
0.287861
-0.027665
0.371666
-0.251609
0.018749
-0.278512
0.641704
-0.385203
0.595770
-0.339249
0.069624
-0.252213
0.497855
-0.479717
0.313294
-0.000928
0.091589
-0.494032
0.433099
-0.403113
0.266381
-0.283527
0.550757
-0.130888
0.484780
-0.190493
0.022155
-0.081026
0.180858
-0.681826
0.393690
-0.468719
-0.116824
-0.159167
0.062075
0.036646
0.427106
-0.581768
0.334350
-0.632811
0.018697
-0.582586
0.491851
-0.099136
0.262783
-0.105146
0.100064
-0.354373
0.599178
-0.533163
0.057486
-0.165559
0.116690
-0.608243
0.296447
-0.601469
0.098736
-0.318601
0.682495
-0.411711
0.151922
-0.576111
-0.119522
-0.478678
0.311394
-0.139269
0.229988
-0.289419
-0.293646
-0.235846
0.325047
-0.331953
0.534668
-0.116899
0.431089
-0.097452
0.222044
-0.531153
0.451824
-0.121222
0.364316
-0.509310
0.286781
-0.481006
0.417553
-0.583227
0.382475
-0.450860
0.163168
-0.779805
-0.047119
-0.335249
0.287545
0.054349
0.293580
-0.491962
0.083129
-0.327504
0.470806
-0.243507
0.501933
-0.193153
0.575460
-0.336601
0.310051
-0.306550
0.434053
-0.532096
0.137703
-0.185877
0.653318
-0.502019
0.695187
-0.240098
0.282680
-0.417700
-0.389522
-1.072193
-0.003789
-0.294747
0.408137
-0.312357
-0.251016
-0.639529
0.238895
-0.317301
0.039728
-0.681941
0.689915
-0.022427
0.225449
-0.491849
0.215580
-0.100909
0.128450
-0.525631
0.407459
-0.562502
0.357727
-0.545162
0.048035
-0.311045
0.347181
-0.036536
0.146624
-1.080621
0.290175
-0.656352
0.573793
-0.788411
0.040376
-0.425623
0.441065
-0.467282
0.393867
-0.372989
0.666615
-0.052120
0.061295
-0.656531
0.074547
-0.286744
0.448379
-0.290127
0.387653
-0.576829
0.115758
-0.095112
0.439331
-0.473485
0.640274
-0.492143
-0.086747
-0.434240
0.679217
-1.073500
0.114205
-0.161007
0.000669
-0.186893
0.046278
-0.086435
0.206804
-0.583169
0.636796
-0.237340
0.662523
-0.603411
0.289461
-0.023818
0.559942
-0.364008
0.310563
-0.308321
0.654135
-0.698216
0.185150
-0.069893
0.093328
-0.626961
0.455869
-0.044239
0.247729
-0.547927
0.564383
-0.459733
0.063852
-0.590095
0.099959
-0.238522
0.575241
-0.103977
0.683485
-0.291627
0.687146
-0.620281
0.528967
-0.670259
0.523692
-0.118428
0.673488
-0.383634
0.482436
-0.284050
0.691955
-0.436571
0.282266
-0.184427
0.089548
-0.705272
0.057469
0.075444
1.172599
-0.528600
0.419025
0.267691
0.097366
-0.081474
0.716463
-0.588303
0.615051
-0.521061
0.692281
-0.598536
0.092097
-0.679427
0.518817
-0.641654
0.629096
-0.342509
0.060082
-0.602584
0.026143
-0.542518
0.186634
-0.043750
0.061950
-0.978521
-0.193166
-0.623143
-0.255310
-0.553244
1.100520
-0.040301
0.283409
-0.194313
0.733362
-0.167812
0.154471
-0.452923
0.056116
-0.069521
0.273984
-0.048396
0.668057
-0.386671
0.027823
-0.486874
0.328325
-0.656919
0.129383
-0.388407
0.559503
-0.188932
0.145784
-0.453122
-0.371033
-1.530100
0.449312
0.020097
0.652096
-0.611731
0.446288
-0.312228
0.652482
-0.076176
0.344099
-0.397172
0.243988
-0.498570
0.150095
-0.300104
0.568092
-0.424079
0.348501
-0.536149
0.110750
-0.376324
0.323024
-0.439075
0.311908
-0.487729
0.016474
-0.185199
0.190969
-0.320060
0.051844
0.331180
0.048667
-0.093881
0.386317
0.064319
0.050122
-0.415991
0.394939
-0.526676
0.492167
-0.039039
0.223849
-0.036156
0.537609
-0.373944
0.336260
-0.405701
0.098023
-0.684761
0.241851
-0.208773
0.339750
-0.597663
0.519703
-1.044569
0.180981
-0.231078
0.032688
-0.247773
0.300562
-0.578495
-0.043678
-0.685161
0.535142
-0.057149
0.666134
-0.493330
0.473141
-0.361073
0.320006
-0.265308
0.400112
-0.543855
0.301463
-0.237722
0.217799
-0.637723
0.643423
-0.315822
0.600021
-0.191187
0.199087
-0.430370
0.176437
-0.317447
-0.146950
-0.322136
0.247410
-0.612665
-0.029269
-0.398626
0.238780
-0.158352
0.183660
-0.670805
0.256561
-0.149794
0.464135
-0.029701
0.510867
-0.084141
0.295009
-0.210979
0.627995
-0.596473
0.448701
-0.145794
0.534196
-0.424255
0.205672
-0.325941
0.247985
-0.074382
-0.145896
-0.356935
0.034807
-0.235186
-0.041649
-0.683033
0.095778
-0.141536
0.187672
-0.274042
0.387028
-0.371596
0.244847
-0.643589
0.521389
-0.008981
0.672946
-0.332600
0.093122
-0.268299
0.543235
-0.021117
0.164772
-0.245629
-0.074779
-0.559987
0.770989
-0.264414
0.082378
-0.383902
0.845672
-0.029149
0.511649
-0.222838
0.004048
-0.162002
0.179825
-0.197153
0.271591
-0.367761
0.471195
-0.658619
0.039356
-0.016041
0.601863
-0.561090
0.025023
-0.575498
0.193001
-0.118144
0.143797
0.149631
0.486054
0.078126
0.338165
-0.331552
0.177544
-0.221756
0.327762
0.321450
0.552021
-0.211214
0.449502
-0.776765
0.022838
-0.673117
0.046663
-0.202662
0.170270
-0.318254
0.570423
-0.641464
0.276528
-0.610124
0.657505
-0.179080
0.470525
-0.682528
0.054578
-0.689608
0.408904
0.131816
0.814718
-0.191180
0.428809
-0.328953
0.920801
0.322200
0.911437
0.039352
0.278563
-0.113853
0.530250
-0.036742
0.076541
-0.553087
0.009859
-0.123204
0.055749
-0.180129
0.441458
-0.626172
0.121593
-0.018331
0.535952
-0.079098
0.197411
-0.306476
0.065538
0.191517
0.341006
-0.328525
0.181755
-0.386797
0.630167
0.079169
0.884854
-0.119603
0.513089
-0.504665
0.329148
-0.549450
0.651717
-0.159398
0.586192
-0.028258
0.012485
-0.596051
0.151462
-0.068234
0.076180
-0.592921
0.694407
-0.197773
0.611252
-0.530358
0.276871
0.024708
0.338125
-0.308248
0.235295
-0.407991
0.766375
0.106780
0.791565
-0.154793
0.535493
-0.472893
0.451369
-0.040108
0.412163
-0.080517
0.589558
-0.363880
0.239914
-0.475750
0.392138
-0.252399
0.371801
-0.543600
0.320634
-0.447981
0.436521
-0.315040
0.645753
-0.347773
0.145399
-0.222624
0.456435
-0.282233
0.561122
-0.117087
0.689070
-0.361918
0.228101
-0.665671
0.564947
-0.596422
0.539971
-0.316316
0.636530
-0.252134
0.396832
-0.526088
0.616014
-0.636747
0.301838
-0.308152
0.189146
-0.673639
0.151752
-0.509779
0.421620
-0.588273
0.124820
-0.367373
0.236045
-0.270218
0.589998
-0.692481
0.552452
-0.451120
0.109568
-0.541522
0.113038
-0.337669
0.507193
-0.677985
0.234091
-0.347165
0.294300
-0.170621
0.599299
-0.691132
0.696709
-0.515313
0.627879
-0.298547
0.123465
-0.117025
0.272186
-0.275217
0.626805
-0.693806
0.163490
-0.051624
0.361180
-0.399535
0.321843
-0.251178
0.392016
-0.174294
0.002297
-0.501584
0.015816
-0.115335
0.139253
-0.523010
-0.096272
0.373344
-0.170174
0.387620
-0.543965
0.069473
-0.378752
0.540674
-0.584786
0.306631
-0.139221
0.008252
-0.423934
0.411407
-0.283469
0.350461
-0.405214
0.446959
-0.402085
0.066393
-0.146494
0.023928
-0.317571
0.538511
-0.198222
0.319868
-0.340095
0.214039
-0.435204
0.479347
-0.037049
0.528523
-0.152691
0.207223
-0.216143
0.696656
-0.276696
0.594895
-0.537331
0.161483
-0.201527
0.676552
-0.169734
0.625183
-0.387959
0.453203
-0.275644
0.093173
-0.200162
0.677729
-0.159567
0.346657
-0.001656
0.477138
-0.185167
0.199880
-0.097006
0.525262
-0.413919
0.532210
-0.304610
0.450967
-0.360733
0.457301
-0.658190
0.576876
-0.453957
0.234886
-0.471771
0.291288
-0.396369
0.673298
-0.267840
0.566103
-0.598481
0.655799
-0.319306
0.174125
-0.048972
0.519468
-0.151855
0.208539
-0.166125
0.153512
-0.685676
0.351292
-0.353392
0.082682
-0.176554
0.067310
-0.614892
0.481164
-0.518319
0.275625
-0.238465
0.476467
-0.152501
0.692422
-0.011353
0.624272
-0.283710
0.407722
-0.597570
0.551550
-0.273825
0.496051
-0.507081
0.593131
-0.669904
0.556321
-0.412599
0.122031
-0.064860
0.578724
-0.275543
0.050536
-0.230016
0.628934
-0.133218
0.406571
-0.696245
0.048110
-0.187735
0.514522
-0.323735
0.426200
-0.290989
0.476236
-0.418622
0.302342
-0.400508
0.002333
-0.010064
0.298078
-0.553883
0.283889
-0.094129
0.361232
-0.177019
0.064305
-0.217553
0.589618
-0.186336
0.282413
-0.468342
0.461878
-0.332949
0.698358
-0.390813
0.466167
-0.404929
0.387057
-0.514278
0.592664
-0.201579
0.138013
-0.318864
0.492568
-0.614249
0.037486
-0.094910
0.314757
-0.039818
0.104974
-0.612835
0.593701
-0.388863
0.006964
-0.254933
0.565883
-0.071269
0.472486
-0.455501
0.257605
-0.054899
0.223843
-0.019483
0.387848
-0.222202
0.415442
-0.148887
0.634410
-0.052114
0.718881
-0.467160
0.341104
-0.066179
0.149788
-0.091307
0.020554
-0.176144
0.186411
-0.335310
0.215962
-0.291385
0.248145
-0.109663
0.680248
-0.255109
0.364596
-0.546131
0.326377
-0.137082
0.301632
-0.583982
0.191981
-0.518028
0.622472
-0.554150
0.116419
-0.244546
0.120903
-0.587709
0.488155
0.074920
0.535968
-0.008351
0.108442
-0.633261
0.101545
-0.128996
0.109405
-0.287956
0.464307
-0.325367
0.579341
-0.012452
0.435030
-0.559589
0.267560
-0.099626
0.405721
-0.593938
0.236708
-0.006497
0.495692
-0.326983
0.626725
-0.291523
0.386742
-0.512396
0.740617
-0.276075
0.604224
-0.399683
0.344597
-0.349916
0.416303
-0.452941
0.283177
-0.517849
0.581937
-0.392582
0.105805
-0.346244
0.017949
-0.685146
0.358696
-0.452979
0.544735
-0.626256
0.552365
-0.249588
0.559919
0.071171
0.401309
-0.139878
0.680740
0.055434
0.746248
-0.014066
0.737901
-0.656942
0.467901
-0.526456
0.380899
-0.113382
0.176373
-0.097202
0.566323
-0.459550
0.615051
-0.448261
0.152132
-0.020855
0.094505
-0.170081
0.005760
-0.453200
0.623060
-0.527429
0.420442
-0.347615
0.231470
-0.068015
0.707099
-0.216376
0.597551
-0.269611
0.525161
-0.432096
0.508865
-0.420022
0.451900
-0.278388
0.247236
-0.132799
0.391770
-0.423609
0.230001
-0.258094
0.183159
-0.145052
0.006354
-0.335291
0.165907
-0.100859
0.505372
-0.148329
0.593720
-0.365082
0.125507
-0.071709
0.325576
0.042935
0.543602
0.049191
0.550216
-0.167432
0.449920
-0.232475
0.008185
-0.261565
0.653255
-0.460085
0.539953
-0.200491
0.592884
-0.231723
0.624100
-0.122885
0.489817
-0.107259
0.267937
-0.496171
0.442550
-0.400614
0.636858
-0.163234
0.695450
-0.266056
0.871666
-0.366601
0.839121
-0.055219
0.109360
-0.366077
0.248407
-0.535072
0.648695
-0.001591
0.067547
-0.656879
0.263156
-0.020801
0.416964
-0.103109
0.221293
-0.309848
0.334832
-0.145393
0.432733
-0.124649
0.252652
0.033583
0.678589
-0.603254
0.523136
-0.323587
0.470991
-0.084493
0.404045
-0.068720
0.343331
-0.197152
0.398482
-0.320898
0.671312
-0.649460
0.155970
-0.620006
0.651051
-0.223516
0.576886
-0.214207
0.244318
-0.293850
0.317316
-0.465611
0.603698
-0.652148
0.611004
-0.303639
0.136962
-0.055203
0.428028
-0.489464
0.375167
0.175065
0.651733
-0.239127
0.515937
-0.000090
0.621499
-0.680544
0.337949
-0.321390
0.301442
-0.309261
0.270850
-0.457412
0.229267
-0.221900
0.680928
-0.106153
0.436107
-0.225246
0.400003
-0.053423
0.690857
-0.251314
0.074277
-0.511573
0.697922
0.104866
0.255096
-0.071435
0.209455
-0.061122
0.464911
-0.491008
0.626322
-0.060726
0.679859
-0.547818
0.041270
-0.317808
0.169208
-0.342712
0.627069
-0.440058
0.100124
-0.156337
0.661958
-0.081052
0.262490
-0.398065
0.326252
-0.609475
0.506028
-0.230332
0.350401
-0.300724
0.349701
-0.011512
0.648458
-0.120847
0.593514
-0.511729
0.494962
-0.132402
0.514866
-0.415268
0.193128
-0.494725
0.263086
-0.234398
0.112534
-0.432294
0.577111
-0.039603
0.172352
-0.677235
0.195940
-0.134310
0.078241
-0.405298
0.588821
-0.313329
0.503942
-0.097665
0.820257
-0.463046
0.150709
-0.037705
0.327377
-0.454857
0.431125
-0.676996
0.499764
-0.214200
0.109397
-0.314631
0.629467
-0.302525
0.109356
-0.192553
0.536923
-0.221890
0.624847
-0.414034
0.261493
-0.097199
0.411337
-0.414753
0.285639
-0.362319
0.295852
0.098978
0.270910
-0.434692
0.443508
0.038842
0.754983
-0.261084
0.241651
-0.118792
0.269021
-0.661927
0.094335
-0.068785
0.176126
-0.203732
0.383416
-0.105594
0.506257
-0.492772
0.298147
-0.343181
0.014662
-0.222995
0.057214
-0.253324
0.387492
-0.357469
0.119249
-0.401559
0.324794
-0.062572
0.697346
-0.178886
0.296145
-0.154891
0.394605
-0.111773
0.652007
-0.624695
0.227473
-0.221027
0.586621
-0.321808
0.289812
-0.062748
0.525300
-0.673469
0.168341
-0.331798
0.466001
-0.466489
0.674978
-0.479728
0.761044
0.079059
0.151067
-0.132549
0.641092
0.091576
0.299482
-0.525956
0.464739
-0.000683
0.335069
-0.489806
0.340304
-0.678948
0.636220
-0.292310
0.603643
-0.163693
0.513337
-0.490264
0.485260
-0.103390
0.553012
-0.311041
0.076377
-0.021354
0.642839
-0.537666
0.531171
-0.473660
0.460786
-0.327414
0.776000
-0.239460
0.244570
-0.227361
0.609248
-0.176370
0.420245
-0.105685
0.325352
-0.000287
0.636202
-0.665656
0.679236
-0.572422
0.257966
-0.582879
0.035874
-0.071543
0.373143
-0.521615
0.174451
-0.226155
0.132656
-0.246206
0.261016
0.059263
0.267400
0.140033
0.856529
-0.250798
0.696084
-0.425676
0.196343
-0.537171
0.383512
-0.566366
0.148064
-0.083403
0.676481
-0.473416
0.083690
-0.612683
0.439073
-0.062926
0.485105
-0.697038
0.645805
-0.521219
0.068341
-0.318949
0.342835
-0.242792
0.544823
-0.425208
0.560782
-0.014070
0.644893
-0.515165
0.199143
-0.438590
0.357721
-0.585431
0.496768
-0.388590
0.540322
-0.161626
0.265546
-0.688386
0.245029
-0.242027
0.461802
-0.328720
0.154710
-0.200875
0.391646
-0.639815
0.197913
-0.337451
0.461034
-0.266254
0.656400
-0.104895
0.509721
-0.493590
0.585812
-0.296330
0.599713
-0.424840
0.225860
-0.018268
0.273802
-0.493599
0.662724
-0.062266
0.191750
-0.503046
0.223892
-0.457296
0.491431
-0.468922
0.699323
-0.253234
0.097641
-0.154033
0.454109
-0.489287
0.093848
-0.652022
0.126739
-0.554882
0.218276
-0.083139
0.658751
-0.027323
0.584643
-0.538112
0.329990
-0.478761
0.268459
-0.519485
0.500843
-0.543104
0.312055
-0.463567
0.605370
-0.503805
0.266613
-0.129262
0.261101
-0.058044
0.598184
-0.260424
0.311278
-0.695825
0.414457
-0.065386
0.485112
-0.508305
0.017408
-0.611851
0.363187
-0.235684
0.694990
-0.321939
0.263007
-0.579634
0.160051
-0.592997
0.358395
-0.428509
0.412482
-0.159238
0.271613
-0.024537
0.622805
-0.176983
0.528342
-0.189417
0.306245
-0.089443
0.247461
-0.204429
0.349867
-0.558739
0.200254
-0.064324
0.624125
-0.685366
0.572629
-0.641533
0.597217
-0.235816
0.177217
-0.592207
0.557755
-0.440224
0.471841
-0.017806
0.333221
-0.130235
0.446315
-0.045703
1.218911
0.017929
-0.070241
0.212278
-0.194912
0.598583
-0.401695
0.501157
-0.688026
0.649157
-0.005586
0.337893
-0.407705
0.205840
-0.402217
0.432020
-0.191206
0.274846
-0.373553
0.088422
-0.510662
0.550770
-0.680630
0.368417
-0.290995
0.452470
-0.386223
0.624216
-0.582705
0.132538
-0.669919
0.172178
-0.150467
0.040160
-0.384456
0.345379
-0.638743
0.086152
-0.146537
0.626770
-0.035308
0.152123
-0.264663
0.543204
-0.357962
0.666879
-0.275224
0.549168
-0.241725
0.648778
-0.637590
0.052387
-0.522710
0.618220
-0.420804
0.090543
-0.370690
0.107027
-0.014758
0.253395
-0.239566
0.684678
-0.425574
0.390033
-0.024838
0.110030
-0.035412
0.663581
-0.196182
0.181949
-0.590351
0.231491
-0.334072
0.155013
-0.074695
0.692034
-0.121893
0.349919
-0.541202
0.363618
-0.298696
0.478792
-0.416005
0.098244
-0.397012
0.136809
-0.188787
0.067702
-0.243837
0.203545
-0.321097
0.483403
-0.224435
0.046671
-0.173436
0.213061
-0.156701
0.208848
-0.176642
0.352883
-0.390797
0.066993
-0.584374
0.024869
-0.222007
0.659069
-0.068919
0.343899
-0.321055
0.558104
-0.007517
0.607684
-0.336896
0.423523
-0.005928
0.033908
-0.560332
0.194715
-0.101610
0.104169
-0.398260
0.422707
-0.587572
0.586483
-0.469378
0.061008
-0.099544
0.626079
-0.269856
0.276187
-0.278962
0.660653
-0.343180
0.163336
-0.685522
0.565186
-0.122405
0.002425
-0.209086
0.431392
-0.560529
0.216603
-0.339076
0.197425
-0.640126
0.345004
-0.231333
0.500458
-0.539719
0.332943
-0.604627
0.237980
-0.055649
0.492199
-0.124463
0.525027
-0.553206
0.224007
-0.451106
0.123062
-0.500194
0.030068
-0.083716
0.143374
-0.193405
0.069238
-0.008561
0.315810
-0.071662
0.217646
-0.047202
0.632191
-0.434250
0.386278
-0.129616
0.374375
-0.031282
0.360949
-0.174833
0.457210
-0.703931
-0.037882
-0.129820
-0.010120
-0.568055
0.311826
-0.660741
0.374568
-0.440828
0.325674
-0.547927
0.257646
-0.355743
0.631643
-0.401020
0.549147
-0.000880
0.409580
-0.164957
0.072543
-0.627227
0.212159
-0.004734
0.361476
-0.598437
0.134350
-0.103551
0.570253
-0.449404
0.081271
-0.661200
0.255658
-0.478797
0.446640
-0.611898
0.221515
-0.076137
0.413301
-0.586669
0.600598
-0.038976
0.434596
-0.158243
0.394718
-0.366239
0.559263
-0.243866
0.367119
-0.268843
0.408823
-0.439662
0.196070
-0.620982
0.444396
-0.655716
0.500704
-0.796297
0.218633
-0.378387
0.558051
0.156562
0.340499
-0.110086
0.116547
-0.071786
0.069463
-0.556032
0.302708
-0.415272
0.442700
-0.203306
0.454248
-0.177296
0.361549
-0.148966
0.543535
-0.220812
0.392832
-0.210654
0.489655
-0.101655
0.619517
-0.712750
-0.291333
-0.819808
0.515859
-0.537589
0.270503
-0.349863
0.112090
-0.611999
0.564842
-0.462605
0.235765
-0.234979
0.000615
-0.112714
0.091010
-0.303323
0.527986
-0.533711
0.506629
-0.282234
0.011007
-0.168177
0.431200
-0.554542
0.358189
-0.124032
0.065196
-0.162932
-0.043408
0.041564
-0.055863
-0.029963
1.060465
0.646797
0.791629
-0.359267
0.584410
0.078173
0.661953
-0.273988
0.222625
-0.041931
0.520035
-0.223240
0.154645
-0.611046
0.526563
-0.682631
0.444756
-0.333192
0.264864
-0.455764
0.501370
-0.696064
0.310306
-0.186715
-0.178086
-0.904308
0.084408
0.250704
0.713745
0.394353
0.834459
0.115853
0.308411
-0.330775
0.067501
-0.285314
0.366055
-0.016112
0.570370
-0.588680
0.058043
-0.390406
0.111920
-0.212687
0.301451
-0.638484
0.195318
-0.046208
0.271676
-0.460182
0.501971
-0.149432
-0.015796
-0.609498
-0.528255
-0.178180
0.913456
-0.322897
0.655314
0.178820
0.023741
0.289596
0.261519
-0.306783
0.100715
-0.364956
0.592097
-0.466770
0.381068
-0.442390
0.355450
-0.439111
0.152873
-0.467371
0.651798
-0.454324
0.405854
-0.147116
0.500532
-0.785601
0.124054
-0.922648
-0.583881
-0.628783
0.816296
0.026031
-0.038083
-0.188540
-0.143908
-0.356427
0.225184
-0.012161
0.578246
-0.661385
0.318944
-0.678961
0.346419
-0.211041
0.445732
-0.007410
0.673509
-0.101182
0.446520
-0.126381
0.568553
-0.398318
0.580706
-0.342788
0.290102
-1.350019
-0.398341
-0.344721
1.119577
0.301724
0.144356
-0.583928
-0.213462
-0.690348
0.538993
-0.162876
0.118180
-0.282430
0.175037
-0.696427
0.243815
-0.493981
0.675388
-0.570157
0.005022
-0.421120
0.577567
-0.678530
0.522302
-0.324087
0.104912
-0.353590
-0.157476
-1.113338
-0.050828
-0.700605
0.564018
0.040059
0.239722
-0.281833
0.207181
-0.688931
-0.043026
-0.436201
0.093015
-0.650190
0.599077
-0.211195
0.232620
-0.074114
0.207621
-0.476435
0.568095
-0.183009
0.346592
-0.573116
0.604129
-0.224158
0.638017
-0.376324
0.556295
-0.770006
-0.141942
-0.994373
0.368001
0.080030
0.410644
-0.398739
-0.020580
0.275171
0.609916
-0.119454
0.495909
-0.008736
0.555655
-0.588924
0.658927
-0.454732
0.100119
-0.191546
0.528846
-0.307740
0.667981
-0.396941
0.490750
-0.314573
0.356428
-0.237303
0.648409
-0.445017
-0.229792
-0.140459
0.211676
-0.366541
0.280447
0.297208
0.601072
-0.311730
0.358594
-0.620884
0.055175
-0.289089
0.040338
-0.551084
0.297825
-0.595992
0.440008
-0.256752
0.350725
-0.540127
0.448298
-0.179571
0.147867
-0.416279
0.655621
-0.357408
-0.098087
-0.450875
0.020832
-0.276528
0.426415
-0.109186
0.550951
-0.262222
1.001875
-0.008035
0.371209
-0.195251
0.510299
-0.696434
0.235423
-0.565474
0.285523
-0.275760
0.416558
-0.583348
0.171753
-0.156566
0.140099
-0.522477
0.696692
-0.588397
0.002048
-0.211991
0.126622
-0.877253
-0.404626
-0.463873
0.063246
-0.182352
0.287143
-0.312827
0.503919
0.136209
0.802457
-0.025207
0.233746
-0.306898
0.479412
-0.086152
0.303331
-0.014835
0.651626
-0.588854
0.259796
-0.398983
0.472202
-0.462348
0.524749
-0.612301
0.284826
-0.625355
0.059913
-0.487658
0.143542
-0.292161
0.224366
-0.289921
0.667173
-0.030030
0.686031
-0.228230
0.770165
-0.394373
0.407682
-0.423887
0.102195
-0.683536
0.030784
-0.581607
0.069688
-0.334116
0.565643
-0.052113
0.222970
-0.187038
0.389497
-0.695172
0.649386
-0.201665
0.755549
-0.374053
0.029141
-0.747146
0.342648
-0.245742
0.559593
-0.378816
0.124889
-0.099116
0.389106
-0.477536
0.200461
-0.661036
0.454030
-0.608143
0.384922
-0.556224
0.591679
-0.415707
0.407032
-0.692166
0.049822
-0.334274
0.682679
-0.272792
0.521311
-0.508443
0.445780
-0.420844
0.646329
-0.235309
-0.099263
-0.773565
0.648894
-0.067100
0.693904
-0.392093
0.533141
-0.674659
0.651600
-0.689593
0.491368
-0.152061
0.650628
-0.245398
0.060204
-0.335550
0.101622
-0.651883
0.051257
-0.539454
0.613249
-0.101079
0.173727
-0.595929
0.330208
-0.678924
0.263032
-0.684191
0.358513
-0.427006
-0.050674
-0.175550
-0.016266
0.005514
0.071135
-0.127922
0.398033
-0.109155
0.675090
-0.349633
0.098748
-0.466458
0.501694
-0.049376
0.011856
-0.561898
0.384926
-0.113478
0.513781
-0.436183
0.652932
-0.427030
0.537262
-0.289681
0.288520
-0.246702
0.255456
-0.399218
0.208167
-0.538352
0.266228
-0.381689
0.204331
-0.217865
0.271122
-0.654720
0.122657
-0.669154
0.063875
-0.097747
0.318788
-0.162623
0.564206
-0.120482
0.211999
-0.576062
0.682380
-0.596925
0.689540
-0.496161
0.333108
-0.642472
0.223192
-0.170370
0.069131
-0.546150
0.381503
-0.190828
0.437214
-0.534472
0.078262
-0.482804
0.104714
-0.436341
0.605030
-0.375835
0.391061
-0.027687
0.344990
-0.454936
0.125434
-0.663778
0.617559
-0.689640
0.084259
-0.129558
0.565701
-0.066640
0.026482
-0.555241
0.562801
-0.359590
0.497713
-0.085992
0.529960
-0.566844
0.632143
-0.211463
0.057672
-0.369357
0.045935
-0.135934
0.152161
-0.150649
0.572275
-0.057191
0.526485
-0.263336
0.084878
-0.171475
0.018272
-0.210312
0.135252
-0.635831
0.199952
-0.219511
0.065388
-0.065653
0.286151
-0.091871
0.620894
-0.148952
0.451461
-0.418608
0.234944
-0.281421
0.285451
-0.167087
0.492883
-0.343124
0.536444
-0.538819
0.479058
-0.688606
-0.030927
0.351333
-0.045797
0.515952
-0.614668
0.130675
-0.687427
0.632940
-0.340987
0.122679
-0.568770
0.540939
-0.348026
0.634159
-0.606592
0.628342
-0.026030
0.527486
-0.077293
0.477490
-0.246094
0.312238
-0.058911
0.531545
-0.479325
0.551794
-0.174669
0.315770
-0.390613
0.653727
-0.304376
0.380081
-0.305059
0.350173
-0.196033
0.219728
-0.480848
0.183460
-0.152667
0.121835
-0.306139
0.021438
-0.662774
0.648329
-0.655597
0.569366
-0.576671
0.681626
-0.396852
0.653965
-0.459116
0.642946
-0.307605
0.518027
-0.474491
0.045528
-0.369821
0.649160
-0.361297
0.060434
-0.602887
0.665673
-0.440515
0.207947
-0.315845
0.636548
-0.427674
0.096693
-0.120008
0.580341
-0.218528
0.426147
-0.601779
0.181301
-0.374476
0.557376
-0.050667
0.251147
-0.539002
0.447519
-0.205112
0.298118
-0.390465
0.471314
-0.116145
0.164957
-0.516842
0.485967
-0.114117
0.178139
-0.546401
0.017004
-0.139429
0.286916
-0.224951
0.459657
-0.223464
0.652625
-0.556350
0.343471
-0.532966
0.074878
-0.069618
0.434746
-0.256179
0.444094
-0.326597
0.306846
-0.683822
0.131123
-0.054366
0.200353
-0.429241
0.444831
-0.671667
0.545387
-0.609787
0.488509
-0.331353
0.023904
-0.666648
0.177754
-0.040908
0.110460
-0.464670
0.265859
-0.570117
0.688134
-0.218484
0.426467
-0.331605
0.051450
-0.501345
0.401223
-0.486196
0.057525
-0.145318
0.078317
-0.364371
0.140559
-0.209440
0.418737
-0.340912
0.638681
-0.163567
0.312580
-0.484068
0.073355
-0.101089
0.115421
-0.097259
0.067737
-0.293175
0.138167
-0.178197
0.057845
-0.404026
0.048314
-0.045979
0.622510
-0.474781
0.377584
-0.673960
0.276126
-0.078808
0.460156
-0.333651
0.224126
-0.538473
0.698022
-0.364685
0.047913
-0.416759
0.005597
-0.686594
0.580327
-0.318177
0.470662
-0.653681
0.439133
-0.682541
-0.250164
-0.418081
0.347837
-0.040787
0.803630
-0.094939
0.642395
-0.008792
0.283082
-0.515644
0.488294
-0.660667
0.489604
-0.064420
0.039475
-0.249760
0.398071
-0.263600
0.088233
-0.396094
0.628285
-0.136146
0.112853
-0.633882
0.122740
-0.668572
0.065489
-0.927629
1.026788
-0.279848
0.849114
-0.418826
0.728499
-0.281585
0.274060
-0.430557
0.195845
-0.080041
0.437037
-0.478927
0.595685
-0.225330
0.439594
-0.385289
0.289750
-0.479069
0.635049
-0.687822
0.042669
-0.023281
0.383915
-0.670954
0.159427
-0.504342
0.052725
-0.084742
0.326871
0.197770
0.298454
-0.616897
-0.212404
-0.737440
0.602895
-0.558620
0.623406
-0.621515
0.310069
-0.109638
0.001557
-0.047105
0.588565
-0.597241
0.272436
-0.328159
0.282530
-0.562186
0.107228
-0.217579
0.550008
-0.149897
0.312924
-0.260870
0.214913
-0.499267
0.143186
0.040191
0.212523
-1.074879
-0.291077
-0.447301
0.045222
-0.316262
0.226230
-0.692052
0.197344
-0.026867
0.613567
-0.507413
0.136505
-0.615124
0.554518
-0.025071
0.512365
-0.126954
0.353230
-0.094895
0.761204
-0.460458
0.312474
-0.246780
0.548186
-0.773684
0.176298
-0.006420
0.204506
-0.358124
0.030732
-0.156128
0.754263
0.152167
0.503400
-0.141479
0.550276
-0.507171
0.173896
-0.047621
0.534038
-0.087464
0.555034
-0.670544
0.002587
-0.409552
0.695614
-0.514953
0.536506
-0.348844
0.609848
-0.221858
-0.040839
-0.103157
0.189088
-0.053633
-0.100310
-0.836069
0.081811
-0.515770
0.620390
-0.031793
0.634663
-0.466028
0.347236
-0.259453
0.647872
-0.197512
0.066625
-0.121768
0.245133
-0.600663
0.209232
-0.100167
0.571207
-0.211819
0.509718
-0.566821
0.026772
0.055292
0.205577
-0.764020
0.079731
-0.029541
-0.249926
-0.355047
0.370283
-0.432212
0.525607
-0.507274
0.564613
-0.116160
0.503251
-0.429234
0.582188
-0.150487
0.688687
-0.404840
0.347999
-0.055312
0.651828
-0.593132
0.655975
-0.161060
0.693299
-0.527182
0.372880
0.034315
0.605858
0.020056
0.293109
-1.229708
-0.133514
-0.782046
0.308205
-0.236087
0.141170
-0.533437
-0.015160
-0.432310
0.274754
-0.593693
0.548470
-0.078005
0.448148
-0.430658
0.228492
-0.311615
0.260718
-0.576492
0.366927
-0.212546
0.469624
-0.322902
0.373606
0.044173
0.661419
0.950831
0.426040
-0.215446
0.050396
-0.376464
-0.341349
-0.477424
-0.198409
-0.670200
0.455837
-0.194072
0.567652
-0.607438
0.626381
-0.142406
0.501131
-0.474851
0.220411
-0.124059
0.205509
-0.448903
0.435674
-0.466226
0.325395
-0.102600
0.678772
0.338257
0.650763
0.343328
0.936286
-0.199776
0.232677
-0.015117
0.246922
-0.018924
0.716587
0.449078
0.316297
-0.575356
0.161816
-0.105036
0.069428
-0.029468
0.012474
-0.695809
0.171874
-0.513605
0.470661
-0.392285
0.637664
-0.676169
0.141188
-0.373337
0.390468
-0.133934
0.806190
0.075429
0.649176
0.166671
0.324270
0.092550
0.147792
-0.226576
0.962653
-0.502892
0.582621
-0.382486
0.670123
-0.144825
0.257843
-0.131939
0.249861
-0.327271
0.161407
-0.262335
0.323080
-0.333281
0.075940
-0.093741
0.025566
-0.013604
0.017983
-0.130760
0.194100
-0.451903
0.672898
-0.311615
0.350300
-1.053124
-0.707238
-0.581964
-0.037214
-0.153211
0.158412
-0.057906
0.238041
-0.696843
0.440392
-0.208163
0.141668
-0.698235
0.340102
-0.391529
0.325506
-0.501509
0.653863
-0.648586
0.134790
-0.029803
-0.042020
-0.262897
-0.126877
-0.164978
0.552740
0.167827
0.781561
-0.638427
-0.203457
-0.322577
-0.007484
0.216895
0.354509
-0.229507
0.698888
-0.544464
0.327774
-0.236929
0.541307
-0.068166
0.445092
-0.682976
0.066401
-0.085194
0.374504
-0.391907
0.586703
-0.328368
0.340492
0.004553
0.235264
0.023940
0.766167
0.178644
0.641460
-0.367732
0.204859
-0.378639
0.567182
-0.050837
0.453296
-0.154847
0.298179
-0.342647
0.394660
-0.281585
0.187112
-0.022434
0.518513
-0.028419
0.162663
-0.191542
0.011395
-0.157000
0.348799
-0.385899
0.548907
-0.227685
-0.317107
-0.183003
0.498768
-0.350513
0.514158
-0.479957
-0.234382
-0.075560
-0.019357
-0.328988
-0.196222
-0.497949
0.231094
-0.664486
0.441996
-0.513790
0.307133
-0.136656
0.095375
-0.494245
0.231153
-0.541825
0.522664
-0.249689
0.177494
-0.534058
0.406689
-0.550322
-0.074234
-0.744356
-0.107615
-0.220496
0.431731
-0.509600
0.185411
-0.787326
-0.046962
-0.807882
0.498494
-0.483159
0.186620
-0.071362
0.622635
-0.417713
0.035847
-0.364631
0.231504
-0.342980
0.573351
-0.254815
0.137225
-0.660376
0.240767
-0.659888
0.210065
-0.403394
0.433201
-0.977407
0.001901
0.129113
0.196576
-0.339518
0.029592
-0.553800
0.471419
-0.470685
0.267596
-0.682769
0.135468
-0.219050
0.288200
-0.322087
0.290412
-0.210835
0.039801
-0.326259
0.575466
-0.271304
0.669239
-0.376753
0.598183
-0.106463
0.337129
-0.138950
0.062535
-0.618192
0.231938
-0.862871
0.569420
-0.005580
0.636331
-1.045048
0.054824
-0.234901
0.496814
-0.333417
0.277118
-0.088208
0.316022
-0.412586
0.307258
-0.604221
0.034673
-0.597669
0.115057
-0.074474
0.223928
-0.690523
0.345778
-0.193167
0.367276
-0.243961
0.299630
-0.006916
0.347220
-0.330837
0.570434
-0.239198
0.195135
-0.303030
0.225474
-0.243795
0.236699
-0.023492
0.222808
-0.105495
0.383252
-0.499926
0.193703
-0.699273
0.212512
-0.500961
0.603495
-0.247185
0.398630
-0.018552
0.321659
-0.622558
0.009074
-0.667437
0.115725
-0.376350
0.211398
-0.415355
0.380756
-0.594308
0.081336
-0.232356
0.134429
-0.307615
0.547904
-0.476315
0.408094
-0.099753
0.526315
-0.630903
0.205249
-0.209567
0.430829
-0.398952
0.208840
-0.643341
0.199912
-0.112335
0.190526
-0.598542
0.130887
-0.512186
0.521101
-0.139961
0.479623
-0.636825
0.516311
-0.691020
0.352180
-0.197067
0.585329
-0.433516
0.429423
-0.019758
0.041130
-0.277327
0.496073
-0.449224
0.377080
-0.322388
0.380127
-0.582329
0.531955
-0.110956
0.281281
-0.040795
0.054297
-0.481193
0.153130
-0.244824
0.379736
-0.284017
0.057009
-0.200836
0.423978
-0.536632
0.137661
-0.240289
0.527652
-0.489841
0.437357
-0.412981
0.223357
-0.166779
0.432739
-0.264487
0.444106
-0.228812
1.173110
0.121187
-0.551200
0.393838
-0.003516
0.383155
-0.504794
0.284796
-0.423950
0.559091
-0.065989
0.577080
-0.021085
0.445725
-0.161097
0.160924
-0.646561
0.585075
-0.697555
0.084222
-0.125365
0.525208
-0.574063
0.562721
-0.238188
0.097420
-0.029500
0.670927
-0.361907
0.473607
-0.199739
0.375618
-0.594793
0.050939
-0.069456
0.598309
-0.434094
0.574249
-0.183105
0.158043
-0.433340
0.249095
-0.035123
0.537255
-0.694820
0.196220
-0.698179
0.641381
-0.081295
0.695734
-0.025603
0.206660
-0.573536
0.599667
-0.069381
0.059130
-0.697087
0.098881
-0.030057
0.358993
-0.572488
0.229796
-0.034611
0.467281
-0.280735
0.104066
-0.365590
0.014829
-0.678316
0.548695
-0.172872
0.411656
-0.097790
0.207995
-0.248911
0.092610
-0.404216
0.247089
-0.033991
0.485511
-0.242823
0.059594
-0.692171
0.063765
-0.659261
0.061552
-0.122895
0.656347
-0.160433
0.152952
-0.315341
0.032921
-0.370951
0.349951
-0.500202
0.663483
-0.454018
0.165792
-0.678312
0.432333
-0.014487
0.151184
-0.143989
0.112278
-0.359179
0.392900
-0.228629
0.063395
-0.641928
0.238879
-0.548906
0.182813
-0.298473
0.541077
-0.246578
0.257734
-0.602629
0.369473
-0.214081
0.063062
-0.522425
0.529422
-0.095983
0.205173
-0.179373
0.596185
-0.168656
0.633391
-0.061977
0.146968
-0.365724
0.076464
-0.298152
0.509713
-0.188742
0.657332
-0.202613
0.393630
-0.020727
0.142602
-0.632508
0.569632
-0.325415
0.230982
-0.410709
0.571992
-0.488716
0.313338
-0.241465
0.002797
-0.376400
0.063890
-0.532219
0.472382
-0.269063
0.011592
-0.368567
0.437719
-0.644983
0.430543
-0.584688
0.310707
-0.507007
0.182840
-0.120420
0.695749
-0.140172
0.323033
-0.389379
0.160898
-0.465635
0.321887
-0.030531
0.091050
-0.552869
0.441240
-0.663043
0.341584
-0.054578
0.251714
-0.235175
0.425026
-0.314484
0.086115
-0.309834
0.359396
-0.345604
0.519382
-0.276040
0.133177
-0.302469
0.159868
-0.443884
0.109477
-0.342708
0.564304
-0.105226
0.482880
-0.187337
0.494604
-0.643778
0.652972
-0.116491
0.674309
-0.044023
0.669360
-0.376500
0.056339
-0.083446
0.482846
-0.156238
0.418219
-0.365721
0.119623
-0.157431
0.341373
-0.205742
0.320120
-0.276390
0.592611
-0.453297
0.578859
-0.052479
0.197181
-0.688335
0.395187
-0.061485
0.093561
-0.178067
0.248822
-0.588165
0.121846
-0.201794
0.004657
-0.141336
0.605117
-0.555014
0.440259
-0.043206
0.519254
0.012138
0.739403
-0.351538
0.570723
-0.079161
0.372604
-0.187398
0.561856
-0.692334
0.463788
-0.454467
0.445631
-0.342647
0.506946
-0.642812
0.330982
-0.202134
0.004296
-0.424543
0.380201
-0.253118
0.313228
-0.588930
0.357728
-0.261765
0.959224
0.146401
0.631935
-0.288721
0.277583
-0.567374
0.563913
0.213394
0.045895
-0.474671
0.262491
-0.488844
0.662069
-0.124348
0.481179
-0.425857
0.578815
-0.226810
0.068504
-0.385761
0.169622
-0.399486
0.588415
-0.173918
0.124029
-0.251572
0.386702
-0.196221
0.206492
0.311154
0.565711
-0.095426
0.505547
-0.355397
0.113676
-0.366577
0.244760
-0.357428
0.454355
-0.338457
0.144655
-0.016846
0.127301
-0.106725
0.141194
-0.608480
0.532582
-0.020009
0.135290
-0.601086
0.405770
-0.304911
0.300572
-0.279080
0.505211
-0.252470
0.812069
0.368495
0.318818
-0.536996
0.089499
-0.254894
0.290492
-0.332851
0.572468
-0.278494
0.306781
-0.082752
0.648478
-0.061137
0.421209
-0.093133
0.077983
-0.548510
0.199858
-0.219177
0.456990
-0.032439
0.239186
-0.592279
0.633525
-0.590817
0.048194
-0.103093
0.271543
0.418513
0.956757
0.048891
-0.125114
-0.057889
-0.664819
-0.247817
0.413698
-0.632529
0.440193
-0.196405
0.211022
-0.046974
0.279157
-0.177714
0.108111
-0.000366
0.252633
-0.186094
0.548876
-0.452491
0.405270
-0.305865
0.484930
-0.813640
-0.042403
-0.810625
0.023831
-0.453422
1.079583
-0.038780
-0.240098
-1.188794
-0.074016
-0.302396
0.061967
-0.260697
0.422941
-0.366768
0.193226
-0.163134
0.544958
-0.404248
0.210108
-0.142330
0.563748
-0.318219
0.142695
-0.116381
0.504313
-0.691571
0.568871
-0.367135
0.005364
-1.133586
-0.634194
-0.635023
0.052184
0.201453
0.588212
-0.643102
-0.171080
-0.788108
0.661136
-0.399897
0.415510
-0.667350
0.660594
-0.138451
0.334119
-0.153820
0.301585
-0.197291
0.558068
-0.511693
0.339621
-0.421816
0.129912
-0.482317
0.538197
-0.772445
0.163028
-0.973861
-0.983546
-0.823185
-0.045099
0.116063
0.839631
-0.198219
0.104615
-0.063940
0.115572
-0.512783
0.620088
-0.093997
0.212680
-0.335599
0.061347
-0.173275
0.474050
-0.395466
0.327095
-0.075635
0.592757
-0.185163
0.587329
-0.232378
0.572465
-0.240738
-0.316951
-0.980351
-0.083649
-1.325018
-0.138437
0.085170
0.296332
-0.206898
0.036845
-0.122878
0.417250
-0.034421
0.484629
-0.504175
0.547204
-0.404717
0.598172
-0.059884
0.040316
-0.659520
0.233159
-0.514366
0.354986
-0.560254
0.590001
-0.247743
0.010903
-0.538398
0.238401
-1.305402
-0.122269
-0.676507
0.193786
-1.185229
0.099824
-0.646927
0.154673
-0.211427
0.063718
-0.234434
0.570115
-0.409165
0.268856
-0.354743
0.213341
-0.116060
0.059460
-0.111513
0.175944
-0.099776
0.071033
-0.409103
0.614142
-0.426019
0.220451
-0.560984
0.295005
-0.805947
0.000819
-0.531169
0.006580
-0.292310
-0.120488
-0.635846
0.054555
-0.579016
0.432638
-0.357978
0.675404
-0.577477
0.597827
-0.545519
0.286643
-0.166682
0.200262
-0.499983
0.282742
-0.259723
0.611496
-0.458686
0.359499
-0.682529
0.167789
-0.213868
0.243694
-0.628010
0.233809
0.270136
0.479734
-0.034106
0.030023
-0.493195
0.082430
-0.200654
0.274772
-0.241120
0.336697
-0.098374
0.620771
-0.192395
0.675851
-0.518598
0.037914
-0.262494
0.685800
-0.237657
0.062477
-0.268022
0.497899
-0.673974
0.026709
-0.088187
0.763364
-0.293499
0.472230
0.449568
1.073993
-0.332400
0.219648
-0.723135
0.478069
0.005040
0.281971
-0.632282
0.568445
-0.586469
0.160754
-0.085436
0.684843
-0.081525
0.277831
-0.660694
0.600643
-0.315226
0.223188
-0.585403
0.553922
-0.285665
0.153425
-0.084846
0.825946
0.237249
0.936289
0.093542
0.925082
-0.007783
0.482579
0.032941
0.184457
-0.487417
0.460526
-0.224825
0.112105
-0.592481
0.120532
-0.680550
0.478950
-0.281286
0.065987
-0.463793
0.363331
-0.343298
0.424487
-0.262934
0.659563
-0.647675
0.148337
-0.286179
0.756587
0.118717
0.602624
-0.066254
0.712519
-0.559565
0.172819
0.161963
0.324560
-0.406545
0.293248
-0.263864
0.518867
-0.052636
0.481020
-0.630973
0.645116
-0.601552
0.611523
-0.424066
0.182838
-0.677509
0.187859
-0.545649
0.321327
-0.612346
0.108583
-0.280891
0.570171
0.047109
0.231228
0.146922
0.588796
-0.184300
0.557480
-0.072779
0.338904
-0.513139
0.440892
-0.567635
0.485779
-0.259905
0.012857
-0.304646
0.312540
-0.493877
0.235619
-0.257657
0.395429
-0.147141
0.681723
-0.578268
0.124651
-0.169582
0.423917
-0.445978
0.081929
-0.426433
0.266688
-0.429356
0.383273
0.182720
0.316221
-0.386810
0.475457
-0.518624
0.383755
-0.588096
0.517120
-0.085781
0.364130
-0.302899
0.345686
-0.376987
0.607545
-0.658227
0.170864
-0.143163
0.215884
-0.566294
0.290305
-0.197607
0.444561
-0.414955
0.367189
-0.168478
0.160934
-0.449118
0.000978
-0.187802
0.391069
-0.090398
0.309048
-0.426382
0.038498
-0.689976
0.348037
-0.327176
0.605113
-0.165157
0.412958
-0.269243
0.468056
-0.058644
0.646230
-0.375601
0.016870
-0.117094
0.518764
-0.232754
0.683388
-0.109068
0.430361
-0.427949
0.524024
-0.097550
0.596428
-0.684957
0.546668
-0.597406
0.172760
-0.237736
0.687803
-0.481807
0.664118
-0.026302
0.471783
-0.312155
0.353478
-0.376896
0.477313
-0.066435
0.646139
-0.245369
0.125079
-0.592369
0.620969
-0.141950
0.009463
-0.439733
0.374704
-0.692852
0.548802
-0.105064
0.420801
-0.372826
0.202614
-0.317229
0.357783
-0.049282
0.214634
-0.530543
0.287018
-0.202438
0.312350
-0.251136
0.228740
-0.084133
-0.537750
0.582217
-0.461029
0.340604
-0.648653
0.407167
-0.585973
0.073732
-0.299536
0.506942
-0.215682
0.309000
-0.203307
0.590386
-0.301851
0.095477
-0.695450
0.022652
-0.468303
0.198064
-0.339881
0.126086
-0.247346
0.554515
-0.656629
0.534364
-0.056953
0.268979
-0.085500
0.285692
-0.353112
0.648791
-0.167910
0.114141
-0.289395
0.116563
-0.521308
0.175368
-0.190295
0.120845
-0.682310
0.405977
-0.429844
0.228985
-0.296362
0.031696
-0.324463
0.291812
-0.054348
0.092766
-0.489877
0.394229
-0.234571
0.037222
-0.248744
0.175481
-0.571586
0.305697
-0.444460
0.657086
-0.591389
0.097572
-0.605877
0.059299
-0.211713
0.195272
-0.175862
0.033022
-0.370640
0.366157
-0.153867
0.352950
-0.072133
0.583711
-0.581935
0.368496
-0.615407
0.206398
-0.660308
0.669755
-0.299164
0.450185
-0.363983
0.518016
-0.487407
0.612727
-0.693496
0.358994
-0.218424
0.437957
-0.316080
0.109813
-0.533983
0.221957
-0.169112
0.047242
-0.417230
0.344974
-0.080264
0.087870
-0.011130
0.234131
-0.440820
0.083264
-0.117842
0.322755
-0.495613
0.033249
-0.545129
0.412068
-0.003004
0.128317
-0.162253
0.366987
-0.646332
0.649660
-0.279715
0.639829
-0.308654
0.498139
-0.377785
0.624734
-0.607952
0.213314
-0.146691
0.077064
-0.260557
0.563921
-0.422038
0.340821
-0.651791
0.433168
-0.574952
0.392610
-0.516432
0.692795
-0.015366
0.268192
-0.026044
0.544519
-0.680260
0.029048
-0.672836
0.142512
-0.396035
0.619168
-0.092173
0.675750
-0.558997
0.400827
-0.473888
0.236782
-0.325561
0.381840
-0.450097
0.472252
-0.458904
0.010654
-0.336173
0.180942
-0.351475
0.287964
-0.614110
0.226427
-0.680574
0.430542
-0.219222
0.695939
-0.698733
0.245265
-0.540458
0.678993
-0.274313
0.513294
-0.121505
0.670348
-0.432462
0.213678
-0.646098
0.385637
-0.387604
0.386487
-0.519512
0.323174
-0.032968
0.277150
-0.051584
0.682750
-0.284724
0.348490
-0.041673
0.640467
-0.636454
0.655782
-0.166894
0.617028
-0.386324
0.386116
-0.612967
0.385058
-0.631381
0.453425
-0.364051
0.205694
-0.266719
0.485556
-0.084738
0.832039
-0.723876
0.495044
-0.000511
0.892096
-0.423115
0.161631
0.084476
0.746324
-0.303913
0.166122
-0.504684
0.686210
-0.514612
0.546356
-0.626676
0.451066
-0.502139
0.093570
-0.368094
0.188463
-0.479686
0.281061
-0.573521
0.411067
-0.034486
0.237572
-0.551027
0.363157
0.165643
0.173246
0.190912
0.058321
-0.359220
0.590640
-0.632898
0.249764
0.145115
0.105181
-0.001023
0.407124
-0.256027
0.505706
-0.393334
0.070639
-0.352063
0.320010
-0.521704
0.154202
-0.413580
0.189798
-0.342665
0.193266
-0.470859
0.299541
-0.621160
0.508087
-0.351464
0.834040
-0.091588
0.340559
-0.872961
0.234661
-0.476853
0.357649
-0.031388
0.533780
-0.185908
0.307868
-0.525252
0.186931
-0.014991
0.081279
-0.692637
0.408325
-0.151917
0.344700
-0.028335
0.673622
-0.498902
0.525270
-0.163420
0.141567
-0.620086
0.897498
-0.369230
0.946831
-0.125323
0.524459
-0.155969
0.689106
-0.245439
0.300932
-0.028831
0.522822
-0.319913
0.551073
-0.122990
0.589249
-0.158940
0.648242
-0.076180
0.173932
-0.029521
0.068817
-0.582257
0.181438
-0.413517
0.610592
-0.155060
0.212419
-0.353388
0.421179
0.085617
0.550986
0.032958
-0.256383
-0.276825
0.652417
-0.305362
0.633578
-0.394724
0.222799
-0.062307
0.091665
-0.399288
0.465647
-0.642738
0.522278
-0.354896
0.101678
-0.470520
0.431075
-0.275610
0.500041
-0.499892
0.157867
-0.681479
0.213409
-0.007385
0.214066
-0.043014
0.672624
0.053070
-0.107082
0.027247
0.183384
0.053276
-0.047950
-0.075396
0.390551
-0.623656
0.538711
-0.226449
0.685963
-0.630377
0.625737
-0.380526
0.573115
-0.448016
0.106506
-0.674793
0.218536
-0.537582
0.250403
-0.018577
0.337474
-0.365746
0.265258
-0.227302
0.293632
-0.256792
0.107244
-0.675200
0.790403
-0.456624
-0.040138
-0.751214
0.439030
-0.342194
0.599544
-0.662883
0.265850
-0.438256
0.260416
-0.251813
0.368632
-0.115069
0.003423
-0.241747
0.563085
-0.109930
0.216539
-0.081621
0.647511
-0.347814
0.100380
-0.340109
-0.176742
-0.275135
-0.416018
-0.301844
0.598903
-0.543859
0.096763
-0.610548
-0.038164
-0.355974
0.027850
-0.517184
0.698169
-0.627395
0.480067
-0.264019
0.365650
-0.669399
0.515833
-0.034283
0.084468
-0.519256
0.276029
-0.647553
0.629186
-0.313769
-0.255927
-0.644881
-0.207776
-0.316551
-0.075844
-0.051135
0.340824
0.363942
0.407625
-0.389900
-0.128325
-0.536292
0.594939
-0.079235
0.192267
-0.622789
0.596419
-0.190436
0.550184
-0.376487
0.454455
-0.215834
0.345886
-0.270287
0.250117
-0.430354
0.062227
-0.408990
0.334286
-0.019088
0.017945
-0.848945
0.257070
-0.253223
0.639972
-0.039391
0.580756
-0.139785
0.352591
-0.699609
0.532558
-0.364788
0.535902
-0.427496
0.444023
-0.028168
0.350285
-0.340442
0.218604
-0.200469
0.016929
-0.673058
0.416304
-0.362814
0.216029
-0.745714
0.203007
-0.330371
0.392885
-0.492536
0.293638
-1.028491
-0.259711
-0.571864
0.408458
-0.230032
0.528762
-0.302456
0.080694
-0.658811
0.302066
-0.613252
0.323599
-0.137967
0.340749
-0.067621
0.166135
-0.691034
0.408063
-0.384739
0.191504
-0.424992
0.324916
-0.804578
0.004529
-0.440180
0.821773
-0.104354
0.087637
-0.979753
0.035626
-0.722506
0.347840
-0.110061
0.228760
-0.376527
0.144822
-0.436849
0.070042
-0.225516
0.395659
-0.372108
0.138769
-0.019258
0.510075
-0.479517
0.086879
-0.676211
0.470552
-0.494943
0.360950
-0.873008
0.427184
-0.129951
0.772421
0.063383
1.031229
-0.171950
0.718165
-0.377715
0.224921
-0.697764
0.297864
-0.488723
0.573737
-0.172272
0.356551
-0.015796
0.609121
-0.426593
0.241313
-0.304780
0.182057
-0.296726
0.324038
-0.608777
0.159599
-0.410917
0.584988
-0.592224
0.214812
-0.387443
0.740810
-0.132245
0.702595
-0.231401
-0.081925
-0.051474
0.195360
-0.400433
0.399285
-0.417776
0.263016
-0.378077
0.206013
-0.133991
0.550349
-0.562564
0.149787
-0.459469
0.372512
-0.307745
0.064249
-0.387858
0.071181
-0.388287
0.296635
0.095756
0.462156
0.015655
0.413853
-0.143164
0.616212
-0.031454
-0.429045
-1.318698
0.292408
-0.236245
0.338547
-0.155554
0.586645
-0.515325
0.338414
-0.149661
0.193402
-0.544427
0.283652
-0.043751
0.490346
-0.350083
0.503221
-0.696148
0.124538
-0.567470
0.384006
0.003233
0.869317
-0.439148
0.847060
0.131825
0.512532
-0.526091
0.246631
-0.536872
0.480165
-0.533755
0.615705
-0.455772
0.055282
-0.058896
0.477138
-0.641926
0.574221
-0.115553
0.091587
-0.067623
0.659980
-0.375239
0.111374
-0.366971
0.108677
-0.614595
0.363118
-0.233216
0.497757
0.195866
0.393467
-0.060588
-0.126271
-0.312172
0.177986
-0.454307
-0.159237
-0.376647
-0.073008
-0.700225
0.343699
-0.661926
0.439201
-0.398980
0.020822
-0.216339
0.340907
-0.595043
0.331892
-0.432494
0.662666
-0.291872
0.107733
-0.074041
0.658843
-0.216410
0.688636
-0.309934
0.450473
-0.508195
0.519781
-0.034039
0.560515
-0.337841
0.183688
-0.527124
0.400914
-0.554973
0.554119
-0.666733
0.360288
-0.197818
0.628660
-0.099489
0.596798
-0.649482
0.315829
-0.237705
0.544525
-0.647721
0.670199
-0.507191
0.239593
-0.077931
0.581232
-0.198435
0.294341
-0.569867
0.520396
-0.043967
0.340568
-0.189481
0.222528
-0.149090
0.586331
-0.556523
0.350398
-0.473210
0.233382
-0.204517
0.439943
-0.593670
0.402335
-0.368603
0.693159
-0.299133
0.318085
-0.308988
0.536837
-0.162609
0.256709
-0.507036
0.669800
-0.496302
0.584967
-0.551032
0.694737
-0.179308
0.420899
-0.515133
0.223275
-0.061467
0.004614
-0.445804
0.210557
-0.590945
0.302327
-0.560955
0.364155
-0.535709
0.065472
-0.104098
0.429379
-0.467806
0.472701
-0.422539
0.066939
-0.090785
0.031527
-0.603776
0.253394
-0.288235
0.410812
-0.223195
0.084537
-0.295778
0.074226
-0.079274
0.475087
-0.495125
0.594407
-0.698362
0.556592
-0.599021
0.444165
-0.067149
0.489966
-0.046492
0.341657
0.154120
-0.582201
0.693576
-0.258218
0.311580
-0.461382
0.030918
-0.034119
0.528320
-0.121704
0.065646
-0.449402
0.375098
-0.353881
0.142908
-0.598293
0.438418
-0.438686
0.672519
-0.517692
0.213773
-0.467644
0.412099
-0.212135
0.324237
-0.311119
0.656300
-0.391386
0.101085
-0.002793
0.319490
-0.255205
0.584994
-0.313066
0.513423
-0.196574
0.074448
-0.544341
0.230693
-0.602768
0.666045
-0.296339
0.334864
-0.341143
0.650220
-0.477772
0.239436
-0.388638
0.216458
-0.211954
0.206330
-0.445589
0.679599
-0.618428
0.642365
-0.303835
0.229547
-0.598665
0.695221
-0.330632
0.601458
-0.314711
0.585837
-0.486452
0.627777
-0.399260
0.683026
-0.002225
0.243601
-0.213719
0.604993
-0.209646
0.510058
-0.239857
0.550789
-0.460278
0.017628
-0.090224
0.148916
-0.234086
0.302179
-0.355245
0.664317
-0.281778
0.273673
-0.606682
0.585613
-0.503221
0.505347
-0.580834
0.133853
-0.408864
0.195546
-0.019690
0.193257
-0.123323
0.418950
-0.176283
0.125547
-0.662551
0.390002
-0.030540
0.172197
-0.200060
0.270397
-0.023370
0.660338
-0.287025
0.113210
-0.109254
0.522111
-0.415389
0.464499
-0.486428
0.697167
-0.038173
0.393110
-0.582780
0.541394
-0.198457
0.463614
-0.675247
0.605262
-0.659160
0.694937
-0.098519
0.082483
-0.413886
0.274802
-0.208030
0.376437
-0.664804
0.238570
-0.548634
0.164864
-0.508967
0.571620
-0.125202
0.096992
-0.684831
0.234456
-0.619103
0.400220
-0.698955
0.405531
-0.397387
0.037128
-0.098641
0.280167
-0.578522
0.297098
-0.043781
0.553769
-0.202360
0.002941
-0.548705
0.300879
-0.085424
0.262592
-0.575681
0.293454
-0.639029
0.540484
-0.532025
0.487664
-0.005348
0.340992
-0.359284
0.130550
-0.437983
0.344115
-0.365006
0.357086
-0.044335
0.363961
-0.062617
0.441722
-0.401090
0.201153
-0.054625
0.208876
-0.466346
0.156602
-0.042113
0.727754
0.050307
0.754151
-0.208209
0.154035
-0.244678
0.137275
-0.447490
0.183707
-0.677759
0.279515
-0.671370
0.683107
-0.620506
0.330654
-0.113657
0.358490
-0.674769
0.478663
-0.015576
0.019104
-0.041949
0.175295
-0.395665
0.630038
-0.124548
0.528342
-0.065080
0.755452
-0.403747
0.393231
-0.566152
0.616995
-0.238793
0.220116
-0.071031
0.483470
-0.357391
0.518521
-0.667177
0.335150
-0.098035
0.638548
-0.318258
0.018542
-0.269202
0.431915
-0.377031
0.243971
-0.228483
0.273875
-0.152891
0.372455
-0.310836
0.163140
-0.072614
-0.237534
-0.601276
0.370290
-0.150487
0.396917
-0.576951
0.666578
-0.271993
0.115744
-0.186694
0.343024
-0.599214
0.544085
-0.161545
0.566391
-0.179236
0.259580
-0.504939
0.497493
-0.278122
0.074471
-0.236246
0.577990
-0.250145
0.611631
-0.166171
0.776902
-0.007231
-0.047803
-0.655939
0.157231
-0.197013
0.454379
-0.610351
0.136868
-0.066699
0.487302
-0.103446
0.338693
-0.603046
0.290140
-0.681717
0.502260
-0.134226
0.143262
-0.368651
0.313791
-0.402842
0.173590
-0.181978
0.589468
-0.166405
0.444832
-0.475816
0.892033
0.161498
0.266353
-0.496013
0.182180
-0.467038
0.397354
-0.307267
0.531248
-0.063819
0.373998
-0.668115
0.130518
-0.161301
0.071561
-0.469211
0.064347
-0.361702
0.450928
-0.566607
0.495927
-0.594189
0.235258
-0.179412
0.197215
-0.657447
0.099892
-0.173323
0.802799
-0.248793
0.311758
-0.677765
0.425779
-0.608871
0.248122
-0.114596
0.200424
-0.621572
0.578244
-0.031672
0.685391
-0.252242
0.699787
-0.115910
0.413543
-0.071348
0.585121
-0.477890
0.433050
-0.336049
0.344497
-0.262884
0.189632
-0.817245
0.072034
-0.672232
0.461168
-0.282279
-0.129184
-0.328894
0.386920
-0.507561
0.035484
-0.360474
0.117362
-0.337062
0.475070
-0.317786
0.258634
-0.294727
0.349458
-0.244026
0.605556
-0.349245
0.359935
-0.319098
0.420594
-0.245056
0.096988
-0.043709
0.661393
-0.556191
0.116300
-0.550674
0.333812
0.150165
0.305032
-1.037698
0.364188
-0.148977
0.006927
-0.299114
0.363252
-0.222635
0.659588
-0.480614
0.618284
-0.434658
0.098400
-0.118332
0.087971
-0.447859
0.362357
-0.693527
0.097104
-0.022293
0.312625
-0.397933
0.460618
-0.299428
0.505900
0.044408
0.583647
-0.185260
-0.525348
-0.985842
-0.049491
-0.292775
0.290661
-0.254646
0.242288
-0.537208
0.553760
-0.605540
0.059843
-0.513347
0.386154
-0.619540
0.248005
-0.484554
0.037872
-0.335976
0.232413
-0.400229
0.329503
-0.215207
0.662941
-0.582356
0.120078
-0.492943
0.491284
-0.129990
-0.174464
-0.788758
0.064309
-0.518242
0.258667
-0.147466
0.596536
-0.657358
0.402112
-0.138824
0.494566
-0.255871
0.044364
-0.554409
0.069218
-0.430517
0.473949
-0.317223
0.215072
-0.511820
0.650325
-0.359930
0.593722
-0.168076
0.064850
-0.522730
0.301387
-0.071049
0.253607
-0.819993
0.144580
-0.156840
0.398422
-0.115288
0.460894
-0.654591
0.262754
-0.357430
0.611949
-0.664865
0.496254
-0.406515
0.220736
-0.540617
0.260923
-0.289954
0.271135
-0.034872
0.604304
-0.509870
0.497047
-0.599361
0.053127
-0.155051
0.293097
-0.307415
0.148943
-0.590181
0.261507
-0.715301
0.243686
-0.177679
0.680527
-0.623896
0.292967
-0.441421
0.578486
-0.555721
0.098850
-0.490435
0.520586
-0.595104
0.196950
-0.041322
0.435721
-0.457873
0.325133
-0.049109
0.454081
-0.463962
0.174660
-0.331139
0.268923
0.325834
0.070406
-0.319577
0.099899
-0.490374
0.545440
-0.218379
0.309250
-0.154300
0.350034
-0.289776
0.078196
-0.643001
0.031197
-0.656682
0.498721
-0.130047
0.447118
-0.319307
0.025151
-0.644068
0.360629
-0.547850
0.291495
-1.103349
0.347567
-0.255778
0.314445
-0.156125
0.445937
-0.606498
0.148775
-0.177200
0.508317
-0.713876
0.674898
-0.480916
0.097347
-0.233045
0.635216
-0.447381
0.522821
-0.013412
0.390711
-0.553689
0.670094
-0.189103
0.684066
-0.417212
0.508410
-0.089668
0.404926
-0.344497
0.220850
-0.202236
0.230181
-0.133687
0.249030
-0.580599
0.473432
-0.152746
-0.075164
-0.173881
0.324332
-0.591592
0.011149
-0.248127
0.372507
-0.108496
0.481172
-0.307723
0.556206
-0.303664
0.321135
-0.246258
0.158012
-0.291230
0.435361
-0.257556
-0.311321
-0.280675
0.226907
-0.218729
0.756829
-0.369827
0.616023
-0.491696
0.383992
-0.742483
0.182403
-0.699887
0.082878
-0.285556
0.043969
-0.407210
0.177148
-0.055118
0.655337
-0.549655
0.163943
-0.436180
0.157379
-0.019490
0.040503
-0.478514
0.265748
-0.277977
-0.126342
-0.160743
0.491760
0.115802
0.512825
-0.218737
0.597230
-0.709567
0.375361
-0.295573
0.442267
-0.572472
0.171697
-0.096511
0.530285
-0.254575
0.382067
-0.574254
0.661785
-0.559215
0.629372
-0.617123
0.408870
-0.092986
0.353632
-0.566249
0.112476
-0.394135
0.335192
-0.363486
0.451219
-0.535676
0.481759
-0.212694
0.450199
-0.694322
-0.143437
-0.418904
0.474603
-0.436217
0.421446
-0.413357
0.310870
-0.593143
0.509868
-0.141155
0.147718
-0.191935
0.015409
-0.109503
0.051150
-0.644781
0.026625
-0.460020
0.037767
-0.380257
0.326268
-0.164075
0.066983
-0.570524
0.613088
-0.624669
0.271858
-0.287876
0.111345
-0.181840
0.113604
-0.276430
0.418825
-0.013922
0.663810
-0.140271
0.427279
-0.274679
0.033413
-0.237147
0.415834
-0.181131
0.429082
-0.431244
0.290634
-0.480232
0.376025
-0.317259
0.240252
-0.413792
0.697517
-0.566520
0.564034
-0.071909
0.537551
-0.392501
0.038951
-0.223087
0.600301
-0.239235
0.401315
-0.032316
0.464647
-0.120140
0.046238
-0.428457
0.260410
-0.473517
0.003136
-0.293824
0.010664
-0.418971
0.474955
-0.439746
0.150214
-0.065589
0.219978
-0.526239
0.382848
-0.460230
0.240031
-0.380365
0.326750
-0.104065
0.452274
-0.164301
0.496566
-0.491225
0.387388
-0.396867
0.030461
-0.088703
0.429182
-0.495108
0.208843
-0.475420
0.223565
-0.469253
0.248937
-0.226701
0.063077
-0.259601
0.645672
-0.538032
0.699347
-0.095886
0.603620
-0.219325
0.622125
-0.286468
0.679555
-0.162156
0.666833
-0.306305
0.266221
-0.419107
0.470605
-0.062787
0.210332
-0.157994
0.459653
-0.240793
-0.811510
0.188836
-0.035901
0.455540
-0.664256
0.259466
-0.224793
0.213193
-0.486168
0.287870
-0.472794
0.431839
-0.145636
0.472141
-0.527725
0.029522
-0.691465
0.449850
-0.315991
0.671020
-0.612006
0.282824
-0.277324
0.178227
-0.001931
0.047930
-0.241013
0.212263
-0.205924
0.000667
-0.453056
0.452621
-0.189502
0.488958
-0.208160
0.153758
-0.048424
0.432953
-0.366951
0.534592
-0.020823
0.139745
-0.266432
0.146725
-0.611885
0.094157
-0.176247
0.603351
-0.544007
0.492238
-0.574371
0.456013
0.058766
0.151695
-0.634240
0.076992
-0.199625
0.175253
-0.289255
0.405549
-0.175920
0.042312
-0.158169
0.365422
-0.531270
0.366329
-0.519180
0.579694
-0.099283
0.186131
-0.414286
0.120106
-0.325876
0.680718
-0.266831
0.237761
-0.074875
0.443078
-0.141112
0.618882
-0.235315
0.015483
-0.374896
0.310377
-0.167178
0.309136
-0.387369
0.366803
-0.484389
0.676624
-0.072351
0.660308
-0.013718
0.230520
-0.325730
0.550205
-0.596850
0.144910
-0.429899
0.696132
-0.331041
0.144186
-0.116238
0.656917
-0.124904
0.383069
-0.137462
0.199779
-0.069218
0.335791
-0.118661
0.361462
-0.351274
0.493557
-0.671839
0.518451
-0.102692
0.359207
-0.185254
0.587081
-0.335831
0.257606
-0.547389
0.354766
-0.488126
0.173119
-0.204972
0.384976
-0.318029
0.634871
-0.381108
0.649071
-0.079057
0.497347
-0.605988
0.203960
-0.180416
0.100667
-0.403739
0.306563
-0.436458
0.522400
-0.668025
0.087731
-0.315956
0.639863
-0.606183
0.418649
-0.299070
0.091437
-0.305729
0.634901
-0.349043
0.153119
-0.289668
0.137169
-0.326238
0.494640
-0.522145
0.644268
-0.429511
0.203253
-0.593338
0.508567
-0.000600
0.499327
-0.012527
0.181016
-0.599993
0.416266
-0.487578
0.336451
-0.238665
0.455603
-0.424183
0.554621
-0.395466
0.330365
-0.273270
0.691727
-0.549245
0.545603
-0.629976
0.062636
-0.073321
0.148864
-0.378121
0.242747
-0.007623
0.030158
-0.302624
0.443256
-0.233411
0.195962
-0.251823
0.234011
-0.695288
0.264350
-0.415027
0.595282
-0.680616
0.202605
-0.231733
0.219281
-0.658207
0.655916
-0.049798
0.260364
-0.143214
0.596953
0.013217
0.184705
0.012246
0.408496
-0.252554
0.110130
-0.538503
0.286942
-0.616646
0.510499
-0.317100
0.219269
-0.253755
0.550511
-0.415231
0.505578
-0.084522
0.410520
-0.069928
0.499549
-0.305802
0.050544
-0.002153
0.537535
-0.272315
0.491610
-0.277595
0.264861
-0.209866
0.269873
-0.485125
0.620137
-0.236579
0.031542
-0.325597
0.178685
-0.475361
0.036646
-0.453685
0.392006
-0.547146
0.070785
-0.611276
0.100901
-0.621296
0.326507
-0.606479
0.005818
-0.037027
0.676408
-0.505366
0.338849
-0.032988
0.388195
0.259607
0.408182
-0.150330
0.926107
-0.148320
0.473391
0.396303
0.580563
-0.125299
0.081560
-0.148474
0.284052
-0.308102
0.623835
-0.320698
0.061787
-0.315841
0.167844
-0.132572
0.227117
-0.268745
0.053867
-0.553624
0.171244
-0.059685
0.590651
0.079181
0.435966
0.189495
0.262026
-0.226136
0.568354
-0.228950
0.551838
-0.012194
0.707795
-0.427190
0.447560
-0.307263
0.266526
-0.582560
0.495741
-0.550578
0.190662
-0.419576
0.171276
-0.252449
0.035417
-0.339119
0.385021
-0.262533
0.607864
-0.438888
0.116157
0.204653
0.431824
0.099467
0.369424
-0.630398
0.418467
-0.373182
0.594617
0.026892
0.327487
-0.101920
0.318707
-0.604526
0.399016
-0.082984
0.251793
-0.665542
0.665544
-0.047534
0.516120
-0.156206
0.467109
-0.687396
0.408656
-0.502526
0.326515
-0.093676
0.065059
0.094377
0.665192
-0.110294
0.276517
-0.126178
0.262679
-0.400636
0.957072
-0.542282
0.302145
0.106325
0.298309
-0.454152
0.207610
-0.024224
0.358678
-0.606626
0.107208
-0.725918
0.572169
-0.072752
0.658005
-0.388289
0.228959
-0.425114
0.375684
-0.637614
0.227640
0.257235
-0.113755
-0.362331
-0.164910
-0.500799
0.229043
-0.612977
0.388508
-0.298150
0.926897
0.018138
0.316582
-0.671720
0.220719
-0.072691
0.425872
-0.428329
-0.018532
-0.084550
0.334955
-0.204122
0.695021
-0.207124
0.276875
-0.653026
0.595413
-0.505834
0.378140
-0.170080
0.505876
-0.094828
0.108739
-0.539106
-0.130703
-0.456225
0.453163
-0.445589
0.569798
-0.253717
0.771574
-0.070150
0.023345
-0.324586
0.041870
-0.244064
0.397277
-0.467742
0.672393
-0.494191
0.552292
-0.307349
0.698314
-0.547314
0.514473
-0.275188
0.500340
-0.525647
0.289167
0.019168
0.832726
-0.822863
-0.157460
0.127612
0.414419
-0.772692
0.242932
-0.621254
0.593699
-0.428070
0.471390
-0.189470
0.498220
-0.494736
0.514057
-0.540090
0.038800
-0.211334
0.307832
-0.011193
0.005525
-0.160124
0.318542
-0.003838
-0.072090
-0.230191
-0.211615
-0.698910
0.606975
0.067117
0.322434
-0.373378
-0.096740
-0.351575
-0.062228
-0.555352
0.625794
-0.142313
0.421529
-0.608393
0.570383
-0.192920
0.097864
-0.368603
0.687655
-0.611920
0.208693
-0.026455
0.123254
-0.516525
0.037648
-0.128779
0.597121
-0.508608
-0.510548
-1.289859
0.520156
-0.536992
0.932679
0.015922
0.074018
-1.016526
-0.594641
-0.527952
0.723151
-0.234148
0.039938
-0.201898
0.376461
-0.461467
0.110292
-0.246845
0.654387
-0.208155
0.615448
-0.642042
0.120075
-0.124141
0.668497
-0.243329
0.556314
-0.222166
-0.053957
-0.816005
0.820371
-0.310462
0.933079
0.783325
0.288793
-0.784962
-0.599311
-0.490269
0.225073
-0.692810
0.544271
-0.020029
0.173780
-0.584209
0.221927
-0.550242
0.345676
-0.332219
0.097087
-0.300063
0.540374
-0.012535
0.242105
-0.660449
0.136676
-0.063045
-0.512122
-0.071550
-0.006271
-0.486500
0.896319
-0.178240
0.568289
-0.843611
-0.917895
-0.866835
-0.008128
-0.717885
0.145289
-0.460714
0.453898
-0.029310
0.480743
-0.627678
0.613519
-0.002670
0.473940
-0.263176
0.334889
-0.575006
0.559259
-0.175263
0.587541
0.080159
-0.746811
-0.363466
0.163103
0.093158
0.496367
0.260832
0.385899
-0.554679
0.056961
-0.808343
0.397717
-0.649505
0.492965
-0.281603
0.252684
-0.678004
0.042317
-0.006582
0.007314
-0.523060
0.630280
-0.624813
0.525731
-0.412180
0.180029
-0.160620
0.287186
-0.032147
0.306834
-0.145626
-0.343947
-0.136417
0.831934
0.484790
0.308376
-0.239247
0.112379
-0.424978
-0.004718
-0.841908
0.222447
-0.388998
0.427546
-0.015411
0.670601
-0.680229
0.693415
-0.012918
0.682831
-0.004709
0.535978
-0.621071
0.621562
-0.361709
0.333250
-0.063745
0.369464
-0.589740
0.201802
0.103063
0.115681
-0.046327
0.945112
-0.147716
-0.091064
-0.207505
0.435940
-0.315481
0.367351
-0.291334
0.304609
-0.589797
0.680332
-0.032155
0.605209
-0.650933
0.012384
-0.598624
0.663851
-0.699195
0.599353
-0.499829
0.620266
-0.520915
0.169720
-0.031871
0.346423
-0.779329
0.419857
0.189113
0.020354
-0.454868
0.507075
-0.096363
0.631892
-0.225191
0.112773
-0.457837
0.694546
-0.480123
0.049171
-0.299156
0.369921
-0.029503
0.331310
-0.275130
0.680436
-0.343694
0.173754
-0.644287
0.342889
-0.073107
0.444116
-0.190329
0.661631
-0.302817
0.501365
-0.611743
0.522268
-0.844848
0.411074
0.081590
0.464539
-0.077575
0.103479
-0.122964
0.603893
-0.216252
0.580801
-0.598440
0.696375
-0.629972
0.197595
-0.366296
0.659475
-0.528906
0.641426
-0.639911
0.172600
-0.115179
0.584198
-0.515489
0.188286
-0.328313
0.078644
-0.082308
0.233967
-0.595315
0.598835
-0.123487
0.585938
-0.478748
0.155084
-0.145677
0.003576
-0.258563
0.268641
-0.607470
0.474815
-0.149443
0.505910
-0.471190
0.079415
-0.003505
0.137486
-0.038890
0.532411
-0.078912
0.678801
-0.005011
0.194091
-0.562998
0.520500
-0.382377
0.191311
-0.599145
0.464685
-0.425278
0.494459
-0.363520
0.548765
-0.380397
0.142268
-0.003849
0.526075
-0.145844
0.262412
-0.094716
0.053314
-0.037226
0.244159
-0.559224
0.508417
-0.323574
0.562729
-0.645903
0.362463
-0.395140
0.024815
-0.341264
0.400151
-0.218906
0.204262
-0.220652
0.601283
-0.395574
0.119796
-0.365967
0.120852
-0.614256
0.029487
-0.669617
0.294653
-0.171755
0.140300
0.120728
-0.317599
0.235877
-0.215444
0.370914
-0.273104
0.459603
-0.230137
0.081520
-0.083176
0.092867
0.098339
0.445640
-0.488006
0.052238
-0.086904
0.188158
-0.271144
0.291166
-0.408809
0.172426
-0.686740
0.528605
-0.538393
0.107592
-0.442861
0.567881
-0.077209
0.037514
-0.039636
0.050675
-0.158242
0.357235
-0.286552
0.373686
-0.028148
0.559655
-0.133288
0.258286
-0.641176
0.216465
-0.351152
0.668599
-0.662105
0.139159
-0.020837
0.049009
-0.327316
0.291980
-0.340175
0.036125
-0.463259
0.326914
-0.564731
0.302800
-0.434506
0.307591
-0.170681
0.511715
-0.345105
0.210316
-0.562389
0.503347
-0.567551
0.148941
-0.177032
0.595699
-0.008597
0.310321
-0.153985
0.649772
-0.526785
0.505138
-0.618372
0.488890
-0.644297
0.639208
-0.537899
0.271613
-0.231189
0.178073
-0.307738
0.695595
-0.504988
0.172469
-0.298395
0.239494
-0.480060
0.469076
-0.051209
0.125165
-0.808427
0.613598
-0.628512
0.546943
-0.062539
0.105544
-0.442642
0.071136
-0.415865
0.596628
-0.020909
0.242650
-0.401766
0.639280
0.050962
0.346062
-0.502262
0.569439
-0.617675
0.109677
-0.047512
0.225414
-0.105273
0.552500
-0.397882
0.403668
-0.091994
0.177943
-0.172744
0.143203
-0.303108
0.152136
-0.056801
0.231620
-0.699079
0.119341
-0.337164
0.441721
-0.190477
0.053029
-0.338349
0.211385
-0.295679
0.040115
-0.150665
0.327219
-0.386177
0.029154
-0.196658
0.303852
-0.138831
0.244170
-0.529266
0.244104
-0.096670
0.227148
-0.647772
0.188664
-0.405091
0.120516
-0.331867
0.008199
-0.272652
0.388669
-0.239819
0.271731
-0.508009
0.576983
-0.013453
0.698486
-0.630012
0.351802
-0.209871
0.225690
-0.391917
0.360536
-0.552909
0.078094
-0.389690
0.049567
-0.381946
0.528522
-0.293737
0.211212
-0.072626
0.390407
-0.438360
0.039361
-0.529114
0.335682
0.100675
0.382436
0.018406
0.520985
-0.668609
0.336587
-0.643825
0.407617
-0.268452
0.698751
-0.406103
0.198463
-0.350553
0.615974
-0.424154
0.042470
-0.276510
0.277063
-0.120564
0.666201
-0.326629
0.502510
-0.494722
0.620366
-0.017103
0.684381
-0.219946
0.429646
-0.593438
0.274820
-0.682694
0.131336
-0.284313
0.170273
-0.427339
0.300391
-0.438651
0.427524
-0.008008
0.007103
-0.426275
0.414111
-0.205566
0.076828
-0.330085
0.629720
-0.119298
0.606595
-0.206783
0.239863
-0.572796
0.533412
0.026448
0.436969
-0.576608
-0.154422
-0.577665
0.125206
-0.412565
0.254135
0.080552
0.305236
-0.110137
0.714356
-0.450893
0.593497
-0.255572
0.189545
-0.321021
0.263580
-0.196648
0.047296
-0.677691
0.402215
-0.124124
0.307776
-0.331935
0.243422
-0.214371
0.470165
-0.401040
-0.014731
-0.381806
0.538177
-0.484732
-0.172755
-0.752597
0.389054
-0.259106
0.802915
-0.096391
0.579843
-0.093641
0.263432
-0.400037
0.544535
-0.156928
0.655609
-0.034080
0.477949
-0.219190
0.230728
-0.525245
0.196881
-0.632942
0.580816
-0.504657
0.264877
-0.170543
0.112692
0.313101
0.675475
-0.087616
0.600501
-0.181651
0.820952
-0.092665
1.138094
-0.135420
0.206903
-0.021971
0.662592
-0.536949
0.167059
-0.226024
0.236987
-0.011594
0.382952
-0.192596
0.045673
-0.160901
0.411786
-0.276401
0.686145
-0.608667
0.209344
-0.537040
0.250013
-0.825975
-0.444366
-0.432474
-0.038891
0.227218
0.045890
-0.311460
0.955321
-0.015946
0.217695
-0.289600
0.249860
-0.347265
0.363018
-0.212452
0.184215
-0.530077
0.438476
-0.421201
0.541670
-0.121427
0.613797
-0.587344
0.282328
-0.325583
0.163745
-0.256851
0.157122
-0.819173
-0.549088
-1.045104
0.115941
-0.629448
0.657920
0.253117
0.791521
0.065443
0.381756
-0.342786
0.617905
-0.633838
0.632386
-0.167765
0.281103
-0.295872
0.380218
-0.465317
